-0.300086 -0.252951 0.077531 -0.201254 0.570999 -0.860636 0.069252 0.366936 0.042265 -0.100525 -1.026755 -0.012264 0.332952 0.378141 0.248617 0.302940 -0.617922 -0.038498 -0.531652 0.215937 0.357280 -4.791592 -0.048333 0.051968 -0.040803 -0.231743 -0.636811 1.480086 0.394534 0.211756 0.377061 0.613631 0.021176 -0.624989 0.853326 1.923499 -0.124814 2.014197 0.523266 0.166240 0.263943 -0.094769 0.167471 0.132433 0.409782 0.239124 0.477830 0.563279 0.283332 0.110645
-2.613265 1.144664 0.113791 0.418050 1.867998 0.146553 -0.310725 0.703920 0.127835 0.318984 -0.028518 0.350979 -1.622340 0.340623 -0.266868 -0.019537 -0.656604 -0.753389 0.078539 0.540265 0.700909 0.470483 0.788133 -0.658983 -0.517733 -1.169325 -0.276486 -0.358349 -0.254535 0.022116 0.991426 -0.807418 -0.687875 0.849745 -0.266453 -0.261250 0.056164 1.777934 -0.880725 0.599881 0.112507 -0.136305 0.048265 -0.204005 0.154189 0.652614 -2.291653 -0.228016 -0.266555 -1.037860
-3.320357 0.067274 -0.624569 0.913566 0.030748 0.545701 -0.194542 -0.076029 -0.766741 0.280109 -0.082815 -0.562204 -0.788056 0.046480 0.654372 0.294468 0.242638 14.196283 -1.174395 12.315067 -0.635351 0.185138 -0.039724 0.526457 0.133943 0.017215 -0.442523 -0.477942 0.446345 -0.430752 -0.136508 -0.158145 0.646511 -2.319178 -0.723228 0.473543 -0.130252 0.281502 -0.578462 -0.083412 0.511887 0.350212 0.814457 0.266853 -0.894789 -0.126579 -0.303116 0.233374 -0.274104 -0.146148
0.316133 1.066793 -0.000308 -0.322870 -0.271124 -0.427291 -0.680469 -0.445374 0.668549 -0.107249 0.068790 0.380886 -0.156346 1.003014 1.065646 0.188089 -0.005939 -1.222726 -0.070686 0.377156 -1.059397 -1.666260 0.861665 0.253073 0.319592 -0.964369 -0.043758 0.684419 -0.163789 0.528568 0.391722 -1.013416 0.657097 0.183853 -1.364451 -0.505296 0.225163 0.083077 -1.787852 0.228080 0.233980 3.584155 0.401451 0.792578 -0.744614 0.297880 -0.162393 0.343086 -0.132219 0.017409
-0.318679 0.856222 0.104724 -0.038753 -0.716118 -0.222584 -0.953713 0.032396 0.501421 -0.333341 -0.499377 -0.111140 -0.431886 -0.724818 0.658927 -0.212137 -0.435802 0.457796 -1.165561 0.205331 -0.921551 -2.633688 -0.517896 -0.180052 -0.706930 -0.286112 0.001523 1.198671 -0.565682 0.364461 -0.044904 0.297357 0.491530 0.373900 -0.566813 -0.100036 0.297773 0.712709 -1.399126 -0.133870 -0.104775 1.612140 -0.040114 0.471975 -1.576047 0.109761 -0.205770 0.540538 0.200735 -0.544806
0.322473 -0.421506 0.639722 0.518256 0.372360 0.211875 -0.827351 -0.669993 0.797524 -0.101559 -0.263432 -0.053695 0.513215 0.892830 0.623898 -1.945221 -0.275185 2.590547 -0.710288 0.196837 -2.841625 -0.796670 -0.299577 -0.228039 1.864357 -0.686876 -0.496254 0.542870 -0.425332 -0.814107 0.201048 -0.352405 0.965993 1.156016 -0.042393 -0.612053 -0.471597 -0.425944 0.084178 -0.641429 -0.903620 -0.201668 -0.256930 0.696283 -1.395728 0.517631 -0.406453 0.008918 0.012221 -0.739658
0.604290 -0.244131 1.035578 -1.859944 0.334209 -0.561135 -0.085975 0.293652 0.657753 1.921398 0.275452 0.442420 0.495595 0.007417 -1.079225 0.694506 -0.954569 10.974747 7.751098 0.212347 0.542573 -5.223564 -0.654480 -0.375187 -0.837480 -0.218756 -1.205611 0.727558 -1.365863 0.664701 0.385127 0.252401 -0.508547 2.239189 -0.046116 -0.303180 0.056466 0.329810 1.081174 -0.524791 -0.294428 0.414199 1.393725 1.249619 -0.104236 0.186923 0.909407 -0.417367 -0.861197 -1.635556
-0.609720 -0.137859 -0.884144 0.962414 -0.796722 -1.073048 -0.286497 0.248399 -0.473018 -0.318350 -1.014506 -1.073150 0.553163 -3.960911 0.332988 0.280069 -0.174994 -2.719820 -4.631258 -0.612821 -0.430698 0.073136 -0.521351 -0.087679 -2.270088 0.690908 -0.085866 0.529563 -0.353964 -0.185441 -0.292003 0.176985 0.294927 -0.401192 -0.260967 0.811329 -0.061175 0.426830 -0.407122 -0.152762 -1.831671 -2.415067 -1.001120 0.713698 0.680413 -0.398851 -0.766531 0.389274 1.260141 0.872705
-0.187187 -0.186561 -0.454755 -2.053122 0.272627 0.316919 -0.389829 0.212307 -0.070596 0.401150 -0.324983 0.485349 0.293259 0.579988 -0.677459 -0.367491 -0.489460 0.241410 2.602829 -0.205083 1.324456 -2.511493 -0.027473 0.151297 -0.949538 -1.142448 -1.570614 -0.404339 -0.707779 0.065043 0.459870 0.569973 -0.129523 4.733548 0.083634 1.312284 -0.605087 -0.634299 -0.195582 -0.194775 0.336066 0.649967 0.537006 0.905883 0.541190 -0.466035 0.658805 -0.312435 -0.145723 0.668264
0.306118 0.153410 0.133713 0.066528 -0.327490 -0.006695 -0.593805 0.522968 -0.451454 0.524674 -0.411015 -0.164422 0.137770 0.233854 0.140610 -0.272431 -0.201935 0.024074 -0.504110 -0.374887 1.107665 -2.507568 0.068376 -0.551353 -0.067712 -0.960547 -0.545242 -0.551363 -0.470250 -0.116167 0.535773 -0.846108 -0.065230 1.948262 0.138504 0.503115 -0.031381 -0.777173 -1.228072 -0.320657 0.317931 0.177370 -0.001468 0.275256 -0.684876 0.120107 -0.386968 -0.065695 0.642895 -0.076467
-0.017620 0.062636 0.341309 -0.144127 0.143585 -0.463545 0.256861 0.563947 0.313022 0.491423 0.290010 -0.106524 -0.283850 0.439465 -0.768462 0.122028 0.002788 -1.167525 0.008177 0.633952 0.511401 -0.565149 -0.355129 -0.666415 0.506097 -0.737269 -0.735606 0.663904 -0.235205 -0.444259 0.306956 0.411611 -0.857624 0.704206 -0.164893 0.652601 -0.398513 0.796269 -2.035000 0.095245 -1.502821 0.302509 -0.232561 1.035970 -0.672825 0.157103 -3.009910 -0.537959 0.122697 -0.400681
0.154443 0.808632 -0.991272 1.214108 -0.532440 -0.067322 0.171215 0.273885 -0.415356 0.069447 -0.629665 -0.752737 -0.498197 0.708142 -0.243149 0.395596 0.486047 2.048238 -0.040843 -1.445623 0.493314 -0.799389 -0.734850 -0.624510 0.070725 0.262692 -0.919478 0.161336 -0.261115 -0.305732 0.331371 0.290358 0.400065 -1.656997 0.209067 1.731044 0.246888 1.665278 -3.297280 -0.067592 -0.986554 -0.640836 -0.476470 0.836292 -0.195055 0.470027 -0.449795 0.290533 0.549690 -0.257815
0.199204 0.352193 -0.342521 -0.269225 -0.900192 0.597863 -0.066949 -0.230957 -0.384022 -1.055867 -0.558308 -0.184222 -0.187579 -0.840010 0.872625 -0.059791 -0.351756 -0.383020 0.229638 -0.356714 -1.308964 0.181628 0.252737 0.836325 -0.519919 0.079408 -0.798133 1.280147 0.198127 0.358571 1.727532 -1.224547 -0.615427 -0.280737 -0.213397 0.941372 -0.738546 0.750733 0.374486 0.151593 -2.917950 0.942770 0.482878 0.475539 0.754258 3.060707 0.255180 -0.669575 -1.280314 0.156846
0.249793 0.439155 0.059955 -0.296485 -0.061489 -0.339958 -0.903417 0.199531 -0.368607 0.787296 -0.761251 -0.073115 0.804921 0.645219 0.006992 0.501968 0.258923 -3.146376 -0.332897 2.015656 -0.151161 -2.615150 0.621408 0.156839 -1.491168 -0.784905 -0.901083 -0.389130 0.484842 0.685276 0.442922 -0.049845 0.106549 0.527517 -0.068421 1.266128 -0.098614 0.797228 -1.446716 -0.049169 -0.086822 -0.086601 0.630232 1.590674 0.204522 0.032728 0.207170 0.386898 0.497935 -0.445050
0.186386 0.868714 -0.008704 -0.090067 -0.042406 0.337786 -0.530347 0.624620 0.195486 -0.874241 0.039143 -0.368808 0.322146 0.897600 0.526242 0.373678 0.351322 0.306401 -1.142433 -0.044724 0.263838 0.048234 -1.019892 -0.460927 0.085582 1.739247 -2.051704 0.685889 -0.670902 0.629221 1.206902 0.171378 -0.277748 0.844562 0.020914 -0.613226 0.474872 -0.566049 -3.358104 -0.109374 -1.311571 -0.084442 0.641641 0.282808 -0.846094 0.644091 0.294206 -0.151914 0.033415 0.174774
0.140451 1.028606 -0.157149 -0.751311 -0.258114 2.865001 0.203272 -0.158109 -0.830032 -1.357154 -0.895970 -0.366564 -1.211260 -0.697788 0.255718 -0.555700 0.026596 2.789780 0.263876 -1.943951 -0.019821 -0.152832 0.166040 -0.230584 -0.514517 -0.427125 -0.277127 -1.268483 -2.013566 0.249776 0.372435 0.101387 -0.407042 4.390967 -0.033240 2.472499 -0.624660 0.361134 -1.161901 0.198665 -0.603522 -0.127255 0.855229 0.316539 -0.297992 -0.531250 -0.028997 -0.059019 -0.868303 1.419851
-0.728102 0.691887 -0.440214 -1.441268 -0.024238 -1.603717 -0.405736 0.125362 0.225721 -1.249972 -0.444905 0.139383 -0.402318 -1.388049 0.899414 0.135802 -0.286189 -2.984430 4.485738 0.632661 -1.981901 -0.972484 1.191640 0.447831 1.026203 -0.002618 -0.779109 1.049479 -0.254197 -0.230502 -0.528477 0.085019 0.188973 -1.637268 -0.207486 2.118407 0.446155 0.965356 1.009461 -0.333396 0.072281 0.148154 -0.041476 0.079415 0.088986 -0.624840 1.101253 0.628099 0.165569 -0.630031
-0.160868 0.441880 -1.102997 -0.326977 -0.068411 0.449153 0.136272 -0.142732 0.102142 -0.323496 0.547126 0.130548 -0.546036 0.500456 0.820956 -0.203921 -0.196299 -2.322395 3.725965 -2.100374 0.445181 0.481720 0.748841 0.315851 -0.530361 -0.372135 -0.156346 -0.323049 -0.923878 0.111541 0.619171 0.086475 0.638989 0.333613 -0.452232 2.117481 -0.072125 1.285823 0.303914 -0.179281 -0.254365 0.245648 0.458021 -0.298116 1.059135 0.081475 0.308616 0.247906 -0.065165 -1.114386
0.184644 -0.026295 0.266509 1.360871 0.488970 -0.583420 -0.771884 0.268008 -0.010301 0.295621 0.322002 0.093287 0.110132 -0.418518 -0.212100 0.255410 0.057207 1.838075 -0.945652 0.745464 1.104881 0.230986 -0.217536 -0.028104 -0.098934 -0.225333 -0.110187 0.868065 0.238410 -0.198230 0.317946 0.238061 0.071419 -0.363142 -0.228507 4.862466 0.322856 1.086250 0.170222 0.186673 -0.102621 0.532619 -0.189503 0.318350 0.536443 0.196936 0.403879 -0.109338 0.173912 -0.447348
-0.120584 0.423658 -0.278620 -1.247100 -0.379602 0.483599 -0.188484 -0.192735 0.482579 0.298667 -0.432060 0.154433 -1.958817 -0.172216 0.317211 0.240662 -0.000697 -5.906330 3.065025 -0.008206 -0.980242 -2.379045 0.685538 0.154545 -1.236785 0.237020 -0.302111 -1.798226 -1.397622 -0.121339 -0.057554 -0.089677 -0.137577 1.297933 0.411719 2.338735 -0.276099 0.469283 -0.528171 -0.385752 -0.493262 1.356713 0.991226 0.915789 0.503851 -0.952216 -1.313600 0.199436 -0.875712 -0.246374
-0.221040 0.613488 0.269243 -1.705990 -0.205375 1.293852 -0.000436 -0.463356 -0.134590 -0.227221 -0.042326 0.197062 -1.624675 -3.196343 -0.292431 0.060169 0.374598 -6.118587 1.894954 2.740215 -0.392481 0.065989 0.446496 -0.141584 0.394575 0.283132 -0.401183 -3.317971 -0.916241 -0.307256 0.659551 -0.272008 -0.474620 0.896642 -0.215278 1.153900 -0.855697 -0.144407 0.591641 -0.066452 -0.874521 0.494018 1.207899 0.436298 0.814373 1.425414 0.091748 -0.327391 -1.007560 0.378760
-0.173696 0.629465 -0.509246 0.959744 0.089829 0.100762 0.225147 0.703611 -0.589633 -0.779195 -1.164799 -0.306708 -0.800014 -2.191230 0.878150 0.116582 -0.594267 2.773015 0.263016 -0.611775 -0.324590 -2.038145 0.303726 0.621150 0.075381 -0.043433 -1.239892 0.989496 -0.006142 -0.212476 0.153064 -0.352800 -0.851283 0.805219 0.573751 1.931603 -0.173775 0.998218 -0.346996 0.073820 -2.121512 -0.170459 -0.076967 0.755823 0.243837 -0.178090 0.462435 0.577342 0.359029 -0.353137
-0.230989 0.570496 0.706922 0.407726 0.556228 -0.255142 1.002527 -0.311216 0.022787 -0.213096 -0.941173 -0.320284 0.285581 -0.325054 0.159104 0.136870 0.208048 -1.193289 0.475684 0.279956 0.511931 -1.053333 0.358490 -0.388762 -0.889200 -0.429336 -2.296117 -1.111814 -0.270920 -0.079966 -0.292268 0.836316 0.014165 -0.034958 0.150762 2.296082 0.034928 1.038111 0.476443 0.101351 0.329768 -0.128918 0.441896 0.446237 0.685348 -0.863059 0.867171 1.071121 0.210065 0.080405
0.096805 0.176012 0.352917 0.767143 0.429988 0.543389 -0.410177 0.504894 0.322775 0.181385 1.418676 -0.463243 0.575874 -0.268509 0.461868 -0.236364 -0.179807 0.475231 -0.515763 0.876779 0.318855 0.300669 0.941845 -1.079775 1.355599 -0.418613 -0.633767 -0.213933 0.419080 -0.439564 0.105491 0.263271 -0.261333 -0.201805 -0.806099 5.357424 0.169884 -0.051340 0.861081 -0.434206 -0.382698 -0.203190 -0.987770 -0.144535 -0.495366 -0.326892 0.697947 -0.655774 0.000040 -0.063378
0.277469 0.769388 0.233279 -0.876062 -0.301301 0.311984 0.582432 0.193503 -0.764905 -0.702061 -0.239774 0.077547 0.613616 0.450730 0.824883 -0.838613 -0.309385 -0.207985 -0.343355 0.783101 0.648160 0.422478 1.363160 0.164551 -0.679754 0.596156 0.355918 -0.109113 0.288174 -0.156267 0.457537 0.799847 0.669578 0.435017 -0.063609 0.547623 -0.783042 -0.506418 0.788802 -0.487397 -0.904607 0.495104 0.076979 -0.261915 -0.291812 2.551423 -0.077826 -0.180806 -0.521017 0.276796
-1.189230 0.496450 -0.004599 -0.637807 0.825564 0.681908 -3.299124 2.717606 -0.555438 1.280198 -0.305831 -1.058167 -0.365955 -8.544665 -1.733711 -0.018070 -0.505455 0.381226 2.272574 3.554533 1.970350 -0.822739 -0.605579 -0.382585 0.697762 -0.296333 -0.010623 -5.335432 1.509234 -0.081941 0.887059 0.729009 -0.550719 0.216382 -0.433987 0.183693 1.099860 0.961101 0.272066 0.065730 -0.858025 1.020242 -0.668464 -0.039808 -0.119072 1.803348 3.011383 -0.569341 0.484562 -0.041818
-0.003634 -0.097715 -0.218322 -0.038235 -0.694688 0.266406 0.284058 -0.028867 -0.063858 -0.404436 -1.218119 0.089913 -0.031061 -0.206466 0.517168 -0.218891 -0.459870 -0.260687 0.334228 0.437783 0.853518 0.585850 -0.129309 0.148175 0.861178 -0.284818 -0.019541 0.345085 -0.051280 -0.023434 0.578832 -0.132653 1.010477 0.118549 -0.162347 0.289375 -0.716858 -2.070003 0.327876 0.277283 -1.843126 -0.403377 0.163049 -0.260912 -0.650650 0.187629 0.878326 0.481363 -0.312805 0.178740
-0.302423 -0.509023 0.672302 0.186940 0.133129 0.806940 -0.687442 -0.085635 1.081565 1.585631 1.396014 0.057770 0.147149 0.070129 0.192237 0.474125 -0.228996 -4.118918 -6.832425 1.364195 0.107196 0.550901 -0.872338 -1.070973 -1.369718 -0.459660 -0.393397 1.657152 -0.237076 -0.124628 -0.074616 0.698477 -0.087056 0.072287 -0.903198 4.651947 -0.573201 0.298229 -0.108437 -0.076813 0.097430 0.304604 1.346477 -0.058879 0.277952 -0.320271 -0.005191 -0.695917 -1.106542 -0.760780
0.618505 -0.455056 0.747315 -0.064268 -0.240080 -0.228365 -1.262293 -0.159506 0.734381 0.579672 -0.239100 -0.821396 -0.417181 0.410220 -0.358588 0.187040 -0.231777 -1.193627 -3.282533 1.212828 -0.191455 1.070678 -0.791548 -0.499492 0.499117 -0.108514 -0.511257 0.534789 -0.364386 -0.174863 -0.640164 0.879894 0.967520 -0.423173 -0.950374 -0.078311 -0.453172 0.236850 -2.887621 -0.592183 -1.475326 0.007255 0.607643 -0.026627 -0.995174 -0.571742 -1.147451 0.220395 0.035208 -0.175392
-0.060850 0.185069 0.581124 0.431102 -0.773448 0.559435 -0.953220 0.573483 0.766728 -0.384475 -0.544492 -0.274310 -0.508888 -2.591630 0.265164 0.283379 -0.390342 0.434292 -3.312271 0.543209 0.218652 -1.780330 -0.766199 0.354867 -0.348874 0.381206 -0.555276 0.385897 -0.184868 5.381488 -0.254219 0.953393 -0.175535 -0.042017 -0.026380 0.047224 -0.175906 0.340059 -0.371691 -0.453856 -1.790195 -0.079055 0.502946 0.463726 -0.209439 -0.690744 -1.020746 0.299928 -0.022270 0.030192
0.294538 0.951099 0.561536 -0.090101 0.028829 0.823956 -2.199239 0.773974 -0.627005 -0.794724 1.179333 1.838668 0.794791 0.700783 1.531703 -0.409561 -0.360846 0.664454 -1.297120 -0.189392 0.015275 -0.073645 -0.604510 0.989827 -0.860669 -0.933942 0.755566 0.224149 0.063658 -1.180312 0.902846 0.888822 0.436596 -0.335307 0.162273 -0.501141 -0.442600 0.299578 0.208059 0.047827 -1.823328 0.185166 0.437363 -0.462330 -0.172860 -0.863931 1.020619 -0.120725 0.301467 0.802613
0.698949 0.760990 0.324493 0.092285 -0.171548 -0.086036 -0.260524 0.796318 -0.135975 0.546890 -1.385292 2.293588 0.512729 1.091992 -0.152598 -0.149602 0.200978 -0.452929 -0.266903 0.011611 -0.270499 0.469503 -1.280445 -0.237976 0.046685 -0.246899 0.247905 -0.354260 1.271856 -0.301707 0.827604 0.276455 0.552920 -0.780357 3.736837 0.589140 -0.448853 -0.536134 0.791364 -0.135153 -2.398413 0.123590 -0.590766 0.001961 -0.380151 2.713404 0.292313 0.798538 0.325959 0.599326
0.443901 0.290717 -0.285024 -0.157652 -0.169512 0.310721 -0.379198 0.336139 -0.112097 -0.256224 -0.611862 0.918487 0.225099 0.131047 -0.170175 -0.303241 -0.141809 0.233600 -0.563460 0.568314 1.698559 0.427702 -0.820507 -0.047880 -2.761820 -0.359603 1.292568 -0.328841 -0.597230 0.416658 0.510617 0.287726 0.139112 0.080228 0.864499 -0.264837 -1.072366 -0.024454 0.497399 -0.130324 -1.476654 -0.008136 -0.252215 0.425011 0.032485 -0.216097 0.126187 0.144412 0.765119 -0.420156
0.023923 0.652896 -0.427807 0.463992 -0.009387 -0.109665 -1.910023 0.851699 -0.105952 0.195237 2.958224 0.897568 0.147444 0.589846 0.616975 0.503692 0.041851 -0.415084 -0.150182 -0.531878 0.703929 0.394783 -0.901046 -0.315013 -1.216474 -0.460978 -1.161904 1.399730 0.231574 0.232548 0.606130 0.445245 0.032963 -0.564172 -0.438947 1.064917 0.351926 1.217199 0.442980 -0.330902 -1.417069 -0.196076 -0.524361 0.235700 -0.213965 0.222565 0.383063 -0.184615 0.913930 -0.383769
0.163235 0.486255 -0.328746 -0.148788 -0.718803 0.433904 -0.060610 -0.113516 -0.969832 -0.633994 -0.975008 0.023627 -0.025176 -0.736801 0.001321 -0.131048 -0.191917 -0.291638 -0.367092 -0.220880 0.688713 0.270850 0.419722 0.211981 -1.294939 0.148080 0.124225 0.281047 -0.064359 0.358918 1.183393 -0.178494 0.570977 0.180607 -0.473202 0.423143 -0.863964 0.525133 0.733903 0.331557 -2.163200 -0.324269 0.133579 0.275139 -0.421735 2.695217 0.588790 -0.290086 0.369750 -0.361471
0.324847 0.329678 -0.428641 0.949795 -0.510714 -0.006994 -1.727007 0.777516 -0.788916 -0.946161 0.473020 0.948619 0.753643 1.750252 1.494553 -0.732568 0.252722 -0.414556 -0.768041 -0.455884 -0.580268 0.032062 0.431800 0.416409 0.410745 0.150047 -2.180363 2.130946 0.460651 -0.368685 1.233875 -0.078380 -0.176775 0.701868 1.334963 1.159900 -0.314049 -0.400012 1.918869 -0.400936 -2.468730 -0.146201 -0.299596 0.842156 0.594501 3.410356 -0.435767 -0.000473 0.429572 -0.336067
-0.024833 -0.683670 1.634941 -0.540027 0.008870 -0.022701 -0.700606 0.010730 2.665694 0.352106 0.527113 0.351666 -1.022298 -0.076543 -1.219791 0.329955 0.125931 0.299812 2.470466 1.343394 0.813464 0.360097 -0.698077 -0.219138 -1.632141 0.119779 -1.233251 -2.892325 -0.317656 0.070917 -6.927554 -0.054745 0.381127 -0.688922 -0.244639 0.278082 0.396848 0.330346 -0.148923 1.229905 0.068171 -0.845383 1.423631 -0.380796 -0.737336 0.138474 0.577612 2.051565 0.191020 -0.511397
-0.320150 0.039325 -1.870794 -0.559101 -1.185184 -0.268549 -1.016682 -0.613031 -0.936897 -0.236123 -1.127652 -0.131631 -0.475496 -0.148647 0.550290 -0.559540 -0.342237 -1.806689 -1.844220 -0.617605 -1.400097 0.369158 -0.150631 0.470497 -0.444952 0.171108 -0.421554 1.596542 -0.378106 0.441324 0.057673 0.034953 1.135350 0.058145 -0.481450 0.791729 -0.635845 -1.276675 -1.537325 -0.417506 -2.374204 -0.358539 0.042575 -0.054910 -0.168267 -0.683599 0.376136 0.138276 -0.263922 0.534386
1.538449 -1.844993 0.196845 0.686539 0.046005 1.309023 -0.034954 0.352823 -0.188108 0.936836 0.260948 0.091979 -0.783700 -0.256391 -0.148554 -0.127081 0.560641 0.885516 1.261669 0.190802 0.817492 -8.394095 0.226507 0.533844 0.618176 -0.404182 1.861322 -0.062043 0.039550 -0.351601 0.162321 -2.417662 -0.372001 0.220874 0.012201 0.099384 -0.833709 -1.734669 -1.044336 -0.257011 0.429394 0.998093 -0.378162 -0.257240 0.446018 0.360442 0.414835 -1.115636 0.428566 -0.751324
0.062465 0.111946 -0.790138 0.000453 -0.541340 -0.652214 -0.201990 0.596465 0.449535 0.161340 -1.326211 0.837561 -0.095006 0.514607 -0.005059 -1.850165 -0.498629 -0.406054 -3.994387 0.904667 0.259592 0.315832 -0.995050 0.112681 0.083772 0.141417 1.063777 0.004952 -0.807165 0.327269 0.380361 0.677230 1.119455 0.702575 1.029028 0.237358 0.552498 -0.988102 0.405706 -0.040641 -0.834904 0.489070 -0.055410 -0.422875 1.090994 -0.005716 0.386513 0.529886 -0.034461 -0.276516
0.151732 0.650637 -0.387901 -0.358234 -0.415444 -0.000930 -1.163983 -0.781128 0.130390 -0.194795 -0.897856 1.184693 0.679461 0.281400 -0.521098 -0.675815 -0.301095 0.465297 -1.863542 0.487038 -0.064652 0.147706 0.129589 0.190632 -0.360657 -0.451673 2.079016 -0.306136 -0.434644 0.488946 0.716941 0.572476 -0.129043 -0.245743 0.510547 -0.715506 -1.150610 -0.278572 0.649670 -0.324829 -1.489738 0.197893 0.169090 0.578243 0.464190 -0.302985 0.593143 -0.005968 0.121059 -0.235550
0.136314 -0.334576 0.173236 0.884649 -0.448434 0.598975 -1.702837 0.705976 -0.499501 0.437199 2.435591 0.667496 0.453364 -0.212800 -0.284528 0.561460 -0.350520 -0.827934 1.706818 0.059413 0.547578 1.403336 0.186274 -0.518252 -0.209179 -0.432483 -0.331461 -0.408764 0.639806 0.300812 0.565930 -0.091917 -0.155996 -0.399186 0.044508 4.474337 0.169307 -0.082677 0.603241 -0.500615 -0.650669 0.330209 -0.483554 -0.228401 0.495815 0.368321 -0.283973 -0.734562 0.348767 0.066141
0.023055 0.552063 0.264047 -0.484387 -0.259871 0.063028 -0.574168 -0.403041 0.194710 0.027998 -0.349285 -0.100034 -0.339541 -1.567841 0.579004 0.040861 -0.205128 -0.246268 -0.649209 0.833192 0.925868 0.551701 0.173879 -0.171662 0.164077 0.415180 0.004621 -0.265904 -0.208039 -0.361128 0.555103 0.043542 0.896517 0.340739 -0.981272 1.308492 -0.631063 0.118873 0.711169 0.150891 -1.725304 -0.626248 -0.003411 -0.185945 0.521900 1.548263 1.006266 0.028824 0.190468 0.039334
0.412879 -0.231552 -0.590325 0.788127 -0.909397 0.073426 0.053363 0.682652 0.566648 -0.729622 -0.969083 -1.256883 0.553735 -1.813651 -0.030901 -1.665431 0.009098 1.591848 -2.115169 -1.218017 -0.046796 1.458684 -0.919644 1.315826 0.170729 -0.362118 -0.654997 -0.279485 -0.084101 0.337897 0.083426 -0.021466 0.876402 0.258344 -0.658076 0.151774 -0.349892 -0.178519 -0.593256 -0.044843 -1.800096 -0.047019 -0.043055 -0.070559 1.034532 -0.784610 0.121713 0.332048 0.117070 -0.223340
-0.668595 0.183632 0.084991 -0.193558 -0.817806 0.212872 -0.666384 0.210723 -1.208184 -0.400140 -0.250596 0.751641 0.931461 0.607804 -0.190209 0.381882 -0.873122 -0.962521 1.747242 -0.478898 -0.607541 0.666982 -0.070590 -0.321478 -0.665510 -0.452596 -0.173970 0.278367 -0.564022 -0.189766 0.485249 0.970897 0.136937 -0.537539 -0.875426 -1.240098 -0.768919 -0.081212 -0.491382 0.267194 -1.919486 -0.143621 0.437642 -0.038096 1.289195 -0.759852 0.972887 0.005302 0.007143 0.459118
0.017442 0.953197 -0.503913 -1.809992 -0.213850 -0.456777 -0.483585 -0.088716 0.318973 -0.114888 -0.735925 -1.097629 0.150956 0.534363 0.291999 1.464580 -0.255693 2.506031 -2.679621 -0.477215 -0.342310 -1.529523 1.089440 1.201366 -0.033602 0.689367 0.369014 -0.262350 1.355696 -0.575184 -0.046802 -0.825822 1.272359 0.606712 -0.889663 0.342234 0.108677 -0.880783 -5.823177 -0.724003 -0.068894 0.242511 -0.190466 0.146971 0.735416 -0.536387 1.601735 0.782256 0.851266 2.483639
-0.173642 0.702868 0.835946 0.438091 0.198200 0.409103 0.227846 0.229501 0.751446 -0.500035 1.170257 -0.449894 -0.183391 -0.648936 0.516707 -1.489117 -0.068722 1.061960 -0.426159 0.242543 1.036376 0.717383 -1.085097 0.370324 0.082452 -0.265548 0.845255 -0.204208 -0.713687 -0.249119 0.147383 0.888071 0.609109 0.632081 -1.774936 0.985046 -0.589001 0.805527 0.244997 -0.032820 1.087164 0.307202 -0.166126 -0.204914 1.069691 -0.167725 0.620884 -0.502490 -0.164200 -0.719754
0.260198 0.619292 0.338993 -1.165729 -0.318855 0.606316 -0.712152 -0.042037 -0.677352 -0.419307 -0.802080 -0.617756 0.915211 0.378846 0.531613 0.035113 -0.149359 -0.999707 0.252396 0.992644 -0.629241 -0.778334 0.345947 -0.123404 -0.169250 -0.804961 -0.261129 -0.424818 -0.386135 0.150344 0.177315 0.434894 0.486404 0.447547 -0.244447 1.266412 -0.001659 0.020431 -2.374662 -0.329428 0.376911 0.100778 0.993175 0.372066 -0.904548 -0.147322 -0.240208 0.415058 0.237514 0.082311
0.244921 0.331996 -0.343845 -0.910252 -0.105827 0.285004 -0.292520 -0.386805 -0.574974 -0.467350 -0.820195 0.444193 -0.245222 1.167763 -0.022897 0.708579 0.038701 -0.450638 0.340932 0.740601 -0.540064 -1.117519 0.475825 0.311571 0.124161 -0.454814 0.026939 0.177350 0.109090 0.596715 0.071501 0.040579 0.672871 0.724625 0.310657 2.508747 -0.222237 -0.861420 -1.838428 -0.410586 0.575429 -1.592054 0.495330 0.537112 -1.706621 -0.851199 0.229125 0.534578 0.750088 0.098390
-0.062903 0.313246 0.396758 1.177241 0.399346 -0.058344 -0.255241 0.294773 0.331116 -0.107158 2.075003 0.017347 -0.465052 -1.143676 -0.371214 -0.316940 -0.312906 0.626990 -0.059864 -0.551213 0.898986 0.977454 -0.377890 0.270010 0.119737 -0.274377 0.632559 0.555947 -0.176650 -0.365722 0.135751 0.263001 0.110643 1.145352 -1.108714 2.913347 0.209912 0.370187 0.618945 -0.451833 0.597941 0.189829 -0.943961 -1.085451 -1.437367 -0.073413 0.892027 -0.501457 -0.022414 -0.454534
0.022784 1.344110 0.125937 1.528834 0.019874 0.080450 -1.961574 0.065663 -1.222945 -1.021054 -0.808583 0.139062 -0.989927 -1.392409 1.853034 -0.444755 -0.611154 5.267124 1.447375 0.519770 -0.539668 -0.824241 1.912039 -0.349460 0.938924 0.024447 0.150946 1.251052 0.636295 0.381649 0.161267 0.347454 0.302098 6.859758 -0.210090 1.700675 0.202274 -1.360478 -0.122746 -0.332246 -0.716950 -1.954456 -3.468834 -0.166166 -1.570845 -0.568524 0.563214 0.517241 0.779849 0.999386
0.838412 -0.797391 -0.623281 -0.416076 0.702046 -0.110290 0.587727 -0.468697 -0.658549 0.298246 -0.078093 -0.119098 -1.665001 0.770649 -1.276133 -0.421900 0.701818 -0.878833 -0.196377 -0.560011 -1.746598 -0.195263 0.384897 0.396584 -1.303762 -0.150580 0.345673 0.689955 0.533444 -0.434021 -0.430262 -0.240620 0.221036 -0.354665 -0.635735 1.020338 -0.770986 0.552984 -3.378492 -0.278700 -2.499435 0.882198 0.007290 1.094223 -0.772680 -0.947312 -1.231458 -0.316121 -0.626866 0.351126
-0.516763 -0.171968 -0.910248 -0.841864 -0.430579 0.482306 -0.618337 -0.253503 -0.455851 -0.600106 -1.171958 -0.259285 -0.655091 -0.259356 -0.064809 0.368943 -0.421163 -0.859439 -1.585483 0.605648 -0.461419 -0.464317 0.707518 0.424906 -0.110362 -0.423396 0.213828 0.324625 0.111007 0.470216 0.088274 0.150857 0.623650 -0.938283 0.215024 3.692560 -0.749585 -1.005608 -2.063508 -0.388651 -1.300879 0.181979 0.746429 0.494669 -1.082224 -0.488560 0.207724 0.206914 -0.099985 0.261931
-0.126921 -0.088037 0.180340 1.375491 0.146697 -0.351183 -1.496347 0.751544 -0.375672 -0.033323 -0.655328 0.050462 0.144480 0.556076 0.439108 0.320042 -0.312811 1.100538 1.944495 -0.178300 0.517459 0.552308 -0.054156 0.240572 -1.856271 -0.807443 -0.244680 0.527401 -0.087920 0.156705 0.144356 0.098490 -0.340621 1.529322 0.165045 3.591380 -0.228845 -0.226924 -1.014290 -0.071090 -0.364203 -0.013142 -0.166968 -0.318492 -0.268532 -0.161159 0.824919 -0.101975 -0.067338 -0.304701
0.434080 -1.037277 -1.572499 -2.745492 -0.497651 -0.074707 0.460523 0.159721 1.099221 -0.389714 4.549219 0.312100 -0.690004 0.385056 -1.506822 0.050560 -0.040197 1.420473 -7.780052 -0.649390 0.367946 0.442818 -0.257514 -0.028397 -0.839892 -0.047278 -1.553083 -1.962478 -1.259841 -0.187569 0.843579 -0.303235 -0.500820 -2.769049 -0.187537 4.577681 0.052547 1.168154 -0.358183 -0.477872 -1.035521 0.138591 1.030599 -0.022533 -0.637012 2.118595 -0.868109 -0.758635 0.117472 1.005294
0.177066 -0.691046 0.382280 0.047991 0.805096 -0.499637 -0.128361 0.348748 0.785758 -0.230733 -1.538435 -0.989101 0.175356 0.172642 -0.890968 0.633806 -0.270287 0.491930 -2.115406 -1.465418 1.804192 -2.692952 -0.613460 -0.142997 -2.308670 -1.161355 -0.811091 -0.137293 -1.083831 -0.518845 -0.062346 -0.642534 0.324125 -0.711491 0.631628 2.315574 -0.232506 0.120804 -2.720755 -0.514011 0.749884 -0.308237 0.304052 0.529339 -0.060490 0.365019 1.188471 0.401259 0.360468 -0.103813
0.212544 -0.941690 0.186610 1.099323 -0.483594 -0.257552 0.228846 -0.127662 -0.632582 0.442894 -0.580388 0.652648 -0.376231 -0.992272 -0.229043 0.382152 0.204368 -2.028396 2.573422 0.266470 -0.096351 0.874669 -0.638061 0.042906 0.413434 -0.159035 -0.139263 1.463870 0.626477 0.065140 0.698296 -0.168893 0.404143 1.049738 0.310965 -0.338156 -0.693625 -2.437639 -0.188545 -0.074780 -1.881108 0.534728 -0.278659 0.475321 0.126361 0.279618 -0.205370 -0.012256 0.572513 -0.320698
0.613631 -0.128711 0.047095 -0.496091 -0.426211 1.249408 -1.436687 0.537117 -1.991018 0.135559 0.151922 0.209550 0.063091 -3.228624 -0.255831 0.280810 0.134680 -0.352463 0.068926 -0.555039 -0.009482 1.090328 0.655275 -0.053336 0.308980 0.168260 0.484682 -0.545978 1.078637 -0.613678 2.178949 -0.852208 -0.668320 0.640982 0.415009 3.345236 -0.115497 -0.339122 0.874779 0.318125 -1.558817 -0.064653 -0.115131 0.179757 -0.108090 4.620545 -0.059912 -1.078566 -0.232456 0.588386
0.706406 0.410257 -0.465766 0.004301 -0.515683 -0.874308 -0.754208 0.422762 0.088488 -0.102313 2.419399 2.426492 -0.549685 0.131668 -0.627020 -1.538923 0.036020 0.508249 0.107759 -0.128458 0.724965 0.810041 -0.317331 0.039841 -0.117440 -0.462407 0.042139 -0.902817 -0.210982 0.387559 -0.620476 -0.087740 0.514245 0.273948 2.913264 -0.104064 0.327801 0.404112 0.074170 -0.514722 -0.154992 0.996136 0.285570 0.111304 1.073970 0.784554 -0.391782 0.734308 -0.095153 -0.127558
0.125883 0.388349 -1.343278 -1.831927 -1.230773 0.220947 0.265558 -1.011963 -1.280909 0.121430 -0.516748 2.273457 -0.482336 1.229059 -0.566927 -1.194651 -0.049564 0.277364 0.285277 0.228455 -0.499547 -0.087541 0.150044 -0.100259 -0.451676 0.473145 1.222839 -1.967212 -0.186040 -0.186829 0.624907 0.014490 1.334400 0.366367 0.346243 0.679687 -1.247688 0.546887 0.924749 -0.122707 -2.909199 1.509150 0.407527 1.044816 1.175410 0.246654 0.365628 -0.091794 -0.058355 0.791180
0.133992 -0.376160 -1.096995 -0.529898 -0.711321 -0.700864 -0.777940 0.176321 -0.358942 0.382631 -0.851967 -0.868030 -1.189613 0.558124 -0.634276 0.448697 -0.120889 0.413192 1.228201 0.027687 -0.315574 -1.010814 0.087006 0.583023 -0.737263 0.084951 0.622164 -0.653509 -0.112910 -0.160673 -0.094899 -0.319597 0.485169 -0.121818 0.575873 2.123957 -0.169458 0.176665 -3.671318 -0.362530 0.731764 0.516704 1.166350 0.877899 0.615913 -0.036298 -1.216640 0.593860 0.023400 -0.602825
0.867775 0.276380 -0.204860 -0.097552 -0.271166 0.164552 -0.095106 -0.533116 -0.845251 0.754386 0.576846 0.703825 -0.618860 0.073076 0.803361 0.636359 0.067875 0.472593 -0.407360 0.357312 1.777031 0.738415 0.490737 -0.589159 -0.214977 -0.491433 0.364880 -0.375833 -0.265706 -0.365972 0.257465 0.037484 -0.251418 0.483744 1.864618 -0.088632 -1.440038 0.981140 0.159058 -0.514172 -0.685302 0.749806 -0.113624 -0.071882 1.676863 0.939562 0.005150 -0.040261 0.565970 -0.101060
0.168627 -1.426726 0.410021 -0.559985 0.169002 -0.222059 -0.338193 -0.717420 -0.480748 -0.214098 -0.338490 0.286830 -0.644447 1.126698 -0.015755 -0.688252 -0.177706 -0.642269 1.480477 -0.209941 -0.583228 0.225463 -0.520344 0.170771 0.208223 -0.300577 0.039030 0.046676 -0.333136 -0.410418 -0.039087 0.440697 -0.180025 -0.011674 0.056676 -0.195507 -1.154410 0.496079 -3.528335 -0.370212 -1.792028 -0.622768 0.057091 -0.167971 1.206351 0.199615 -0.671071 -0.748110 -0.455269 0.556418
-0.234967 -0.628031 1.511782 -1.625371 -0.544346 0.227155 -0.397621 -0.209702 5.888172 0.119550 -0.934454 0.034366 0.413740 -0.058676 -1.113132 -0.884548 -0.082600 -0.396406 6.538600 -0.167608 0.870473 0.949169 -0.663978 1.612117 -0.331356 -0.144769 2.997392 -3.091207 0.338647 -0.381822 0.225987 0.442840 2.180712 0.727888 -0.947190 0.166040 -0.511996 1.273107 -0.278804 -0.497124 -1.369422 0.561718 0.752731 0.090230 0.310301 0.233196 0.958082 -0.002916 1.731692 -1.924953
-0.372671 0.697592 -0.179881 -0.218881 0.309525 0.417759 -1.398088 0.621082 1.314619 0.784365 0.697804 0.560582 -0.331913 1.083873 1.326255 1.218373 -0.253050 -1.254215 3.691271 0.263866 0.881477 0.074229 -0.739171 -0.039515 0.783182 0.404110 -0.214298 -0.719212 0.375042 -0.036326 0.406615 0.573206 0.104073 0.453398 -0.425478 2.667514 0.077254 0.130776 -0.148072 -0.256011 -1.278684 -2.220325 -0.126101 -0.474670 0.457116 0.162279 0.768819 -0.282856 1.647510 -0.209694
0.146875 -0.386281 0.098114 0.136445 0.347049 -1.017085 -0.142375 0.193002 1.567866 0.767531 -0.222731 -0.209242 -1.882188 -0.135926 0.607077 1.620735 0.069439 -2.206752 7.223228 -0.100349 0.089808 0.904450 -0.711085 -0.106602 0.299800 -0.553207 0.484021 -0.123766 0.513594 -0.399112 -0.517264 -0.195333 -0.112424 2.035969 -0.589004 -0.547444 0.195644 0.766714 -3.187348 -0.276290 -1.912839 -2.547776 -1.564044 -0.310177 0.424742 0.016802 -1.568294 0.169873 1.264529 2.600424
0.393284 -0.010377 -0.381775 -2.353768 0.068913 1.415829 -1.046172 -1.913882 0.424749 -0.036098 -0.694745 0.869598 0.654984 -0.600852 -0.938681 -0.134918 -0.489702 1.993350 -5.304011 0.779687 0.891519 -0.399003 -0.171322 0.054694 0.670954 -0.500680 1.855396 0.286576 -0.363907 0.133915 -0.192953 0.381334 -0.599307 -2.247195 0.235929 -0.094074 -1.422104 0.155875 0.130956 -0.566660 -0.853877 -0.057403 1.425563 0.136677 1.049464 -1.352208 1.388061 0.243125 0.490392 -2.200417
-0.167383 -0.057338 -0.513379 1.368421 -0.663517 0.021838 -1.867437 0.266444 -0.431892 -0.271015 -0.556264 0.236916 0.197144 0.417042 0.422556 0.092428 0.083192 -0.840442 2.503613 -0.037746 0.017034 0.562035 0.176473 1.417470 -0.526740 -0.089176 1.619544 0.827789 0.248865 -0.097739 0.036780 0.764728 0.542526 -0.627053 -0.212357 2.441207 -0.275495 0.006786 -2.057009 0.056442 1.480647 0.995335 0.225129 0.184065 0.964190 -0.140163 -0.023151 0.128659 -0.566116 0.215562
0.453465 -0.539029 0.269784 -2.731427 -1.622247 1.459517 -0.901290 -0.142903 1.317269 1.269991 4.919228 1.812446 0.114878 0.301434 -1.124643 0.260922 -0.279945 3.725162 -4.351339 -1.281002 0.193495 0.998209 -1.649168 -0.238625 0.931846 0.591567 0.471715 -0.661212 0.808904 -0.236957 0.154979 -0.125469 0.876967 -0.478214 0.513946 3.764155 0.185885 1.087295 0.572247 -0.279864 -0.875639 2.079988 0.652943 0.729529 0.743560 1.306275 -0.520917 -0.092163 0.221526 -0.400135
0.417574 1.508192 0.876470 -2.333082 0.006673 1.426507 -0.221872 -0.840018 1.469186 0.059014 -0.564998 0.508052 -0.071018 1.378152 0.194548 0.700294 0.171891 4.069488 -3.849267 -1.055453 0.210638 -0.206451 0.532083 -0.092269 0.341903 0.099082 -1.555797 -0.026502 0.839175 -0.490589 -0.342658 1.126727 0.833681 0.485026 -1.387437 0.247080 -1.258728 1.134828 0.787096 -0.182333 -1.837472 2.458056 0.870688 0.786120 1.559847 0.892524 1.115642 0.041935 -0.082808 -0.511409
0.033854 0.841241 0.006389 1.898556 -0.113668 -0.478505 -1.870609 -0.526146 -1.021780 -0.596724 3.334307 1.895574 0.389087 0.623713 1.001791 -1.252690 -0.224748 -1.703142 2.087654 0.718819 -1.072964 0.011865 1.685004 0.553263 -0.066917 -0.239220 0.210861 0.625799 -0.074871 -0.469031 0.120044 0.229895 0.541658 -0.637121 0.823045 -0.340824 -0.368055 -0.019138 1.321867 -0.041157 -0.637123 -0.316265 0.029765 0.348738 -0.255991 -0.575640 0.328142 0.746150 -0.332892 -0.274169
0.656654 -0.038575 -1.384686 0.601444 -0.626639 -1.159166 -0.553908 0.008011 -1.051418 -0.174360 4.250222 0.564480 -0.566777 -0.196236 -0.329149 -0.631360 -0.065375 -1.208159 0.527803 0.497450 0.226450 0.282265 -0.531146 1.088137 -0.036007 -0.053708 -0.009995 0.254408 -0.668114 0.385987 0.811347 -0.311705 0.212343 -1.677416 0.405811 1.379649 0.369812 1.750314 0.531739 -0.205664 -0.159396 0.769668 0.161678 -0.301275 0.284581 1.636518 -0.309597 0.339724 0.361471 -0.449954
-0.304574 -0.146515 0.276562 0.684117 -0.138039 1.259664 -0.423508 0.291844 0.392468 -0.273236 -0.459212 -0.171636 -0.643163 -3.185686 -1.098607 0.274731 -0.616509 0.497101 0.308998 0.207602 0.769371 -1.839469 -0.267897 -0.112930 1.566893 0.139404 0.583893 -0.060680 0.084622 -0.109034 0.569202 0.166393 0.244908 1.662078 0.927590 2.199687 -0.575592 0.515666 -0.434011 -0.289237 -0.456203 -0.494036 -0.634230 0.592221 0.600924 0.123206 0.204268 0.055776 0.174509 -0.155105
0.000279 -0.058608 -0.885530 -0.066559 0.392789 -0.699702 -0.152024 0.078219 0.313278 0.014440 -0.201093 -0.429961 -0.749414 -3.774621 -1.096438 -0.206644 -0.120902 -0.442925 0.029896 0.857452 1.201533 -0.787141 0.680023 0.060054 1.443932 0.421293 0.231327 -0.240719 -0.327621 -0.452767 0.501984 -0.255684 -0.625334 -1.255898 0.298569 4.204187 -0.061855 0.419350 0.648780 -0.054153 -0.528990 -0.193391 0.153379 0.334559 -0.020666 1.486867 0.464051 -0.190216 0.001347 -0.578321
0.302543 1.072853 0.357704 0.972343 0.468903 0.726060 -1.435592 0.146080 0.031262 -0.552771 0.716705 1.172928 -0.061730 0.442483 0.052325 0.166663 0.010979 0.335567 0.834175 0.648899 1.873943 -0.117372 -0.830330 -0.259982 0.771703 -1.262907 -0.523999 -0.143049 -0.464144 0.429492 0.368330 0.573008 -0.447475 1.184726 -0.001438 -0.684412 -1.190400 1.447781 0.287370 -0.157524 -1.276964 -0.163974 -0.132704 -0.032395 0.919324 -0.480095 1.283622 -0.262802 0.755920 -0.734324
0.325893 0.572768 -0.442507 -0.248108 0.026510 -0.286731 0.463617 0.612499 -0.167701 -0.037603 -0.483733 0.089323 -0.426895 0.680915 0.498659 0.204869 -0.112277 -0.106448 -0.149960 -0.319571 1.634997 -0.227689 0.736766 0.066312 0.526992 -0.294895 0.383739 -0.302800 -0.044195 0.076181 -0.647431 0.483765 0.412127 -0.127781 2.733730 -0.099076 -0.575260 0.946054 0.686078 -0.282481 -0.008517 0.299453 0.431512 0.412881 0.152420 1.385808 -0.226086 0.101268 0.264772 -0.451011
-0.279825 -0.009935 -0.233929 -0.768569 0.626490 -0.300384 -0.947151 0.338616 0.237621 -0.049260 -0.462715 -0.628884 0.357452 -0.556788 0.466378 -0.823911 -0.238466 -0.762912 -0.772903 -0.362660 0.315234 -0.438578 0.517946 -0.234061 2.656567 -0.034033 1.131083 0.141501 -0.459079 -0.797830 -0.544172 0.172386 0.092357 -0.902120 0.332665 6.491834 -0.115736 -1.749749 -0.436041 -0.032718 0.299458 -1.043214 -0.209397 0.066291 0.828470 -0.889797 0.232243 0.591615 0.059639 -0.199161
-0.188957 -0.028650 -0.230484 -0.874818 0.484187 -0.856230 -0.499606 -0.784423 1.340332 -0.137584 -0.272621 -0.710720 -0.595893 0.185006 -0.003742 0.611253 -0.101312 0.002964 -0.901545 0.051524 1.662860 -0.492418 0.344488 0.183248 1.559503 -0.470025 -0.195711 0.255126 -0.238797 0.040139 -0.079527 0.455267 0.134459 -1.043648 3.418743 0.156887 -1.412663 0.540099 0.488408 0.860084 0.485254 -0.263208 0.313151 0.104786 0.135530 0.284942 0.389306 0.034010 0.395391 -0.228782
0.403576 0.179060 -0.056352 0.162616 -0.273575 -0.497736 0.236203 0.774844 1.238060 -0.380066 -0.362288 1.121950 0.496446 -0.145585 0.429172 -0.237136 -0.279510 0.822604 -0.269407 -0.168464 1.430274 -0.008906 -0.190466 0.704331 0.762573 -0.286289 -0.971238 0.084419 -0.010316 -0.145374 1.612714 -0.581232 -0.515222 -1.560634 2.233986 0.446195 -0.923456 0.066877 0.429456 -0.095968 -1.867097 -0.615582 0.014371 0.598870 0.783994 4.373595 -0.061311 -0.266647 0.058462 -0.688881
-0.670644 0.276696 -0.232153 -1.496817 0.075244 0.934418 -0.649459 0.467982 2.376083 -0.412420 -1.054791 0.892307 -0.265216 -0.304248 0.758464 0.261087 -0.525666 0.427730 -0.628095 -0.907341 -0.965495 0.206706 -0.073230 0.307845 3.030328 -0.290047 1.082812 0.521742 -0.067547 0.235629 0.679855 0.262450 -0.155793 -1.778627 0.165701 -0.632917 -0.407218 -1.196096 -0.877227 0.396949 -1.058876 -1.043498 0.228991 -0.423219 1.186930 0.133621 1.168466 0.741262 0.321172 0.306052
0.419081 0.320599 0.088661 -0.163065 -0.270162 -0.193639 -0.074699 0.288681 1.709627 0.159830 -1.464895 2.938365 -0.629397 0.850332 0.583620 -0.396183 -0.056652 -0.064121 -1.017905 -0.568583 2.007897 0.181622 0.661483 -0.011936 0.082548 -0.428902 1.432871 0.285726 -0.248362 -0.357349 -1.601539 -0.020789 0.868388 -0.328352 2.979455 0.576963 0.214302 1.652707 0.209679 -0.099201 0.188074 0.261902 -0.193433 0.140019 0.637221 1.270315 -0.435447 -1.975723 0.438992 -0.536009
-0.336066 2.789456 -0.411711 -1.758988 0.800944 1.109298 -1.286556 0.335310 2.892560 -0.399070 -0.566293 1.173834 0.116004 1.819269 2.520657 2.242833 -0.274124 0.671543 -0.693989 -2.731590 -2.469567 0.086779 0.379190 1.006436 2.572685 0.018686 -1.352887 1.095664 0.286145 -0.339531 0.975680 1.092220 0.039292 -1.399371 -1.612286 0.504467 0.195649 0.314319 0.665284 0.845933 -1.894577 -0.447865 -0.023381 -0.585627 1.438270 -0.073340 1.462282 0.457785 0.761824 2.071038
0.184858 -0.180275 -0.461238 0.097256 -1.016532 -0.343872 0.049290 -0.700546 -3.939405 -0.014150 0.624572 0.359903 0.186123 -0.304467 -1.583076 -1.042647 -0.170450 0.070793 2.156097 2.259657 0.734344 0.006020 0.208494 -0.960342 0.261517 -0.345725 0.308012 -1.734754 0.200825 0.056944 -4.988266 0.539856 0.082158 0.980314 0.861300 -0.400279 -1.166921 0.429628 0.483359 0.030562 0.246138 0.414833 2.149106 0.165702 -0.872243 1.354475 0.200523 1.601793 0.789684 -1.934525
0.013442 0.489932 0.591630 1.181135 2.253486 0.358493 -0.791700 0.273241 0.179652 0.140809 -0.221243 -0.597391 -1.205129 0.406361 0.418820 0.244738 -0.282409 -0.756939 -1.173823 -0.799058 -0.045935 -0.110882 0.473025 -0.424235 0.186305 0.458233 0.013084 0.172290 -0.401354 0.085334 0.368809 0.340965 0.497727 0.971132 -0.479776 -0.762478 0.183547 1.231018 -3.496995 0.165626 -0.379001 0.588063 -0.587772 0.133602 1.035838 0.550425 -1.047609 0.423488 0.155031 0.172367
0.363089 0.472014 -0.112908 2.856923 -0.081246 0.347041 -1.227045 0.621257 0.906522 -0.781751 -0.824514 0.207556 -1.002529 0.821654 1.781704 0.524691 -0.220958 0.510640 -0.676185 -1.109664 0.814241 0.711296 0.194984 1.008574 0.292528 -0.211193 -0.578546 0.919291 -0.680275 0.283952 0.232174 -0.259656 -0.550352 0.003845 0.615396 1.388789 -0.015445 0.111894 -2.704837 0.292491 0.358365 -1.387420 -0.759810 -1.226417 1.490772 0.189603 0.219835 0.777740 -0.172331 0.334617
0.058454 0.038827 -0.312393 0.485461 -1.084176 0.427063 -0.807204 0.305133 -0.772731 -0.353678 -0.581907 -0.348076 -1.371958 -1.425989 1.211795 0.377166 -0.361510 -0.279505 0.395939 0.247019 0.830045 0.467626 0.163435 0.092934 1.696885 0.152351 -0.166508 0.415662 -0.499674 0.165789 0.193681 -0.169189 0.144535 0.113902 0.205469 0.389349 -0.649535 -0.384280 -2.365194 -0.220878 -2.438548 -2.112029 0.286144 0.246099 0.301639 -0.120155 -0.832595 0.358677 0.374684 -0.169038
0.258756 -0.369872 -0.042028 1.070316 -0.746662 -0.065992 1.135023 -0.290204 -1.345755 0.212091 -0.295243 0.690790 -0.640614 0.118091 0.732827 0.239458 -0.431001 -0.791095 -0.211386 1.543030 1.012208 0.181881 -0.176934 0.216002 0.437802 0.448240 0.063041 0.405825 -0.512028 0.003315 0.948057 0.165119 1.211354 -2.652266 0.395664 1.175835 -0.696076 -0.044944 -0.397350 0.181768 -1.558179 -0.399728 0.194703 -0.323580 1.420753 0.650798 0.192328 0.073219 -0.059761 0.128079
-0.180864 -2.949754 0.220502 0.882768 -0.440435 0.312012 -0.007210 0.140297 -0.504038 1.203217 -0.551094 0.103765 0.407611 0.417753 0.138711 -0.454374 -0.425823 -0.145145 -0.032739 -0.323451 1.132638 0.369177 0.088337 -1.088763 -0.246055 -1.155536 1.283175 -0.116587 -0.708127 -1.011334 -0.047755 -0.142043 0.974590 -1.072365 -0.095746 0.372143 0.293933 0.384379 -1.806400 0.261969 -2.814897 0.368014 -0.368267 0.418038 0.735412 -0.083458 0.650555 0.255617 0.059517 -0.127203
0.992530 -0.234513 -0.182138 -0.334398 -0.453302 0.883290 0.021174 -0.036943 1.100236 0.257132 -0.417631 1.593599 -1.047392 -1.226627 0.524456 -0.559331 -0.084321 0.820904 1.235938 0.675344 -0.167689 0.728510 0.340910 0.447901 0.591204 -0.141572 2.794902 -0.579741 0.015118 -0.833519 1.556132 -1.042559 0.375084 4.208944 0.504071 -0.421900 -0.487571 0.095016 -0.739923 0.480063 -2.028208 -0.903353 -0.353723 -0.462092 0.965704 1.854963 0.379745 -0.247975 0.119288 -0.185022
0.365327 0.568547 -0.826070 -0.221922 -0.522558 0.515336 -1.397926 0.167657 0.032031 -0.192908 1.203846 1.119563 0.369265 0.491262 0.806494 -0.152174 -0.145994 0.488038 1.940428 -0.340764 -0.167512 1.475952 0.610253 0.898310 -0.387013 -0.397225 2.423042 -0.295295 -0.035568 0.259796 0.565904 0.146839 0.244186 2.932688 -0.264677 1.704698 -0.636034 1.234582 -0.143148 -0.330542 -0.848757 0.328432 0.071891 -0.302354 1.127440 0.345768 0.199879 -0.240360 0.116348 0.285061
-0.102928 -2.271860 -0.462126 -0.125614 0.513032 1.347100 -0.321553 -0.389556 1.722432 0.648421 -0.152529 -0.232623 0.040615 0.473081 -1.052860 -1.174366 -0.250477 -0.569528 2.026161 -0.974145 0.610780 0.316903 0.455674 -0.270704 0.779016 0.280341 2.564706 -0.128350 0.449766 -0.574717 -0.287201 0.832695 1.432242 3.299917 -0.625270 -0.743229 -0.306575 1.251117 -2.716324 0.017484 -1.446141 -0.457004 0.211136 -0.083505 0.061614 -0.832229 0.472602 0.421170 -0.105858 -0.188097
-0.141515 -0.670902 -0.622132 0.324144 -0.993227 0.315652 0.986901 0.652233 0.560077 0.597658 -1.165220 1.160437 -0.398205 0.481731 0.078191 -0.130438 -0.678499 -0.005051 0.773393 0.312606 0.811232 0.141826 -0.123238 -0.375079 0.087360 -0.183201 2.784358 -0.197114 -0.043298 -0.598433 0.100432 0.187673 0.934942 1.958337 0.522269 -0.436791 0.974905 0.768833 0.353789 -0.115464 -1.029210 0.354817 -0.251295 -0.107826 0.303320 -0.405179 0.532007 0.584867 0.654921 -0.367610
-0.151378 -0.433159 -0.326773 -0.672143 0.426247 -0.479159 -0.911678 -0.673359 -0.164099 -0.239032 -0.189159 -0.163450 -0.424841 -1.089700 0.072907 -0.193628 -0.148662 -0.093530 0.996992 0.438667 0.575726 0.328827 0.514953 0.235295 0.567150 -1.708036 -0.351224 -0.470145 0.381410 -0.368734 -2.384213 0.262139 -1.347659 2.476372 0.075719 -0.409831 -0.064334 1.557357 -1.058717 -0.163632 1.571980 -0.252183 0.468307 -0.636516 0.122721 8.526687 -0.177794 0.969351 -0.057884 1.101221
0.081252 0.561057 0.910612 -2.065432 -0.363947 1.730454 -0.899964 1.150076 0.311197 -0.512819 0.049773 1.221609 -0.340619 0.537816 1.051963 -0.435924 -0.078219 0.120818 -1.774804 -0.367431 0.965167 -0.704223 0.561065 -0.800211 1.802014 0.175860 -0.084823 0.863340 -0.114357 -0.082537 -1.608223 -0.040554 1.299341 -4.334864 2.765168 0.584547 -0.252507 0.852765 1.095321 -0.649553 -0.518049 0.099375 0.811291 0.653071 0.544632 -0.708420 0.325545 -0.572699 -0.129318 -0.899590
0.559676 -0.874929 -0.594684 0.472415 -1.542836 -1.824316 0.191502 -0.037178 -0.541770 0.196623 6.626678 0.912776 -1.119389 0.154247 -1.368344 -0.347640 -0.245194 -0.210818 0.851312 1.148120 1.198545 0.846415 -1.014218 0.143921 -0.295074 0.383092 -0.325646 -1.166882 -0.499595 -0.372090 0.420249 -0.294755 -0.285472 3.451699 -0.015174 2.695025 1.120035 3.318914 -0.086915 -0.171756 -0.126739 0.259821 -0.640250 -0.739050 -0.374093 1.589903 -1.116529 -0.050958 0.650090 1.611510
-0.489212 0.404775 -0.041543 -0.848276 -0.436886 0.892492 0.877333 0.968876 0.120195 -0.550071 -1.053080 0.695048 -0.721414 0.964265 0.214258 -0.453759 -0.640761 0.078099 -0.788176 -0.278976 1.394300 -0.196816 0.131431 -0.499793 0.154431 -0.130361 0.992622 0.512615 -0.328266 -0.196396 0.351060 0.382866 1.158169 -1.684215 0.347060 0.112548 -0.224393 1.055485 0.271642 -0.118327 -0.627476 0.025531 -0.048167 0.072076 0.493972 -0.193657 0.670659 0.028877 -0.236278 -0.473857
-0.845929 0.837135 0.441568 -0.567722 -0.447951 -0.651359 -0.267482 0.140202 -0.884578 -0.339342 0.517357 0.604803 -0.147606 0.493699 0.022832 -0.179229 -0.364046 -0.264917 -1.603952 2.359092 0.831556 -0.510325 1.520135 0.555113 -0.446167 -0.096095 1.071388 0.334176 -0.167107 -0.603643 1.065901 -3.430963 -0.063674 1.681841 -0.303134 -0.599126 -0.310534 -1.004987 -2.430215 0.329689 0.609445 0.758705 -0.126982 -0.048056 -1.309166 0.186118 -1.665902 -0.352006 -0.378825 0.803224
-0.040387 0.665130 0.395625 -0.616939 0.441345 0.264826 0.197376 -0.324717 0.110754 0.574487 0.797173 0.353231 -0.968147 1.274556 0.087036 -0.169597 -0.293523 -0.072348 -1.500726 1.771766 0.941861 -2.177664 -0.483473 -0.606685 1.095812 -1.143218 0.221919 0.598728 -0.032565 -0.872289 0.132269 -3.194350 -0.103962 3.339812 -1.286756 -1.028682 -0.239783 -1.164393 -3.807559 -0.194828 -0.500591 -0.979048 -0.665839 0.000299 -0.288363 0.025408 -0.360199 -0.693323 -0.253360 0.746837
0.030412 -0.062605 -0.002106 0.005182 0.621053 -0.478436 0.018786 0.311425 -1.189196 -0.487911 1.652320 0.030068 0.131741 -0.257717 0.018222 -1.105126 -0.158485 -2.337562 0.621894 0.709156 1.299270 -0.244783 -0.547942 -0.584976 0.463459 -0.416549 -0.304317 -0.086335 -0.261786 4.973485 0.348282 0.347785 -0.161827 -3.040451 -0.207937 3.050435 0.239836 -1.511745 0.404759 -0.264950 0.901103 -0.966479 0.318947 -0.046239 -1.469651 0.131602 0.225706 -0.313608 1.427596 0.026360
0.354727 -0.111722 0.058052 -0.745622 -0.059992 2.060499 0.224794 -0.435828 1.665178 0.033773 0.090918 0.246217 -0.383786 0.808515 -0.630122 -0.298170 -0.073212 1.514919 1.005935 -1.564468 0.124483 0.996457 -2.901969 -0.493108 -0.348565 1.950556 -0.567821 0.008092 0.088776 0.180652 -0.117852 0.618013 0.175162 4.525947 0.050077 -0.478424 -0.189373 0.997167 -2.110917 -0.522005 -1.188695 0.079664 0.460134 -0.106629 -0.817178 -0.460471 -0.435461 -0.014388 -0.366552 -0.690863
-0.523071 -0.140645 0.015417 -0.703141 -0.207755 0.176569 0.298432 -0.631958 0.111621 -0.319415 0.144838 -0.171786 -0.635733 0.726169 0.422738 -0.526261 -0.461746 0.462753 0.469081 0.471395 -0.529933 -0.160338 -2.164247 -0.248356 -0.089035 -0.297129 -1.976391 0.331439 -0.451397 0.057461 -0.238132 0.848580 0.303625 2.135340 -1.103748 -0.333670 -0.328034 -0.196660 -1.182416 -0.464569 -3.253884 -0.558298 -0.331758 0.685257 -1.141103 -0.780471 -0.572283 -0.074196 0.250254 0.615438
-0.587053 -0.176229 -0.175600 -0.144416 -0.093007 -2.151391 0.218003 0.076099 -2.193056 -0.542591 0.029990 0.287607 0.757464 1.672261 0.752735 -0.228675 -0.511468 -2.169716 -0.729342 1.555958 0.900561 -0.049231 -0.977115 -0.028850 1.466452 -0.720323 -0.735381 0.161878 -1.591507 -0.123979 -0.077598 0.541212 0.630921 -3.990084 -0.368368 4.050609 -0.256813 -2.662502 -0.504558 -0.114613 -1.112110 -2.704218 -0.730777 0.038017 -1.344800 -0.811925 0.325910 0.074867 2.871813 0.910105
-0.374907 0.958884 -0.144700 -0.183363 -0.366374 -0.089082 -1.292750 0.836410 -0.455842 -0.541791 -0.453313 0.782241 -0.330167 0.187777 0.764500 -0.157971 -0.328184 -0.212380 -0.343331 0.111659 0.661393 1.203737 0.090178 0.130507 -0.638766 -0.595606 -1.160454 -0.154131 0.194163 0.157102 0.346082 1.445199 -1.039386 0.177173 -0.632190 -0.674281 -0.522790 -0.158475 -0.943681 -0.020207 1.049749 0.332400 0.043613 -1.002644 -0.913598 -0.244516 0.686780 0.042171 -0.210707 0.315426
0.079680 0.623362 -0.215279 -0.222838 -0.377777 -0.412193 0.423303 -0.278316 -0.374549 -0.609507 -0.292479 0.600656 -0.128228 -0.388347 1.120039 -1.072219 -0.188279 -0.409746 -0.691453 0.430134 0.563708 0.614468 1.545503 0.555011 0.688667 0.007974 -0.146074 0.014300 0.165217 0.090425 0.644253 0.229404 0.922037 0.639141 -0.475087 0.174962 -0.872123 -1.781021 0.598290 -0.042638 -1.519480 -1.559488 -0.394937 -0.342002 -0.909196 0.569258 0.536926 0.094843 -0.363481 0.325700
-0.365304 0.213349 -0.655649 0.391903 -1.032971 0.063223 -1.127572 0.079314 -0.373103 -0.814537 -0.487187 0.282226 -0.033566 -0.064126 1.082011 0.021190 -0.394038 0.177183 0.149433 -0.654198 0.492239 1.001800 -0.863099 1.236035 -1.815936 -0.023777 -0.117592 0.915312 -0.253802 -0.044641 -0.170817 0.496065 -0.288775 0.002666 -0.444834 1.029837 -0.635987 0.709258 -1.632941 -0.502528 -0.073804 1.366722 0.403247 -0.244374 -1.083467 -0.276700 0.403909 -0.258092 -0.079813 -0.409033
-0.344174 -1.124571 -0.185770 -1.350997 -0.511155 2.313102 0.314970 -0.140773 1.387113 -0.497520 -0.480272 0.194042 -0.101651 0.798480 -0.195605 -0.736925 -0.351968 -1.693421 2.052439 -0.351484 0.369545 0.066143 0.441247 -0.678273 -0.067456 -0.031288 -0.264439 0.551368 0.434807 0.062168 0.449080 0.732621 1.418529 -1.122607 -0.202994 -0.408285 -0.461083 0.287078 -0.013544 -0.129124 -0.681480 0.018022 1.679657 0.053330 -0.832753 -0.909117 0.796913 0.076327 -0.033709 -0.846335
-0.582364 0.247507 -0.287773 -0.879815 -0.271910 1.221828 -0.720143 0.393887 1.065133 -0.177092 0.158805 0.570216 -0.602189 -0.086026 0.490632 0.088181 -0.364845 -0.835761 1.903008 0.963957 0.482390 0.796127 -1.696945 0.058483 -0.039320 -0.065544 0.112789 0.452391 -0.099496 -0.325627 0.279161 0.564097 -0.168334 -1.268075 -0.041031 1.512476 -0.894748 -0.401437 -0.537884 -0.616840 -0.066709 -0.570099 0.569863 -0.231754 -0.369734 -0.238992 0.196056 -0.686828 -0.082680 -0.311308
0.692030 0.759766 -0.378126 0.930876 0.000705 -1.429607 -1.034079 0.789134 -1.839273 -0.496085 1.125935 1.805904 -0.729572 0.406104 1.065800 -0.197017 0.072869 1.763235 -1.749288 1.268340 0.243700 0.458958 0.559496 1.035489 0.789290 -0.578758 1.535897 -0.450490 -0.135540 -0.070040 0.478849 0.440381 -0.069690 1.423777 -0.281828 -0.403272 0.144573 -1.989779 0.437595 0.175729 -0.338392 -0.520779 -1.156060 -0.118308 -0.370245 -0.652502 -0.056012 0.365738 0.170907 0.662629
0.241464 0.469867 -0.289689 -0.659529 0.000599 0.329580 -0.587079 0.212607 -0.228533 -0.648706 -0.726925 0.670495 -0.462828 0.699940 0.673223 -0.676153 -0.256745 0.079446 -0.684299 0.066346 0.540537 0.123551 1.493190 0.533025 0.059280 -0.003862 -0.123317 -0.397636 0.517262 0.281648 -2.908469 0.643926 0.834028 1.592340 0.506549 -0.768235 -0.374561 -1.158390 0.703368 -0.461590 0.282144 0.125593 0.464495 -0.114611 0.164093 2.113576 -0.254906 0.186494 -0.073457 0.100667
0.691464 1.917067 0.289141 -2.204479 0.750538 -1.440055 -3.125975 -0.610740 0.857239 -0.082069 -0.354432 1.901750 -0.748514 -0.079427 2.268461 0.499153 0.173968 1.739934 -0.882793 0.029708 -0.373017 -0.775504 1.938305 -1.338570 -0.802212 0.151810 0.632266 0.217286 -1.372053 -0.401398 -0.056574 0.221419 -0.460754 -10.992816 -0.178629 0.428775 -0.853211 0.522852 0.036456 0.037232 -1.332930 -0.529872 -1.049055 0.015039 -0.865768 0.016994 0.795925 0.120011 0.044447 -0.851143
-0.886143 -0.617141 -0.507169 0.312588 -1.252598 0.098272 -0.772271 0.059528 -0.356698 -1.068490 -1.080429 0.036869 1.162068 1.183336 -0.283862 -0.491873 -0.804848 -0.188021 0.570311 -0.040907 -0.069810 0.268162 0.339932 1.056546 -0.977720 0.421759 -0.134949 0.951197 0.016246 -0.225138 0.545745 0.572084 0.955360 -0.328892 -0.309722 0.020359 -0.557204 -1.085434 -0.317151 0.256151 -3.167747 -0.250518 0.206686 0.354116 1.241459 -0.124513 0.418389 0.542174 -0.275846 0.286401
-0.328896 0.763227 -0.460953 1.658430 -0.129796 0.737910 -1.012965 -0.159838 -0.661564 -0.356292 0.833507 0.181117 0.509317 0.406983 -0.686243 0.012784 -0.523809 -1.606177 1.801091 -0.469511 -0.543364 -0.303341 -0.031090 1.210084 -0.588325 -0.526700 1.002607 0.631922 0.309690 0.161788 0.025595 0.204248 -1.407576 1.546772 -0.663594 -0.910097 -0.919244 0.024893 0.592869 -0.345038 0.010938 -1.236198 1.053655 0.700826 1.311027 -0.845651 0.252086 0.042614 -0.174967 -0.298564
0.765812 0.739180 0.638026 -0.875466 0.891726 -0.139324 0.584623 0.517307 0.065565 -0.909570 -0.860272 -1.310773 -0.988903 -0.807258 0.228676 -0.898236 -0.325511 0.936317 -0.381879 -0.160167 -1.435117 -0.600450 1.472155 0.017206 -0.097495 -0.592524 0.287965 -0.092176 -0.096895 0.262175 -0.038171 -0.323474 0.115096 -1.843038 -1.080188 -1.022325 0.039350 -0.219284 -0.441873 0.482893 0.470282 1.072972 -0.063772 -0.858468 1.098459 4.819423 0.972377 0.087884 -1.618573 0.034786
-0.128609 0.243761 -0.411845 0.690361 -1.205787 -0.284420 -1.066484 0.313302 0.151464 -0.273231 -0.524579 -0.537682 -0.043472 -0.691196 -0.150270 0.038845 -0.169083 0.251432 0.160823 -1.347042 0.222950 1.288253 -0.952863 0.307213 0.119599 0.230699 0.111510 0.501937 -0.315629 -0.988926 0.311971 0.008308 0.172670 -0.348211 0.119136 1.224940 0.019522 -0.090763 -2.103765 -0.039957 -0.543170 -0.916136 -0.013281 0.036593 0.765098 0.288619 -0.493436 0.402902 0.209741 -0.751792
-0.051353 0.454261 -0.102429 -0.198562 -0.767182 0.285223 0.209641 -0.030309 -0.093783 0.573742 1.655970 0.528745 -0.798721 0.769194 -0.204894 0.446359 -0.383699 -0.521700 -0.119720 0.029811 0.688629 0.132447 0.870425 -0.479433 1.170035 0.266384 0.077781 0.145093 0.138147 -0.429424 -2.422760 0.260942 0.554149 0.462436 -0.021743 -0.108995 -0.098457 0.531988 0.130063 -0.589783 0.012786 -0.332935 0.577970 0.042499 0.304131 2.493529 -0.332572 0.749582 0.597346 -0.163103
0.711628 0.394525 0.371682 -0.550116 -0.103782 0.075458 0.111290 -0.218656 -0.949650 -1.063216 0.692112 -0.525396 0.128105 -0.306908 -0.347130 -0.943760 0.170716 0.815645 0.065763 -0.465261 -0.879903 0.848495 0.722738 0.096142 0.151676 0.725463 0.417678 -0.239132 -0.127748 -0.434803 1.117887 -0.423920 0.282599 0.193375 -0.604161 3.424464 -0.024688 -0.101541 0.681334 0.288507 -0.737426 -0.539355 -0.422953 -0.255169 1.680758 1.701907 -0.211588 -0.343107 -0.686205 0.502706
0.309728 -0.128277 -0.181318 -0.513029 -0.207365 -0.201828 -1.205869 -0.648682 -0.142044 -0.248589 2.315044 -1.663463 -0.635395 -0.386972 0.732898 -0.041523 -0.133588 0.462115 0.586059 -0.249936 0.246221 -0.228024 0.273240 0.392268 0.321352 -0.039426 1.856014 0.306766 -0.386707 0.262763 -0.053443 0.006806 0.203147 -0.510560 1.480546 -0.520972 -0.137532 0.813439 0.023192 0.274525 0.846263 0.001732 0.042882 0.012311 0.787127 -0.242427 -0.364398 0.711220 -0.236587 -0.035974
0.915410 -0.998616 -0.286170 -1.648453 -0.393054 -0.497470 -1.865107 0.608502 0.831989 -2.117138 -0.505481 0.380102 -0.088599 -0.275349 -0.063116 -1.345087 -0.088190 2.926352 0.980816 -1.611223 -0.347391 1.036110 -0.143425 0.546719 -0.709540 0.167634 1.870256 0.450758 -1.003296 -0.409526 -0.068594 -0.456307 -0.471331 -1.600358 -0.565136 -0.316035 -0.216391 -0.150562 -1.876934 0.591761 -0.293419 -1.026864 -0.365189 -0.421466 1.567792 0.169583 -0.614394 -0.118154 -1.720027 0.952617
1.034192 0.311712 -0.346275 -4.067887 0.147885 -1.015072 0.204835 0.149793 0.293039 -2.186995 0.248009 0.173529 0.094041 -0.305346 0.330265 -2.055025 0.030033 3.505904 1.209100 -0.055164 0.451103 0.289566 1.195972 -1.167216 0.669511 -0.051071 2.769356 -1.078899 -0.587835 0.363578 0.788034 -0.281755 1.341574 0.517787 0.498443 -0.028491 -0.126798 -0.358238 0.173328 0.218611 0.166385 -2.028189 -0.896684 0.090229 1.113650 1.132405 -0.006385 0.581944 -0.664422 0.364168
0.298708 1.534990 -0.518808 -4.138039 0.359827 -0.348129 -2.771197 0.958120 -0.066277 -3.674267 0.248355 0.802594 1.244673 -0.115836 -0.564108 -2.412755 -0.304784 3.580714 1.417521 -1.638456 -0.773581 0.561093 0.679280 -1.072970 0.344188 -0.681114 1.629627 -1.969747 -0.972670 -0.177755 1.515332 0.634524 0.031659 0.197226 0.716895 -1.031611 0.542163 -0.184163 -0.314145 0.167667 -0.087285 -3.089061 -1.110525 -0.438816 1.471485 -0.139117 0.564178 0.429396 -0.607810 1.284264
0.217932 -1.246705 -0.828872 -0.043044 -0.043319 1.181853 0.218609 0.061791 0.422936 1.770614 -0.054217 0.352887 -0.707556 -0.842920 1.468536 -0.680490 -0.199299 -0.826376 -0.111177 -0.204684 1.275710 0.295471 0.584663 -0.582298 -0.070681 -0.627008 0.565243 1.459577 0.387777 -0.371692 0.117551 -0.152722 0.554099 -1.227024 -0.498660 -0.203016 -0.806620 -0.149026 -0.312569 0.101291 -1.481259 0.027938 -0.309344 0.224783 0.496535 -0.520893 0.497514 -0.115559 0.363952 -1.776701
0.317562 0.079008 -0.759445 0.211913 0.487654 -0.011802 -0.213899 1.525482 0.276660 1.540315 0.137194 -0.081524 -0.365913 0.150324 0.927705 0.275080 -0.077623 0.001306 -0.132930 -0.916369 1.148827 0.361900 0.326947 -0.631096 -0.656365 -0.858697 1.361648 1.220850 0.185155 -0.050064 0.734237 -0.096164 -0.464776 -1.124915 0.316794 -0.290913 1.648369 -0.370405 0.023906 0.091358 0.709728 -0.045104 -0.134331 0.238403 1.594557 -0.201000 -0.148844 0.306352 0.262411 -1.308334
-0.336220 -2.576769 -0.283166 -0.344801 -0.283632 -0.471259 0.036866 -0.140708 0.886494 1.645575 -0.263658 0.054242 -0.080997 -0.092332 -0.206881 0.144420 -0.628000 -0.338709 0.174392 -1.468453 0.170510 0.595819 -0.325902 -0.722488 0.207823 -0.612496 -0.358337 2.158268 -0.357072 -0.128636 -0.206456 0.215896 1.264718 -1.025499 0.062035 -0.287942 0.222144 0.385947 -0.582436 -0.111147 -0.549841 0.477217 0.126503 0.052277 1.236565 -0.454749 0.288742 0.749555 0.263198 -0.633313
0.793650 -0.618490 0.448480 1.209479 -0.796449 -1.364372 -1.042889 -1.384608 -0.025155 -1.072457 0.613522 1.933129 -0.443746 0.815046 -2.161634 -0.562336 -0.002572 0.387881 0.289125 3.573009 0.275013 0.159180 -0.201210 -0.390349 -0.494887 -0.410419 -0.233539 -5.937606 -0.412361 0.028693 -2.416723 0.262108 -0.574965 2.284020 0.953616 0.745978 -0.636739 0.279494 0.453600 -0.341010 0.195785 -3.029273 1.145672 0.481592 -0.385367 6.517850 -1.433805 0.963541 1.139000 2.258186
-0.181314 0.303969 -0.759007 0.094608 -0.538361 1.178972 -0.514101 -0.100745 -0.377057 0.054481 0.537794 0.566124 -0.733480 -0.343794 1.322083 0.139378 -0.405228 0.507880 0.031291 -1.530824 1.207129 0.346531 -0.704548 0.480367 0.483845 0.380341 0.389195 2.144327 0.011453 0.328029 0.509879 -0.154668 0.820405 -0.524095 -0.570843 0.878570 -0.645994 0.123408 0.183337 -0.055281 -1.331348 0.336797 -0.280798 -0.015981 0.890706 0.317528 0.380586 -0.221342 0.010752 -0.984567
-0.187841 0.444977 -0.832521 -1.398491 -0.210804 2.201284 -2.852844 0.117307 0.638268 1.598039 3.337967 0.396359 -0.260900 -0.082188 2.280872 0.432879 -0.220261 -0.234121 -0.862365 -0.699715 0.041480 -0.123389 0.638740 -0.157063 0.686685 -0.642177 0.128029 3.247678 -0.024936 0.227456 0.082565 0.102080 1.113358 -0.180221 -0.681058 -0.741093 -0.309399 0.948621 1.142254 -0.335695 -0.175397 0.054667 -0.719851 0.333257 0.324627 -0.447265 0.902234 0.124360 -0.398812 -1.284460
0.822552 0.084939 0.630084 1.109036 -0.173145 -0.826557 -2.924819 0.566984 1.487724 2.104521 -0.052003 -0.058902 -0.581821 0.428792 1.024767 0.440380 0.358455 -0.306739 0.001379 -0.890170 -0.967014 1.168863 -1.587678 -0.360872 -0.338659 0.124849 1.493298 2.260053 -1.166531 0.311409 0.138632 -0.028418 -0.473459 -0.143142 -0.736771 0.716702 0.433275 -0.014745 -0.547549 0.303820 0.648992 -0.763099 -0.003221 -0.162269 1.833397 0.716322 -0.178511 0.623720 -0.726494 -1.149354
-0.473219 -1.052586 -0.297964 0.169936 -0.879763 0.918789 -0.702405 0.251141 -2.025077 -1.481610 0.033201 -0.008235 0.438894 0.062145 0.173522 -1.392189 -0.400466 0.453559 2.677203 1.338278 2.243036 0.187923 -0.254019 -0.740344 -0.482473 -0.085850 0.712871 -3.741499 0.800391 -0.398209 -0.150214 0.591005 -0.816845 -2.412241 -0.455768 -0.249780 -0.786808 -0.302067 -1.378960 -0.345688 0.414327 -2.425367 0.384672 0.315689 1.047264 -0.848194 -0.128096 -0.471110 1.350327 -0.251471
0.191849 0.671700 0.458298 -0.278160 -0.331087 0.520088 -1.697538 -0.039283 -0.419909 0.740875 0.643330 0.262091 0.012745 -1.986432 0.382332 0.391074 -0.323023 -0.736055 -0.627463 -0.467264 -0.268480 0.936444 0.976158 -0.193164 0.341723 0.184724 0.285642 1.363432 0.234447 -0.326371 1.484421 -0.477632 0.209644 1.290510 0.045874 0.640956 -0.365599 0.004370 0.087425 -0.066385 -1.949633 -2.170776 0.002222 -0.500785 0.634743 3.013919 0.950475 -0.079438 -0.967269 -0.413629
-0.103801 0.509526 -0.300260 0.183821 0.030668 0.497118 -0.855740 0.598445 -0.764583 0.260579 0.442946 1.110396 0.066117 0.779469 -0.421194 -0.244410 -0.385552 0.359785 0.926210 -0.164120 0.531777 -0.485398 0.840773 -1.401237 -0.537215 -0.211679 1.292453 -0.965661 0.383235 0.272562 0.480521 1.008485 0.991590 -1.163269 0.200732 -0.308958 0.126795 -0.330651 0.455603 0.011305 -0.328937 -1.992577 -0.117421 0.311068 0.935971 -0.924221 0.606897 0.261460 0.474434 -0.314610
0.203812 -1.199373 0.686160 -1.082725 -1.528912 0.766021 -0.507643 0.217028 0.190364 -0.608796 -0.609555 -1.055745 0.118141 0.350630 -0.576553 -0.070768 0.253819 1.664757 2.504753 -0.207920 2.065716 0.688198 -2.196054 -2.662098 -0.273774 0.562394 -0.555146 -0.655781 -0.236535 -1.136795 -0.294362 -0.059303 1.702614 -1.209126 -0.424073 0.534647 -0.287838 0.123301 -2.455253 -0.266011 -0.298859 -0.115439 0.176647 0.736164 0.795860 -0.212151 -0.145050 -0.369208 -0.336505 0.026578
-0.219853 -2.201099 -1.662414 1.031374 -0.186450 0.677577 -1.325347 -0.140328 -0.110751 0.685477 -0.577631 0.494464 -0.558970 -0.259647 0.000730 -0.049075 -0.487622 -0.299226 -0.693764 -1.625145 1.460663 0.543843 -0.934163 2.308912 -0.007056 0.380172 1.138318 0.915606 -0.013439 -0.107396 -0.328481 0.610840 0.195620 -0.265933 -0.658919 -0.821667 0.153073 -0.195304 -1.425502 0.289103 -1.020630 0.515168 -0.147418 -0.800391 0.845696 -0.317481 0.391461 0.813609 -0.087515 0.799229
0.371489 -1.984309 0.561116 -0.643860 -0.573854 0.365413 -0.334076 -0.189424 -0.287323 -0.674136 -0.267760 -0.275238 -0.304992 -0.177567 -0.259541 -1.717046 0.107678 -0.264172 3.887224 0.212785 1.060575 0.866556 0.239063 -2.232698 -0.591787 0.525994 0.756817 -1.165381 0.857532 0.364606 -0.136168 0.689999 1.081951 -3.135005 -0.160012 0.697260 -0.787690 -0.305994 -0.842074 -0.346310 -0.175316 -0.050339 0.357447 0.050256 0.777594 -0.694623 -0.993941 -0.572338 -0.013820 0.097974
-0.116267 0.613540 -0.324684 0.827654 -0.444492 -0.099291 -1.666248 -0.035440 -0.285137 0.481188 0.055559 -0.005379 0.085503 0.140782 0.555348 0.514443 -0.273424 0.399270 0.523039 -0.492810 0.351477 0.490479 0.058304 0.551483 0.192841 0.111637 1.590668 0.918181 0.082527 0.365341 -0.088150 0.737887 0.641824 -0.458853 -1.216493 1.833460 -0.160298 0.016087 0.528638 -0.023794 1.651006 -1.003116 0.082572 -0.224666 0.639906 -0.453459 0.521678 0.369762 -0.537510 -0.174581
-0.416154 1.155537 -1.174588 1.498613 -0.093051 0.413548 -1.697745 0.506956 -0.336972 -0.050722 0.495726 0.357600 0.354728 0.248780 -0.143616 -0.435621 -0.699797 -0.065585 -1.152774 -0.691587 -1.837925 0.692342 -0.787175 2.504660 -0.041105 -0.400925 0.814534 1.103116 0.594055 -0.555950 0.482013 0.615911 0.163658 0.364078 -0.388296 0.009146 0.321191 -0.270193 0.256415 0.011494 0.603547 -0.200485 -0.049349 -0.436960 0.847397 -0.166972 0.707612 0.862004 -1.270981 -0.036544
0.483287 1.552431 0.530112 -2.099203 1.448082 0.568726 1.995806 0.979407 -0.310187 -2.465491 -0.992916 -3.015902 0.604590 0.315769 0.958529 0.178859 0.067254 -0.684759 1.010646 0.615121 2.023911 -0.432006 2.944818 -0.456767 -0.353747 -0.089045 -1.060994 0.313694 -0.313858 -0.682485 -1.856225 1.168786 0.704979 -0.508640 -2.126544 -1.755146 0.406021 -0.204342 -0.534729 -0.792099 0.838603 -1.341551 1.392009 -0.137542 1.771353 1.966128 0.389233 0.843930 0.610584 0.134773
0.014509 0.414428 -0.045547 -0.251916 0.423053 0.592296 -1.151291 0.482412 -0.422650 -0.533969 2.982484 -0.068916 0.150357 0.104362 0.304147 -0.977899 -0.275147 -0.451800 -0.162563 0.194445 0.135395 0.114530 0.836301 0.446622 0.088930 -0.753612 0.602073 0.148337 0.149341 -0.549461 0.012804 0.333505 0.627281 0.205884 -0.504863 0.095319 -0.187828 0.158823 0.512690 -0.488602 0.188195 -0.470779 0.144843 0.348256 1.353127 -0.890531 0.253411 0.129700 -0.445663 0.202987
0.041205 0.732982 -0.272636 -0.314108 -0.157960 -0.276073 -1.241034 0.631029 -0.497557 0.517755 -0.239233 0.853532 -0.504594 0.540062 0.194027 0.893424 -0.354676 -0.106489 -0.570878 0.930746 0.362768 -0.203381 2.158119 0.493425 0.073219 -0.607863 1.928354 0.278842 0.483234 -0.797416 0.243672 0.820223 0.436502 0.333425 0.523017 -0.775192 1.079661 0.253644 0.695413 -0.377238 0.035874 -0.832166 0.263965 0.433968 0.574728 -1.564903 -0.033346 0.101789 -0.269054 0.138430
0.085869 0.288156 -0.301283 -1.216995 -0.286072 0.933030 -1.778028 0.673623 0.227103 -0.426720 2.209009 -0.694532 0.312240 -0.372787 -0.047126 -0.012630 0.193373 -0.569908 2.241780 0.763687 1.722502 -0.353972 -0.618262 -1.857714 0.057421 -0.519003 0.876616 -0.561629 -0.170996 -0.764943 0.074328 0.205795 0.645318 -2.363829 1.431059 -0.659523 -0.241989 0.504853 1.142906 -0.712146 0.160560 -0.680328 0.084288 1.150838 0.039042 -1.076519 0.041020 0.047630 0.976245 0.047088
0.443697 0.663528 0.156868 0.588530 -0.944274 -0.476736 -0.169643 -0.582623 0.008851 0.036451 -0.425309 0.355442 -0.682083 -1.473171 0.443676 0.292866 -0.388588 0.116971 -1.300327 1.130994 0.541967 0.872382 1.353449 1.631634 0.430053 0.219422 -0.161889 0.397734 0.834241 -1.226646 0.707076 -0.114701 1.321844 0.586421 -0.787620 -0.519519 -0.799591 0.151263 0.141846 0.026924 -2.235410 0.127776 0.300616 -0.182052 1.052816 0.414766 0.850992 0.521205 -1.251194 0.135596
0.433809 -2.112214 0.687962 0.725494 0.036462 -1.465193 -1.154595 0.157157 -0.725515 0.509152 -0.948031 -0.037597 -0.454941 -0.314633 0.047253 -0.085501 -0.166591 0.853301 -2.023362 0.231774 0.898878 0.849331 -0.827922 2.058562 0.430406 -0.525134 1.182753 0.681491 -0.013889 0.088419 -0.200311 0.393507 1.146016 -0.121706 -0.824248 -0.672748 -0.203196 0.210778 -1.144323 0.498808 -0.975219 -0.219780 -0.978700 0.150960 1.001606 -0.226414 -0.248094 0.734873 0.306918 0.653126
0.024698 -1.862386 -0.760695 0.243960 -0.535488 0.159170 -1.001931 -0.647863 0.135840 0.271670 -0.766359 0.937986 -0.614870 -0.247715 -0.009893 -0.191085 -0.307896 0.281241 0.475280 -0.202710 0.913234 0.863039 0.049218 0.356886 -0.107381 -0.192684 2.127701 0.220386 -0.167726 -0.213876 -0.895339 0.309781 0.057402 -1.107167 -0.678482 0.006696 -0.586992 0.533460 -0.962206 0.172297 -0.633746 1.812366 0.064889 -0.207792 0.469204 -0.831108 0.212495 0.576171 -0.446368 0.010267
0.180267 -0.756713 0.486018 0.133913 -0.426688 -0.657308 -2.347046 0.128468 0.253754 -0.696143 2.539540 -0.717992 -0.308646 -0.118695 0.336299 -0.149153 0.212020 0.018534 0.852710 -0.191145 0.913088 -0.363068 -0.994007 0.275965 -0.657799 -0.404880 -0.385256 0.414193 -0.885412 -0.572529 0.920314 -0.260285 0.630806 -0.378166 3.219249 -0.878750 -0.474013 0.534730 0.807274 0.060315 -0.416852 1.160745 0.200989 0.813265 0.966983 0.244674 0.134952 0.728290 -0.071678 0.242952
0.595565 0.181299 -0.348081 -0.028630 0.170433 1.546322 0.096683 -0.138397 1.103254 0.350650 -0.059914 0.048495 0.036501 0.137929 0.465410 -0.948314 -0.012195 -1.372815 1.309673 0.406543 -0.253252 -1.170816 1.448761 -1.693314 0.347812 0.409526 -0.188397 -0.199938 -0.235197 -0.104623 0.473122 -0.242285 0.197074 -0.042979 0.104249 1.677414 -0.453749 -0.342670 0.707437 -0.416087 1.413497 -2.716475 1.057702 0.495117 1.399512 -0.127204 0.451193 -0.109707 -0.656356 0.085262
0.342626 0.324199 0.298382 -0.027095 -0.745149 0.289449 -0.983160 0.367377 -0.691591 -0.389902 3.188905 0.359737 -0.942171 0.497943 0.579205 -0.644154 0.151179 0.176839 -0.626177 0.006412 -0.142208 -0.275573 1.208308 0.918430 0.758454 0.232136 -0.007373 0.253554 0.619772 -0.445188 -1.188434 -0.300379 0.590647 0.651315 1.490215 0.006323 0.407974 0.364055 0.576584 0.236416 -0.045290 -0.780453 -0.320569 0.672042 0.284219 -0.363473 -0.550074 1.195362 0.612334 -0.937722
0.805763 1.108281 -0.172906 -0.653075 1.791755 -2.176103 -0.025124 -0.155691 -0.152603 0.431738 0.777704 -0.143919 -0.511984 0.063133 -1.668942 -1.878307 0.158733 -0.232615 1.520955 0.384985 1.556616 0.528239 0.534461 -2.092983 -1.772859 1.682324 0.316646 -1.538248 1.561725 -0.300035 0.035168 -0.682636 1.268030 -0.311085 -1.569620 -0.625121 -0.059911 0.574462 -2.952334 -0.256510 -0.142837 2.314658 -1.146960 0.432315 -1.134061 -0.343418 0.269831 -0.447363 0.121004 0.206144
0.214442 -1.068545 0.604749 -0.125790 -0.763695 -0.295448 -0.039022 0.021177 0.052788 0.411724 -0.419524 0.780424 -1.652592 0.771075 0.007884 -0.029785 -0.226576 0.051343 -0.038608 -0.625745 -0.524244 0.172524 0.279585 -0.201539 -3.023140 -0.486037 1.591167 0.309445 -0.342914 -0.199433 0.355570 0.033138 0.410273 -0.139933 -0.860838 0.057495 1.030482 1.026666 0.765047 0.312913 0.232754 3.304418 -0.153000 0.080800 -1.333826 -0.577446 0.281370 0.601894 -1.122613 0.048723
0.935994 0.722891 -0.245745 -0.396675 0.146680 -0.263093 -0.555950 0.196186 -0.006659 -0.299159 -0.419239 0.234517 0.259978 0.657290 0.120589 0.251622 -0.117334 -0.384873 -0.215908 0.217863 0.822310 -0.234483 0.115763 -0.315190 -0.029342 -0.060133 -0.609732 -0.189265 0.377128 4.629325 0.490075 -1.670423 0.311734 0.437904 -0.284518 -0.034814 0.079008 -0.046002 -0.771207 -0.060780 0.118798 0.255713 0.119000 0.404634 -1.055598 -0.031646 0.241995 0.199582 0.508345 0.672116
0.046892 1.023271 -0.122893 -0.896553 -0.378300 1.636041 -0.908721 0.507072 0.791915 -0.890542 0.556724 0.692439 -1.668211 1.076198 0.661133 -0.427619 -0.412817 2.362591 -0.982326 -1.153821 -0.210424 0.031176 1.771881 -2.581186 -1.156970 -0.096288 0.286725 -1.348374 -1.211091 -0.273162 0.932179 0.463061 1.352940 1.009424 0.340359 -0.465323 -0.266982 -0.047064 0.488482 -0.437265 -0.825759 1.260268 -1.817958 0.071514 -1.097224 -0.347459 0.184414 -0.100169 -3.376465 0.531538
0.927959 -0.884833 0.457195 -0.261358 2.059806 -0.556900 -0.646243 -0.015506 -0.801853 0.391425 -0.094699 0.197413 -1.000995 0.587752 -0.770471 -0.112258 0.110324 -1.381212 -0.125205 -0.118028 -0.324865 -0.206945 0.491590 0.860015 -0.616911 -0.797037 -0.370101 0.550166 0.747901 -0.336929 -0.099366 0.129747 0.286554 0.145850 -0.667979 -0.251514 -0.660278 0.242590 -0.957237 -0.141178 -1.049048 1.165853 0.749626 0.046199 -1.907257 -0.413452 -0.080336 0.058813 0.252671 0.709266
0.030993 -0.041660 0.403387 0.257259 -0.707646 0.161630 -1.275159 0.285084 -1.263146 1.402786 -0.512564 0.571707 0.759578 0.594047 0.566232 1.576691 -0.130164 -1.218816 -0.502676 0.026239 0.044646 0.470978 -0.427191 1.737234 -0.185797 -0.109889 -0.004775 0.839846 0.308902 -0.318271 0.231559 0.462459 0.634729 -0.512433 -0.439238 -0.271196 0.164871 -0.058794 -1.520570 -0.100608 1.353323 0.988335 2.040307 -0.061907 -2.009977 0.162125 0.842196 0.497917 1.094815 -0.142196
0.060193 -0.662220 0.116713 0.456422 -0.320832 0.391881 -0.029890 -0.386905 -0.222926 0.581618 -0.856124 0.632853 -0.788123 0.483758 0.390161 0.133575 -0.129841 -0.645732 -0.267402 0.216864 0.274942 0.429310 0.287440 1.113440 -0.334565 -0.472204 0.799020 0.760421 0.316394 4.717484 0.181669 0.433749 0.965891 -0.135234 -0.471164 0.278139 -0.354320 0.245983 -0.099338 0.138695 -0.773498 1.155328 0.829319 0.226776 -1.444320 -0.324936 0.545119 0.615406 -0.320928 0.192302
0.569153 -0.518951 -1.996351 -0.307677 -0.021381 0.346326 0.826562 0.199874 0.480481 -2.713435 -0.044678 -0.120929 -0.637875 -0.352971 -1.206796 -1.208515 -0.109072 1.141298 1.613640 -0.679845 -0.442872 0.356488 -0.883651 -0.368745 -1.054096 -0.375506 -0.150442 -0.211351 -0.431922 1.124107 -0.078129 0.089999 0.332390 0.431947 -0.218282 0.243497 -0.347712 0.186173 -1.957031 -0.331569 -1.693027 1.301178 -1.113132 0.018245 -1.659308 -0.681214 -1.328034 -0.135308 1.084073 -0.672736
-0.275413 0.344094 1.019644 1.177587 0.133718 0.466658 -1.447571 0.237203 -0.183454 2.286103 -0.708049 1.628212 -0.227935 0.842059 0.737237 1.669133 -0.301678 -0.572624 -1.154344 0.714111 0.837352 0.472734 -1.042121 0.971517 0.286307 -0.074803 1.419036 0.950731 -0.081028 -0.375010 -0.122678 1.367809 -1.152845 -0.693564 -0.362235 0.190776 -0.459923 -1.168869 -1.260452 0.407100 -0.613492 -1.214565 0.913277 -0.531283 -2.320283 -0.644832 0.800564 0.360298 -0.406427 -0.334630
0.004549 0.868908 -2.211103 -1.185261 0.354945 0.651513 0.085108 0.273041 -0.618880 -2.735742 -0.142489 0.023030 1.801979 0.895484 -0.040351 -1.798922 0.334349 -0.037413 2.551768 -0.757927 -0.896743 -0.163168 -0.495089 0.009994 -1.050498 -0.362914 -0.033442 -0.448833 0.693844 -0.162005 0.244565 0.789960 0.467378 0.264512 -1.022362 2.138203 0.296196 -1.600828 -0.426796 0.323946 1.173584 -0.716477 -0.821117 0.449464 -1.200307 -0.658077 0.239190 0.083249 1.108832 0.816396
0.039869 -0.152030 0.833231 0.340183 -0.256416 1.278016 -2.327220 -0.717403 -0.092711 1.726023 0.192734 -0.101100 -0.927499 -0.324474 0.777273 1.428831 -0.657820 0.210961 -2.298651 0.164552 0.936046 0.288920 -1.595916 0.098313 -0.236076 -0.927420 0.340289 -0.157137 -0.883926 -0.029077 -0.237701 0.336503 -2.272436 0.493895 -0.504471 -1.082196 -0.120908 -0.794465 0.068602 -0.549763 -0.649964 -0.369896 -0.179826 -0.482320 -1.260555 -0.311371 0.655858 0.091416 -0.851819 -0.315569
0.389832 0.620938 -0.505101 -0.696683 -0.387331 0.139730 0.363310 0.556783 -1.053537 -0.869349 -1.359901 0.780657 -0.282647 1.515460 -0.154677 -0.724569 0.408514 -0.468926 -0.057133 1.089416 0.107588 0.050059 1.366374 0.042868 -2.665782 0.435032 0.246631 0.030495 0.164828 -1.261919 1.293066 0.699359 1.010238 0.343432 0.384662 0.396573 0.228584 0.051146 1.519153 0.358926 -1.598317 1.181998 0.429962 0.886177 -0.247975 -0.022540 -0.245389 0.512761 0.463601 -0.394579
0.380002 0.439340 0.236779 -0.293155 -0.313796 0.921811 -1.132196 0.122334 -0.708563 0.027651 -0.866231 0.884324 -0.841791 0.386068 -0.007510 0.152104 0.091358 0.371333 -0.968990 -0.899722 -0.298388 -0.189707 0.586240 -0.063266 -1.729076 0.352087 1.231155 -0.845641 0.503532 -0.191452 -0.890416 0.165246 0.954814 0.606270 2.798046 -0.304547 -0.567860 -0.814264 1.280416 -0.395857 -0.073609 -0.332470 -0.228223 0.211682 -0.899704 0.071589 -0.144849 -0.078334 -1.356668 0.728991
0.391400 0.338341 0.587943 0.469284 -0.165816 -0.084748 -2.169776 -0.738946 -0.519007 0.176272 -0.212191 -0.501033 -0.558913 -1.174418 -0.460159 -0.092940 -0.214210 -0.981185 -0.128891 0.862065 0.080037 0.792102 -0.320199 0.092631 0.070181 -0.561914 0.778845 0.554081 0.803786 -0.500110 -0.101494 -0.136458 -2.426968 -1.163479 0.253313 -0.727018 0.767818 -1.115675 0.097240 -0.159757 0.947845 0.571445 -0.479398 -0.159435 0.753677 -0.186419 -0.080317 1.196386 0.509495 -1.025360
0.099878 0.011443 -1.025755 0.387524 0.036867 0.293699 -1.390946 -1.258450 0.231771 -1.129982 -0.582524 0.622545 -0.335919 -0.312729 -0.144953 -1.076200 -0.467319 -0.182943 0.053186 0.103677 0.953925 -0.218647 -0.228812 0.553264 -0.226460 -0.143660 -1.057827 -0.149908 0.196903 -0.681814 0.053477 -0.003828 -2.696519 -0.178564 -0.148483 -0.495752 1.103727 -0.433391 0.121227 -0.223318 -0.459094 0.661964 -0.119636 -0.246673 1.238767 0.136940 0.189938 0.682803 -0.316879 0.031506
0.004944 0.895457 1.627881 0.379928 -0.344331 0.133481 -2.074889 -0.103435 -0.590328 0.474956 0.075665 0.887520 -0.283859 0.653230 1.317564 -0.644369 -0.119175 -0.074486 -0.297345 0.365501 -0.384409 -0.108590 -0.717439 0.809877 -0.073151 0.011550 1.149461 0.790469 0.718930 -0.209263 -0.499425 0.550183 0.966101 -1.387969 -0.515764 -0.693817 -0.417840 -0.351602 0.893341 -0.062534 -0.421206 1.200902 -0.754978 0.523295 1.573922 -0.689517 0.620730 0.603907 -0.321124 0.375429
0.107117 0.200026 -0.350677 -0.516270 -0.196042 -0.070409 0.141809 0.292973 -0.115013 0.455537 -0.144878 0.760860 0.442551 0.661240 -0.095978 -0.485256 0.116949 0.088516 -0.750249 -0.235583 0.556315 0.234765 -0.607216 0.163982 -0.218547 -0.102968 -0.857702 0.240984 0.645498 -0.212421 -3.968272 0.206655 0.105900 -0.361292 0.276691 0.342782 -0.442863 0.214260 0.343801 -0.292865 -0.224485 1.281622 -0.347102 0.767516 1.951993 2.266300 -0.230660 0.631204 0.122271 0.629358
-0.318473 0.678764 0.410701 0.089499 -0.432424 0.873621 -0.483475 0.099579 -0.586547 -0.265852 0.089551 -0.489368 -0.635243 0.675943 1.012011 -1.481944 -0.559746 -0.346127 -0.054111 0.523753 -0.681185 0.356278 -0.319292 0.636571 -0.040419 0.016616 0.593268 0.079407 0.451292 -1.063138 -0.365734 0.762153 -0.107800 -0.088160 -1.440487 0.139557 -0.576420 0.014159 0.074577 -0.110290 1.824091 -0.172136 -0.382347 -0.394370 2.086219 -0.948084 0.202430 0.320353 -0.815085 -0.078288
-0.074923 -0.343341 -0.599261 0.622777 -0.675886 0.593770 -0.192496 0.103279 -0.804461 -0.486900 -0.566048 0.587944 -0.383929 0.631003 0.331908 -0.464213 -0.491354 0.093362 0.776456 -0.676403 -0.078729 0.712536 -1.144848 1.928839 -0.776302 0.048683 1.202529 0.861800 0.515220 -0.767510 0.212140 0.310418 0.993504 -1.166592 -0.109974 1.050651 -0.324856 0.576084 -0.654931 0.192673 0.309288 1.136810 0.059618 -0.854488 1.854783 0.042764 0.395135 0.502845 -0.799362 0.114321
0.411549 0.911938 -0.357858 0.851320 0.178889 -0.333242 -0.987564 0.994750 -0.539725 -0.351642 0.277588 -0.197597 -0.438671 0.716055 -0.336589 -0.136269 -0.063252 -0.033127 0.915272 -1.000088 -1.306474 0.957336 -0.178843 0.415424 -0.793150 -1.060156 -1.674408 0.225107 0.081799 -0.893336 0.371374 0.080299 -0.732848 0.197891 -1.088740 1.006136 -0.176628 0.515238 0.418507 -0.193753 -0.378214 0.481611 0.177194 -0.644050 1.726210 -0.652861 1.000683 -0.064918 -0.387361 0.047738
-0.572802 -1.195813 1.512142 -0.787300 -0.501804 0.718334 -1.419919 -0.086695 -1.063006 0.937616 -0.572738 1.745572 -0.206358 0.328894 0.097199 0.765948 -0.472717 0.678145 -1.512098 0.608691 2.291584 -0.511707 -0.171762 -0.725069 0.830889 -0.548335 1.170041 0.527654 1.744421 -0.089279 -0.224538 0.610077 0.273910 -0.547798 -0.250436 -0.324275 1.496623 0.169182 -0.545975 0.650286 -0.360434 -1.500355 -1.571208 0.054227 0.608966 -0.774609 1.052698 0.867572 0.605463 0.152778
0.112413 0.806780 -1.865150 0.158997 -0.527811 -0.416197 -0.400183 -0.020376 0.248950 0.326765 -0.601711 0.624303 -0.178640 0.310163 -0.710884 0.295724 -0.196008 -0.921880 1.324466 -0.970458 1.548386 0.280891 -0.343424 -0.676566 -0.296002 -0.363557 1.876893 -0.875216 -1.249949 0.238470 0.558264 0.086258 -0.081928 -0.364772 1.807003 -0.577567 -1.016738 0.158700 0.722646 -0.454470 -0.801408 -0.237936 1.334712 0.698110 0.617380 -0.027884 -0.067327 0.322383 0.204574 0.561871
0.201736 0.392762 -2.289197 1.166216 -0.513536 0.422373 -0.132592 -0.410371 -0.250579 -0.172631 -0.246119 0.044900 -1.606993 0.486050 -1.432404 -0.289677 -0.025717 -1.046591 1.405014 -1.421813 -0.097648 -0.154058 -0.736655 -0.936008 -1.043613 0.066745 1.520416 -4.247859 -0.977113 -0.014760 0.590357 0.103500 -1.032421 0.570550 1.143547 -0.789622 -1.040216 -0.957034 1.054676 -0.783740 -0.673377 1.299787 3.018904 1.015968 1.358253 -1.112897 -0.771752 0.256653 -1.461798 0.950559
0.134123 0.407272 -0.311337 0.275206 -0.453743 0.883702 -0.003962 -0.555983 -0.645059 -0.407498 0.820270 -0.204933 -1.234508 -1.540734 -0.050666 0.506790 -0.335377 0.085279 0.822307 -0.609546 0.429410 0.699419 0.121434 0.029760 0.111125 0.309095 0.781426 -2.180613 -0.555118 -0.074646 0.320466 -0.055685 0.730257 0.847556 -1.801525 0.166815 -0.855392 -0.805095 1.296445 -0.190679 -0.744253 0.559298 2.283092 -0.008746 0.342237 1.014555 0.540730 -0.236989 -0.562198 0.622468
-0.199523 0.388281 -4.416818 -0.649828 0.214157 -0.172263 -0.891171 -0.181892 1.068153 3.409850 -0.050455 0.172247 -0.384509 -1.208151 2.888637 -1.348553 -0.578909 -3.130551 -0.079087 0.661218 0.959637 -0.058766 1.233282 -0.065236 0.043607 -0.566922 -0.542203 2.543713 -1.957908 0.124573 0.889441 0.268342 0.590307 -1.502079 -0.057598 -0.279265 -0.213193 0.090983 0.591762 0.026758 -0.667289 -0.345688 -1.852033 -0.356094 -0.429673 5.410159 0.447884 0.076247 -0.813197 0.901360
0.870362 0.128741 2.464545 -0.341710 0.079922 0.762691 -0.205826 -0.192335 -1.106879 -1.328351 0.313422 -2.005988 -0.566155 -0.161669 -2.637699 1.416337 0.299291 0.650097 0.509884 0.705307 0.949829 -0.235098 -0.712511 -0.286137 -1.806422 0.140982 1.621236 -3.319308 1.582512 -0.720073 -0.523765 0.021327 0.338297 0.285919 0.077209 -0.201365 -0.602851 -0.723798 0.853207 -0.316525 -0.026305 0.045493 2.455463 0.657293 0.151310 -0.588830 0.091715 0.664620 1.493748 -0.412082
0.642983 0.531681 0.363204 -0.131928 0.193501 -0.187661 -0.020538 0.943014 -0.672566 -0.174894 1.511878 -0.230457 -1.261676 0.537204 -0.064421 0.036090 0.144899 -0.276116 -0.339469 -0.575722 0.890254 -0.077570 -0.387030 -0.428595 -0.736585 0.175341 -0.886124 -0.582338 0.213432 -0.276453 -1.205474 0.108640 0.333589 1.203341 0.844926 -0.411835 -0.213166 -0.982726 0.603511 -0.821365 -0.367682 0.262573 0.167754 0.050448 0.514819 -0.127848 -0.117878 0.139682 0.849660 -0.751415
0.343659 0.363877 -0.682496 -0.070619 -0.455718 0.035425 0.536281 -0.004126 -0.030574 -0.058979 -0.535648 0.804618 -0.473443 0.636210 0.248566 0.250608 -0.183008 -0.410207 -0.366474 0.244393 1.734034 0.334157 0.276235 0.231419 -0.174131 0.055884 -0.253283 -0.221024 -0.286890 0.633354 0.233283 0.289071 0.851563 0.774498 0.688602 -0.693658 -0.135054 -1.280783 0.957244 -0.469309 -0.780864 0.643750 0.330161 0.002446 0.762234 1.058907 -0.020290 0.466469 1.066091 -0.753487
0.893566 -0.604964 0.011210 0.144240 -0.883594 -0.207937 -0.455818 0.189305 0.041412 -0.204351 -1.055189 -0.020630 -0.804751 -0.886548 -0.865810 0.176631 0.160562 0.286655 0.876434 -0.210452 0.780210 0.815799 -0.327853 0.074575 0.425067 0.163242 0.063211 -0.103567 0.287826 -1.377395 0.161513 -0.453476 0.387699 0.044561 0.212520 1.047455 -1.219456 -2.352776 -0.883893 -0.238396 -3.665691 0.173126 -0.018262 -0.116475 -0.656570 -0.339557 -0.158860 0.164859 -0.011700 -0.271564
-0.320202 0.249850 0.792255 0.121569 -0.258473 -1.319036 -2.522532 -1.066473 0.268078 1.136847 -0.018215 -2.680124 -0.439993 -0.360064 -0.324234 0.512311 -0.081465 -0.538780 -0.235831 -0.557930 -0.581431 0.367952 0.048712 -1.215226 -0.001883 -0.659400 0.093350 0.150876 -0.626419 -0.159453 0.458054 0.310975 0.940256 0.610180 1.022484 -1.046064 0.294592 -1.107012 -0.025452 0.394003 -0.558635 0.429542 -0.640316 0.128379 -0.809531 -0.217688 1.104272 -0.570897 -0.957071 -0.067527
0.381420 0.820312 -0.436058 -0.473427 0.083303 -0.798181 -1.533786 -3.580384 0.011950 0.447569 -0.948477 -0.826198 -0.475565 -0.516060 -0.105639 -0.078226 -0.063547 -0.479691 -1.109473 -0.235007 0.970509 0.269187 -0.296058 -0.024250 -1.287042 -0.890267 0.355117 -0.447059 -1.201531 -0.070514 0.037293 0.174442 -0.999980 0.621666 1.096172 -0.920513 -0.745116 0.685415 0.852498 -0.691105 -0.419800 -0.264439 -0.544045 0.033527 -0.427987 -0.111500 0.606777 0.917671 0.389163 0.140200
0.273962 1.022549 0.112184 0.484268 0.288253 0.673996 0.414692 -3.412584 -0.631835 0.182687 -0.999443 0.177645 -0.654343 0.374774 -1.144906 0.549266 0.364141 -0.157464 1.317030 -0.240230 2.063271 0.237446 -0.793650 -1.584879 -0.004636 0.193653 -1.210590 -1.258865 2.275454 0.148712 0.407486 0.686025 0.324011 -0.540277 0.875045 0.072865 0.191023 -1.148082 0.707269 -0.383100 -0.389528 1.240191 0.297777 0.433937 0.461986 -0.775622 0.227430 -0.600615 1.257215 -0.182326
0.166038 1.060261 -0.979787 -0.419493 0.185447 -1.314078 0.912749 1.289331 0.230866 0.677384 -0.827061 -1.096290 -0.074348 0.228260 -0.688233 0.858237 -0.106645 -0.447702 -1.626693 1.031331 0.254063 0.482581 0.632703 -0.477109 -1.965793 0.545076 -0.293573 0.025205 -0.459909 -0.255477 -0.316128 0.908387 0.339643 0.453062 0.337701 -0.202541 1.466023 0.276026 -0.004084 -0.660114 -0.535364 -0.587148 -0.305598 -0.229174 1.101094 -0.676369 0.089372 -0.316040 0.132246 -0.422825
-0.284393 0.996787 -0.516001 -0.146657 0.088606 -1.958994 -2.849641 0.673699 0.592855 0.124068 -0.965843 0.191211 0.594492 0.416773 1.058358 -1.117304 -0.494303 -0.229327 -1.134872 -0.332366 -0.123217 0.414458 -1.050313 1.340403 -1.010894 -0.510103 0.338969 0.485187 -2.715727 -0.003885 0.204853 0.840235 0.410790 0.568897 -1.135157 -0.437673 0.266618 0.088608 -1.030126 0.077704 -0.842452 -1.433829 -0.447427 -0.233468 0.474094 0.090987 1.382623 0.796615 -1.858043 1.028260
0.464339 -0.075000 -0.243946 0.608132 -0.488039 1.595279 1.525862 0.560196 -0.509098 0.172372 -0.753929 0.190633 -1.180459 0.933088 -0.470208 0.293393 -0.125559 -0.184322 0.997009 -0.714982 2.328349 0.420244 0.660172 -1.072424 0.332175 0.400205 -0.440022 -0.569578 2.331358 -0.044593 -0.201857 -0.195012 0.519922 -0.579186 0.659844 0.254295 0.175017 -2.532500 0.573356 -0.437690 -0.485077 1.880538 0.849426 0.044107 1.757120 0.889909 -0.570714 -0.297226 1.692498 -0.253445
0.008965 -1.976346 0.107179 -0.657585 0.591759 -0.465717 -2.466286 0.716701 0.955460 -0.098369 -0.496112 0.749771 -0.866328 0.279123 1.930409 -1.365554 -0.218821 -0.476760 -3.499109 1.384550 0.019128 -0.891008 0.247434 2.793387 -0.528419 0.145572 0.941398 -1.835077 -3.795876 -0.270508 0.421017 0.755735 -0.186822 0.735520 -0.293220 -1.294233 0.700182 0.723053 -0.606580 0.307690 0.127519 -1.539056 -0.267039 -0.312823 -0.746404 0.646419 1.338447 0.570244 0.061901 -0.205580
-0.261545 0.583057 -0.173193 -0.013414 -0.086584 -0.343500 -2.031862 0.432313 -0.358103 -0.692307 -0.069155 -0.145022 0.432784 0.924778 -0.107406 0.082074 -0.414148 0.339664 -0.432816 -0.823434 -0.716126 0.277363 0.342173 1.705786 -1.478885 -0.140416 0.624528 0.016642 -0.804266 -0.283535 0.129446 0.810951 0.505693 0.845158 -1.378112 2.453537 -0.416564 -0.157599 0.363072 -0.224272 0.103090 -1.488873 0.254601 0.136145 0.530513 -0.362440 0.509388 -0.039005 -0.222738 0.439702
0.463975 0.916970 -0.216645 -0.127931 -0.020562 0.028663 -1.707186 -0.442435 -0.089482 -0.040509 1.643432 0.632353 -0.275235 0.402170 0.167607 0.300237 0.510454 -0.056828 0.652672 -0.428922 0.448106 0.066479 -0.510603 0.218339 -0.362481 -0.321758 0.800864 0.264152 -0.050009 -0.125188 0.363148 0.397447 -0.059456 -0.365342 -0.359135 -0.521841 -0.849552 -0.597343 1.131975 -0.457994 -0.261119 0.497059 0.277106 0.788286 0.333251 -1.141078 0.054824 -0.062215 0.368790 -0.038482
-0.055043 0.241658 0.019523 0.129598 -0.752060 0.232140 0.211249 0.363406 0.281473 0.497778 -0.721689 0.311039 -0.675470 0.957774 -0.016357 -0.013412 -0.488115 -0.513171 0.505062 0.531607 0.774891 -0.328772 0.346446 -1.032753 -1.136840 0.370576 0.252150 0.265171 0.675421 0.393018 0.436527 0.458849 1.081796 -0.880848 0.754670 -0.667083 0.055313 -0.241130 0.361409 -0.147974 -1.026829 -0.686550 0.201487 0.142012 0.966253 0.199930 0.019689 0.634618 0.157214 -0.074220
0.383280 1.038705 -0.325064 0.173509 0.025420 0.752336 -1.829379 0.273264 -0.088220 -0.400208 3.030468 -0.032837 -0.614155 0.334952 -0.086264 -0.426668 0.080370 0.013228 -0.619369 -0.387442 -0.694461 -0.203976 0.766991 1.262161 -0.121628 -0.156015 0.084611 -1.018413 0.426657 -0.546643 0.547459 0.348628 0.683683 -0.510831 0.634889 -0.155013 -0.130455 0.086090 0.855309 -0.070100 -0.304016 -0.641341 -0.322652 0.187321 -0.492700 -0.812345 0.153900 0.691929 -0.279098 -0.099722
0.117349 -1.188031 -0.271136 -0.245820 -0.687557 -0.090663 -0.399811 -0.225105 0.334828 0.139268 -0.518461 -0.085565 -0.662991 0.224337 0.633824 -0.495517 -0.283928 -0.135372 0.287881 0.155425 1.072801 0.763232 -0.994381 -0.220449 -0.726814 -0.194951 0.066406 0.233573 -0.497406 0.437892 -0.170203 0.249997 1.100256 0.121575 -0.551388 0.203146 -0.579034 0.293193 -0.247332 -0.164737 -2.247245 -1.089338 -0.274232 -0.181032 -0.168981 -0.715558 0.012945 0.304771 0.254097 0.382954
-0.027457 0.788431 0.323809 -0.617998 0.692530 0.172235 -0.668215 -1.804500 0.231317 0.515645 -1.443389 0.338264 -1.486987 0.448309 -0.008720 -0.111789 -0.205186 0.345265 -2.373659 -1.123994 0.913376 -0.946328 -0.479882 0.746281 -1.277291 -0.223775 -0.738831 -2.522956 0.407530 -0.093302 0.337461 0.395443 -0.895378 -1.506079 -0.012451 -0.540281 -0.082969 0.725709 0.546470 -0.031774 -0.634066 -1.737005 -2.017561 0.204414 0.983009 0.046701 0.686130 0.536586 0.803426 0.790398
0.403012 0.430810 -0.543941 -0.088039 -0.201190 0.523064 -0.339791 1.156223 -0.150719 0.213477 -0.317386 -0.958788 -0.182394 0.311195 -0.208343 0.023684 -0.239274 -1.145783 0.676279 1.272107 1.557404 -0.071875 -0.226358 -1.455778 -0.500296 0.316154 0.797634 1.864523 -0.384536 0.158761 -0.299268 0.589707 0.934990 0.955433 -0.172079 -0.749350 0.616350 -0.596726 1.384121 -0.738966 0.566383 0.841013 1.466085 0.429232 0.964108 0.008517 -0.127003 -0.140111 0.350016 -0.896833
0.666358 0.621817 -0.824323 -0.787451 0.019915 0.038628 -0.286456 0.486055 -0.249606 -0.254531 -1.140560 -0.006072 0.541117 0.488423 -0.767419 -1.049117 0.126161 -1.533228 0.918885 1.677802 0.378510 0.552643 -0.034625 -1.262256 -0.530264 0.301753 0.241447 1.915757 -0.415759 -0.270317 -1.939389 0.719171 0.743106 1.836902 0.583396 -0.323356 0.154675 -1.102980 0.513562 -0.730781 -0.324003 0.991909 2.234375 0.336572 1.793015 0.526239 -0.062212 0.231105 -0.594637 -0.142908
0.037709 0.314327 -1.784594 -0.114349 -0.137309 0.180968 -0.677556 -0.073167 -0.565259 -0.200973 1.171135 -0.575635 -0.234286 0.347067 -0.936098 -0.384622 -0.056042 -0.123648 0.564630 0.107435 0.331615 -0.357680 0.597714 -0.134234 0.217851 0.552710 -0.286725 0.952015 0.111858 0.441516 -2.567578 0.642305 0.597053 1.268904 -0.836574 -0.725783 0.037378 -0.597086 0.423023 -0.704562 0.238451 0.314722 1.759957 0.696933 0.079241 2.397023 -0.150613 0.857938 -0.112016 -0.274853
-0.355681 0.414388 1.457090 0.682873 -0.993404 -1.188744 -1.376647 -0.162799 0.838760 0.173379 -0.715207 -0.131667 -1.666396 0.136868 0.964022 0.620404 -0.443239 1.428525 -0.170119 -1.831846 0.137933 0.121433 -0.431902 0.748810 0.265719 0.441075 -0.116676 -1.501036 0.625073 -0.048183 -0.344384 -0.043882 1.331254 -1.696097 -0.880295 0.972496 -0.130479 -1.436547 -1.050542 -0.285059 0.525478 -0.157134 -2.083653 -0.135835 -0.056511 -0.073677 0.032517 0.330315 -0.307762 0.509279
0.122656 -0.329846 -1.192184 0.191305 0.174775 0.944395 -0.849666 -0.295252 0.028772 -0.106779 -0.061136 1.269401 -1.334779 -0.783395 -0.492045 -0.180401 -0.159192 -0.722770 0.016609 0.002637 0.292128 -0.004087 -0.465235 0.235254 -0.253084 0.116919 0.454270 0.564948 0.354537 -0.756042 -0.066123 0.107220 0.830901 0.350116 0.346857 -0.196703 5.462728 -0.282422 0.442770 -0.162649 0.732217 -0.094713 0.946794 -0.640067 0.479404 -0.853531 0.291884 0.004911 0.522480 -0.223773
0.264336 0.001152 2.073035 -0.547403 -0.343071 -0.474592 -1.711062 0.078146 0.077230 -1.214174 2.520478 -0.581902 -0.334093 0.509771 0.394959 -0.234700 -0.519364 0.171859 -0.372710 0.281655 0.418435 0.038041 1.160312 0.219576 -0.831915 -0.451640 -0.506715 -0.369636 -0.009413 0.067267 0.090216 0.232963 0.603086 -0.179291 0.628860 -0.687649 -0.816556 -0.260649 0.546231 -0.264793 -0.378255 -0.110376 -1.437176 -0.342835 0.752982 -0.658906 0.194288 0.372877 0.061938 0.348755
0.183288 0.587781 -1.043004 0.013574 -0.451315 -0.426044 -0.001544 1.250313 -0.891406 1.666482 -1.597301 0.468681 -0.535802 0.160215 -0.837678 0.187690 -0.207635 -0.655431 0.109067 -0.843734 0.117467 0.058353 -1.153963 -1.123491 -1.797801 0.489913 2.143537 -0.095941 0.114370 -1.184854 0.024579 -0.254332 0.962024 0.517619 1.121487 -0.291751 1.271296 -0.022123 0.785832 0.010057 -1.206346 -1.422014 1.240822 0.526865 0.604738 0.207594 0.394792 0.841980 0.197093 -0.134543
-2.876890 0.130332 3.080123 -0.001734 0.475215 0.275984 -0.643152 -0.256069 -0.100692 -0.172685 -0.544805 0.236809 -3.079411 1.137582 0.717952 1.470756 0.080138 1.517143 -1.626535 -0.117671 1.648310 -0.046431 0.949396 -0.239670 0.358587 -0.638231 -0.909949 -0.960018 0.510898 0.028630 0.482713 0.077880 0.153117 -0.461266 -0.149428 0.300953 -0.658438 -0.071287 -0.549229 -0.163612 0.644644 1.232744 -1.192553 -1.965406 -0.355067 0.558957 -1.802901 -0.429498 -0.661652 -0.416734
-1.889699 1.419528 -1.264126 -1.716401 2.290189 0.001742 -0.326000 0.453237 -0.761068 -1.307304 -0.337473 0.297880 1.376057 0.290157 -1.287123 0.167356 -0.457854 -1.057161 0.776551 1.761821 -0.471344 0.066605 0.116122 0.293867 0.134910 -0.594439 0.583648 1.275417 -0.594909 -1.003239 0.667092 0.875560 0.011280 0.473172 -0.891507 -0.004166 0.170878 1.021558 0.797405 0.791086 -0.172586 -0.678258 1.042191 0.029816 -1.171804 -0.190324 -2.035545 0.378858 0.644026 0.662638
0.614861 -0.680141 -0.074019 0.592732 1.779709 -0.561101 -0.479765 0.643187 0.350052 0.107571 -0.034990 0.127996 -0.384312 0.752738 0.107798 -0.188919 0.671861 -1.165042 1.756446 1.770501 -1.229088 -0.549291 0.020683 -0.277002 0.860279 1.151312 -0.894971 3.000066 -0.112975 -0.482756 0.293102 0.375892 -0.348257 -0.519481 0.286229 0.076619 -0.468318 0.877169 0.445787 -0.300011 -0.636367 1.809917 0.430551 0.888685 -1.079957 0.323066 0.243051 0.095369 -0.052800 -0.036772
-0.212547 0.763897 -1.851759 0.052850 0.596995 -0.001503 1.508139 -0.426042 -0.699935 -0.748042 -0.181028 1.162748 -0.269980 0.483736 1.018909 1.064318 -0.349180 2.374361 -1.008682 -3.405219 0.840914 -3.420762 0.201585 0.656447 0.399733 -1.038947 -1.538216 -4.621377 -0.380063 -1.051080 0.067974 -0.231403 0.137518 0.344397 -0.744865 -0.103032 -0.259317 0.330517 0.388382 0.369791 -0.058364 -0.302119 -0.018204 -0.004791 -0.733303 -0.742535 0.912234 0.215192 0.372058 0.670889
0.368241 0.734404 0.419181 -0.318950 0.315740 -0.368583 -1.261468 0.016954 -0.526462 0.146799 0.272186 0.242278 0.145663 -0.209849 0.025469 -0.410747 -0.559580 -2.468823 1.607422 2.478612 0.134964 -0.285208 -0.217700 -0.898470 0.748004 0.611016 -0.221605 4.119164 -0.379567 -0.067106 0.033384 -2.428757 0.576192 0.642870 -0.445635 -0.680042 0.003452 0.452337 -0.652741 -0.448860 0.406426 3.434089 0.631480 -0.054117 -0.874738 0.017193 1.289397 0.273417 1.023153 -0.400322
-0.215002 1.399029 0.857718 -0.215067 0.960855 0.460561 -0.735166 -0.142095 -0.146900 0.170451 0.114051 0.434746 -0.423868 -0.271415 0.043415 0.178955 0.038317 -1.159864 -0.094923 1.202486 0.460677 0.052149 -0.153361 -0.899488 1.035079 2.609848 -1.066765 0.779631 0.731357 -0.259629 0.337701 0.228184 1.061842 -0.677587 -0.531737 -0.706744 -0.084477 0.773027 -0.371873 -0.193288 -0.010940 1.664938 -0.552414 0.192907 -1.013775 -0.132660 1.459591 0.064109 0.316945 0.156068
0.559054 -0.439379 0.932074 0.035355 -0.464763 0.333265 0.054272 -0.204649 -0.159115 -0.120455 -0.314478 0.550327 -0.553304 1.156199 -0.305244 0.523269 0.143800 -0.146010 0.714786 1.181431 -0.563850 -0.063688 0.342448 0.005604 0.271696 -0.563972 -0.443854 1.412826 0.368124 -0.524372 0.360598 -0.626836 0.722751 -0.651292 0.266190 0.561733 -0.282839 0.040598 -2.376613 -0.008308 -0.757967 -0.335047 -0.356056 -0.003754 -2.280396 -0.306890 0.839103 0.196682 0.148835 0.243196
0.501141 -0.688777 0.624700 -0.377923 0.212563 0.296409 -1.435079 0.061136 -0.220256 0.258752 -0.224583 0.875227 -0.802606 0.120178 -0.180086 0.348344 0.154691 -0.250274 -0.259024 0.809598 0.187503 0.022693 0.456112 -0.679975 0.561163 2.047743 -0.395577 -0.197455 0.525371 0.103926 0.362923 0.437262 -0.096235 -0.071151 0.323222 -0.498996 -0.632281 -0.014891 -0.475746 -0.508445 1.314876 -0.468759 -0.115502 -0.474704 -1.780963 0.477276 1.021333 -0.525037 0.192994 0.142383
-0.855708 0.225768 0.898065 -0.521995 0.930063 1.293994 -0.178383 -0.092443 -0.458459 -0.627952 -0.325893 0.174599 -0.828401 0.697230 0.786139 0.043526 -0.767528 0.544242 -1.178918 -0.230356 1.487360 -0.262384 -0.471379 0.749241 -0.711287 -0.523601 -0.501359 -0.861602 0.771676 0.585369 0.368590 -0.399602 0.397704 0.085840 0.108145 0.103023 -0.332154 0.365005 -0.718120 -0.180564 0.343717 0.881784 -0.623303 -0.799878 -0.020318 0.251672 -3.166033 -0.059244 0.204119 -0.144635
-2.195355 -0.026528 0.436583 0.231733 6.358854 0.032573 -0.637597 0.125565 0.104105 -0.165279 -0.780761 -0.068576 -1.429682 -0.026863 0.412996 -0.098212 -1.183184 0.023058 0.080079 0.820883 0.433231 -0.164432 -0.203523 -0.534605 0.116412 -0.089695 -0.603424 -0.001314 0.202745 -0.900408 0.222716 -0.095986 0.359681 0.109104 -0.117755 -0.048165 -0.234539 -2.114035 -0.439598 -0.183259 0.023694 -0.702405 -0.340457 -0.079154 -0.171149 0.164812 0.208419 0.067296 -0.358084 -0.101647
-0.339825 0.111815 -0.342205 0.224441 -0.225777 0.164778 -1.411413 0.316345 0.024600 -0.926923 -0.143005 0.324546 -0.431859 0.306859 -0.926282 -0.006016 -0.191869 0.188419 -0.201128 0.675345 -1.058017 0.386296 -0.510129 0.304668 -0.177568 -0.211464 -0.801562 0.102185 -0.016709 0.548483 0.466043 0.639308 -0.428017 -0.073956 -0.831757 -0.057717 -0.272483 -1.530537 0.193668 -0.025047 0.991540 0.021069 0.448042 0.347247 0.537929 -0.155751 0.450445 -0.104883 0.375664 -0.685223
0.377422 -0.037666 -0.427956 0.083296 0.410358 0.259682 -0.052780 -0.344604 -0.564059 2.574851 0.647576 -0.260760 -2.254825 -0.048432 0.871379 0.283521 -0.277928 -0.765414 0.096265 0.243905 0.843564 -1.195569 -0.686042 -0.875126 0.000215 0.296471 -1.331461 1.932450 0.514820 -0.726444 -0.207559 0.681184 0.234484 -0.422099 -0.618489 -0.467158 -0.139470 -1.342552 -2.569615 -0.418373 -1.247224 0.530859 -1.444993 0.301057 0.849034 -0.343902 -3.912358 -0.257079 -0.058109 -0.262010
0.407674 0.513808 -0.704465 0.628774 0.289097 -0.870170 -0.614203 0.218009 0.385360 -0.572744 0.676637 -0.100723 -0.795000 0.210377 0.607941 -0.801549 -0.204752 0.507108 0.884193 0.177247 0.686356 0.401722 -1.185506 0.828204 -0.206540 -0.369940 -0.205578 -2.206501 -0.544116 0.256885 0.614142 0.334405 0.368737 -0.134377 -1.127451 -0.115495 0.020698 -0.572008 0.365660 -0.049712 -0.236305 0.624431 1.042825 -0.554540 1.536107 0.340156 0.513997 0.076864 -0.178742 0.444477
0.464127 -0.003669 -0.139004 0.626239 -0.198944 0.068462 -0.320523 0.073259 0.113447 0.411509 -1.068132 -0.242328 -1.179452 -2.251894 0.097282 0.856492 -0.051712 0.414582 0.060963 -0.559383 0.482169 -2.952372 0.025139 0.438324 0.204167 -0.150475 -0.295364 0.906193 0.023193 -0.414114 -0.415924 -0.385794 0.384210 -0.006961 0.209088 1.365234 -0.111444 -0.392589 0.417856 -0.142100 0.633950 1.260345 -0.147914 0.871194 0.903427 -0.610043 -0.132360 0.876560 0.221110 -0.081789
0.442551 -0.153764 0.325570 -0.559604 -1.213880 1.614328 -0.844520 -0.552126 -1.212114 -0.544804 -0.900385 0.100372 -0.883966 -2.441392 -0.517800 1.700674 0.042200 0.738067 0.119231 -0.463744 -0.232115 0.133353 -0.748408 1.125477 1.156589 0.194924 -0.239258 3.337422 0.597470 -0.434730 0.007245 0.087775 1.663881 -0.605321 -1.059417 -0.090952 -0.545386 -0.112086 0.355190 0.081233 -0.907798 3.621417 -1.247823 0.379913 1.369985 -0.167089 0.296215 0.172828 -0.670985 0.696113
0.263692 -0.193935 -0.172929 0.404590 -1.028378 -3.070773 -1.456536 -0.413686 1.616227 0.090182 -0.670483 -0.219573 -0.087118 0.719513 -1.652463 -2.013731 -0.261231 -0.896173 1.265085 0.242642 -1.024264 0.815209 0.606815 0.254501 -0.255528 0.801165 0.327362 -3.103764 -0.840028 0.487228 0.102223 0.297681 0.475745 -0.744673 -0.746503 -0.352032 -0.559516 -0.371777 -1.245747 -0.153142 -0.327167 -0.262743 2.934958 0.115441 0.401446 0.116534 0.038754 0.360153 -0.881181 1.184041
