1.206529 0.288765 -0.332833 0.964792 -0.438844 -1.175285 -0.245623 -0.955238 0.101220 -0.265180 0.439615 -0.198379 0.554999 0.757894 0.264938 -1.039218 -0.055684 1.098004 0.083384 -0.235813 1.315942 -0.543884 -0.096958 0.280605 0.339059 0.634043 0.776967 0.258621 0.102616 -0.128457 0.489419 -0.032776 0.125222 -0.772759 -0.304353 -0.482980 -0.505248 0.719267 0.330889 0.619036 -0.340413 -0.009611 -0.020504 0.426075 -0.757796 -0.068682 -0.732443 0.341955 5.745302 -0.131338
-1.457221 -0.867357 -0.741932 1.409315 0.106492 -0.244281 -0.245399 -0.206090 -0.473499 -0.564862 0.068620 0.575751 0.340849 0.180591 -0.132817 2.076750 -0.256223 0.150937 0.062048 5.282556 -0.959197 -0.018244 0.557862 0.464027 -0.441892 -1.165788 -0.633048 0.900794 0.841801 -0.202248 -0.367340 -1.294591 -0.929471 0.599916 0.115013 0.347192 -0.281592 0.361318 0.539282 0.348612 -4.694642 0.433266 0.687032 0.738570 0.237327 0.717556 -0.306729 0.519484 -0.433836 0.126407
-0.976996 0.140048 0.598618 0.500142 -0.055531 -0.091002 0.522190 -0.468016 -1.110996 -0.367867 -2.898476 -0.731772 0.216507 0.037691 0.549577 0.196476 0.524023 21.115385 0.587472 1.776583 0.584804 0.733552 0.343584 -1.944764 -0.513639 -1.429879 1.071602 0.229655 -1.475246 -0.481892 0.478179 -0.064213 0.008944 0.323610 0.415256 0.485768 0.809148 -0.533646 -0.170009 -2.938474 -0.921408 -0.117838 -0.325560 0.631016 0.475490 -0.309098 -0.273071 -0.694016 -0.752461 0.399142
1.263523 0.367250 0.320689 0.316951 1.005370 -0.666555 -0.612990 -0.875894 -0.247733 0.073967 0.132330 -1.136313 0.070241 -0.207600 0.376320 2.102054 0.138245 -0.473387 0.033976 0.386017 0.172863 1.676883 -0.437750 0.416304 0.006606 -0.321295 0.146925 -0.340517 -0.167694 -0.478217 -0.246077 0.376173 0.330695 0.502270 0.523101 -0.171158 0.232469 -0.786693 -0.924729 -0.371258 -0.065845 0.603198 -0.028205 -0.954484 0.052035 1.355791 0.872184 -0.414879 2.431665 -2.182366
1.456836 -1.446447 -0.644908 0.969834 -0.261171 0.279820 -0.336322 0.099978 0.524963 -0.566735 1.851140 -0.105007 0.196271 0.959719 0.303567 0.023563 0.984804 -0.077173 -0.177733 4.022635 0.982582 -0.610362 -0.310286 -0.171381 0.131692 1.636848 -0.571286 -0.098441 0.313958 -0.789916 0.258462 0.553664 0.656528 -1.725947 -0.478785 -0.788498 0.634374 -0.509587 -1.188123 -0.659011 0.236697 0.621447 -1.034572 -1.179871 0.002335 0.380603 1.292135 -0.222552 4.722345 -0.418102
3.195065 0.023280 1.554656 -1.460589 0.229413 0.664891 0.847818 -0.665089 1.673524 1.394285 0.487735 -0.372260 -0.438979 0.503207 -0.662743 1.727780 0.513621 1.316422 1.185339 -0.440855 1.173407 1.173445 -1.781208 3.158417 -0.295438 0.592746 -0.629593 0.520697 0.228183 0.097205 -0.822627 0.350685 0.899876 0.610292 -0.520688 -0.785699 -0.932673 0.251695 0.076230 2.635850 -0.557953 0.005739 -0.177177 -0.913766 0.030050 -0.221909 0.175912 -0.382692 -0.542016 0.181869
0.867371 -1.945292 -0.349509 0.078992 1.083374 0.715474 -0.754512 1.374122 1.146363 9.546355 0.735146 0.197933 -1.413784 2.712914 -0.073324 -0.076782 0.790335 8.566759 0.642374 -1.638190 -0.900748 -1.531435 -0.293717 0.931404 0.721361 4.379365 -1.446190 0.959843 -0.110610 -1.101412 -5.524609 -0.538677 0.812080 1.104989 -2.754836 -1.464507 0.508825 0.293513 -0.800110 1.645988 0.463788 -0.296132 -0.382207 -1.016607 0.179436 -2.568937 0.245947 -0.664587 2.523819 -0.363398
0.231011 0.369338 0.369762 0.711115 -0.322423 0.038596 0.173596 -0.675988 -0.155342 -4.944660 -0.119805 -0.534323 0.424828 0.525569 0.490267 0.631798 0.760549 -2.363458 -0.323824 0.256132 0.094618 -1.156518 -0.188496 -0.434503 -1.681512 0.556149 -0.105008 -0.634926 1.204461 -0.211130 1.073984 0.028847 -0.467481 0.594051 1.023400 0.050996 0.237611 0.889441 -0.483126 0.124495 -0.066563 0.275853 -2.186588 2.944511 0.401618 -0.707864 -0.144865 -0.119255 -0.483836 2.292651
0.435215 -2.154641 0.454215 -1.250403 -0.477661 0.402242 -0.082902 0.102998 0.792252 3.692876 -0.311715 0.218496 -0.146044 1.354734 -0.219494 0.436093 0.539930 -1.587802 0.447616 -0.724472 0.904225 -0.847107 -0.324007 0.130187 1.712657 1.735179 -3.113611 0.303446 -0.285405 0.198020 -0.886817 -0.104608 -0.222357 0.096370 -0.027390 0.061723 -0.347244 -0.361337 -0.218121 -0.304348 -1.487360 0.426097 -0.694779 0.265502 0.345719 -1.711952 -0.514038 0.848512 3.368620 -0.357850
-0.516797 -1.056539 0.754528 -0.605693 -0.396746 0.281571 0.133931 -0.218310 0.088141 -0.326020 -0.044681 0.540993 0.223398 0.159912 -0.164785 0.831408 0.081580 -0.794910 -0.054603 -0.298118 0.053869 -0.621703 -0.418091 0.203603 -0.271383 0.985349 -1.041890 -0.361660 0.457577 0.193491 -0.241839 0.283442 0.009075 0.805058 -0.256179 0.301322 -0.719020 -0.265758 0.561147 0.728809 -0.366557 -0.290851 0.654954 -0.286427 -0.215917 -0.354059 0.113809 -0.635450 3.007374 0.476802
0.068443 -0.416435 1.018282 0.493700 0.106905 -0.413044 0.483270 0.021780 0.160470 0.866865 0.279236 -0.074127 -0.788679 0.418605 -0.343884 3.913581 0.149731 -0.720872 0.845352 -0.124551 0.304909 -0.479793 -0.192725 0.536813 -0.626908 -0.092264 0.748308 -0.389943 0.308843 -0.744869 -0.365528 -0.487678 0.142597 0.183313 0.312762 -0.242358 0.034061 -1.056342 -1.267631 0.414462 0.130599 0.435505 0.517685 0.034651 0.109393 0.008604 -0.780338 0.030273 0.948215 0.200571
1.442946 0.392630 1.084802 1.455973 -1.258377 1.125906 0.420903 0.009118 -0.303854 -0.105445 -0.089993 0.016022 -0.003971 -1.197554 0.262073 2.728628 -0.172454 0.922454 0.212720 -0.945679 0.125918 -1.000666 0.098927 -1.211593 -0.417206 -0.615183 -0.098499 -0.099739 -0.152681 -0.206822 -0.262659 0.755399 0.162528 0.579980 -0.933091 0.406024 0.540188 0.762707 0.033421 0.515234 -0.300846 0.968992 0.107139 -0.580817 0.785179 0.587251 0.522173 -0.523810 4.114277 0.816293
1.433231 0.697232 -0.156017 0.745544 0.658606 0.000178 -0.195746 0.152530 -0.275698 0.339374 -0.628292 0.501471 0.215818 0.565187 0.106092 0.114365 -0.632955 -0.609989 0.318633 -0.506211 0.336275 1.010718 -0.370657 0.255725 0.675825 -1.169427 -0.310172 0.900554 -0.323998 0.318085 0.265838 -0.634356 0.760931 0.141209 -0.518227 -0.243659 -0.263096 0.656578 2.689673 0.038025 0.294492 -0.154635 -0.823630 3.114330 0.121628 -0.598695 -0.458502 0.548953 1.543946 -1.857244
-0.999732 -0.975885 1.284783 0.770764 0.213713 -1.881732 -0.708124 -0.663102 -0.501573 -0.926859 0.106975 -0.478343 0.310179 0.788532 0.151555 1.063667 0.859805 -1.664566 0.282694 -0.069036 0.283822 0.885193 -0.020252 -0.929581 1.699801 -0.775484 0.966482 -0.926447 0.846373 -0.147811 -0.480939 -0.303594 -0.947019 0.945259 0.818632 0.712756 0.020482 0.990807 -0.173604 -0.378453 -0.745946 -0.226579 -0.773119 0.447311 -0.980619 0.410827 -0.932186 -0.687584 -0.178123 0.656715
0.131331 -0.426752 0.219202 -0.774033 -0.008945 0.466280 -0.386393 0.624887 -0.032345 -1.958477 -0.769215 -0.355752 -0.057001 -0.183141 0.022853 4.183242 -0.043435 -0.442577 0.120065 -0.891391 -1.068272 -0.281591 -0.529893 0.131166 0.702574 -0.074275 -1.454053 0.554189 0.367570 -0.466899 -0.224465 -0.674917 0.612092 0.606454 -0.517708 -0.703205 -0.458559 -0.264071 -0.399525 0.539780 0.158737 0.513706 -0.028894 -0.677218 0.351070 -0.965597 -0.352591 0.098702 1.842641 0.461546
0.497214 -0.997808 0.030728 -0.118133 0.281772 3.069772 -0.237356 1.616616 -0.284893 0.691092 0.175291 1.837796 0.287086 0.157105 0.181033 0.891042 -0.973283 -0.103044 0.901659 -0.383301 1.002899 -0.293481 0.045702 0.339494 0.742477 0.400396 -4.174781 1.499125 -0.887031 0.639204 -0.104913 -0.418883 0.474278 -0.653391 -0.448423 0.504676 0.029517 -0.277594 1.537739 0.007790 -0.953695 0.930423 -0.401675 0.531757 2.304688 -2.218976 -0.099336 0.759340 5.733814 0.294085
-0.258941 1.053342 -0.523079 -0.026850 0.251902 -1.678385 0.269654 -1.156205 0.098165 4.465555 0.597565 -1.505663 0.349742 1.155805 0.700217 -2.675024 -0.217730 -0.620084 -0.544806 -0.108171 1.286693 1.416562 0.105150 0.494328 0.062019 0.898720 3.035573 0.542700 0.291783 0.218329 0.622217 0.052953 -0.461291 -1.433405 0.703642 -0.241925 -0.424656 0.623365 0.020981 -1.270244 -0.841130 0.302943 0.058923 0.108486 0.318726 1.737590 -0.595741 0.970070 5.692461 -0.673704
0.141127 0.263090 0.239520 0.677802 -0.356558 0.127063 -0.171017 -0.905764 -0.273798 3.913100 -0.395574 -0.080139 0.048316 0.446504 0.898334 0.104927 0.596184 -3.963145 -0.167422 0.129057 0.399940 -0.760814 -0.453281 -0.073343 -0.348103 -0.946191 0.508767 0.641629 -0.185772 -0.053533 -0.484178 0.438303 0.929478 0.744582 -0.909049 -0.183969 0.648839 0.291528 -0.804865 -0.952291 -0.627498 0.217130 -1.569838 1.720419 0.996485 -0.007612 -0.047706 -0.008099 -0.248275 -0.176098
2.490797 -0.467854 0.054143 0.850359 0.196641 0.651201 0.086832 0.359979 0.137461 -0.241465 0.099714 0.597380 -0.320876 0.809625 -0.208914 0.628784 0.321688 1.663103 0.902863 -0.031696 -0.097603 -1.561162 -0.184074 0.002496 0.175320 -0.542049 0.758824 0.483833 0.875876 -0.123566 0.267582 0.024593 0.176562 0.054138 0.903872 -0.234160 -0.028115 0.738049 1.506998 0.356621 0.301697 -1.191247 0.017176 3.430284 -0.427736 -0.231945 0.370911 -0.599537 0.486923 -0.515392
-4.271013 0.281715 1.160230 0.373780 0.759715 -2.002525 0.139802 -0.656870 -0.427450 2.016867 -0.073806 0.522035 0.066531 0.653845 0.235987 0.861638 -0.240655 -5.100200 -0.745101 0.213335 0.818533 0.646812 -0.079336 -0.576272 0.301120 0.356724 -0.513235 0.648931 -0.198983 0.080531 -1.428394 -0.779181 0.454300 -0.146027 -0.658982 0.036570 0.602195 0.515494 0.310334 -0.974263 -1.291422 0.177148 -1.102819 -0.500285 1.766122 0.208638 -0.014094 -0.249169 4.657177 -1.205797
-5.168096 0.210362 0.076405 -0.580875 0.736920 -1.563568 0.367889 0.049249 -0.911157 0.901003 -0.304979 0.381926 -0.475854 1.033175 0.793052 -0.035367 0.641062 -4.813562 0.038849 0.394844 0.262238 1.171373 -0.145265 -0.366832 0.543870 -0.617534 0.453388 0.517874 0.002006 -0.271803 -0.701326 -0.616315 2.565746 0.168221 0.779413 -0.012974 0.772548 0.208172 -0.049051 -1.578990 -0.334678 -0.653869 0.008838 1.894202 1.432100 -0.489496 -0.435878 -0.061056 -0.592202 -0.241825
3.149374 -0.599376 -0.444601 1.148111 -0.674235 1.463933 0.087761 -0.028674 -0.118070 1.666634 0.575396 -0.557792 0.299094 -0.026067 0.747054 1.361644 0.705894 0.855244 0.837933 0.120685 0.199628 -0.963893 0.069269 -0.330589 0.779225 -0.629727 -0.267020 -0.099101 -0.359225 -0.062920 -0.592655 1.128028 0.198348 0.168883 -0.610617 -0.018240 0.451520 -0.481636 -0.603692 0.384133 -0.254294 0.207120 -0.890184 2.567764 -0.113725 -0.548122 0.297684 -0.854821 -0.009892 0.566278
-1.114048 0.544477 0.015682 0.942087 0.944707 -0.657599 -0.230070 0.106803 -0.639243 0.260850 0.347039 -0.732478 -0.393085 0.184570 -0.027953 -0.425196 -0.430607 -0.902511 0.712267 -0.422244 -0.526539 -0.122657 0.415970 -0.510090 1.589862 5.386961 1.661508 0.246290 0.135759 -0.559202 -0.315173 0.093534 -0.921970 0.850916 0.427127 0.330906 -0.080818 -0.351451 -0.842420 0.376774 -0.693505 0.038936 -0.209693 1.564779 0.028553 -0.258430 -0.641120 -0.532841 -0.619630 -0.007986
2.490253 0.352932 -0.723964 -0.930289 0.633059 0.250694 0.249736 0.259201 0.505219 0.478187 0.286758 -0.636706 0.249113 -0.213355 0.077749 -0.097519 0.397139 0.235220 0.180299 0.303343 0.268519 0.317126 -0.533427 0.854591 0.869519 -0.792886 1.320611 0.513863 -0.298204 0.095583 0.005825 -0.005422 0.515783 -0.160170 -0.319046 -0.235725 -0.646250 -0.782358 1.789118 0.736351 0.444540 -0.072278 0.015165 2.981687 -0.345643 0.550172 0.136967 -0.878267 -0.463203 1.035030
1.115192 0.069564 -1.625111 -0.417425 -0.210198 -0.037367 0.176927 0.132960 0.038820 0.393649 -0.014306 -0.507974 0.835627 0.859666 0.195412 -0.301786 0.945006 0.130976 0.126651 -0.253601 0.015960 0.697325 -0.632245 0.141522 0.300940 -0.550440 0.009310 0.200454 0.255956 -0.058388 0.408647 -0.164901 2.946353 0.229264 0.051448 0.163778 -0.492268 -0.231674 0.551594 -0.125694 0.344606 -0.192382 -2.160315 -0.536594 0.004877 0.275010 0.113428 0.484042 0.280566 0.097473
-7.081428 -0.298380 -1.164190 -0.664005 -0.785176 -1.665790 0.073295 0.296968 -1.188460 0.747477 0.521201 0.413646 0.117160 -0.079832 -0.819956 -0.811984 -1.377528 4.091097 -1.873242 -0.429906 -0.386077 0.905463 0.033018 -0.564579 2.577360 0.883739 -1.476976 -1.583979 -0.162059 0.037669 -0.786397 0.341017 -0.638871 -0.610997 0.613023 -0.242742 -2.135461 -0.596158 0.315295 1.605105 0.541611 -0.272958 0.411282 8.018260 -0.480629 0.351784 0.038015 -0.035651 1.205866 -1.130580
0.153104 -0.362763 0.475640 -2.535852 0.382704 -0.125776 0.125994 0.301280 0.239371 0.352659 0.570150 0.638345 0.458414 1.236469 -0.101684 0.128907 0.364383 0.288296 0.139189 -0.315692 0.514551 -0.088586 -0.201662 0.354661 0.022421 0.701503 0.160489 -0.454366 0.573125 0.187580 0.415737 -0.458912 -0.340397 -0.412964 0.134105 0.415859 -0.297141 -0.473342 -0.017657 -0.614928 -0.421646 -0.163020 1.205839 1.518564 0.307132 0.145838 0.170981 -0.413462 2.603702 0.332459
0.363129 -0.096450 0.582876 0.360727 0.335337 -3.219442 0.140131 0.041875 -0.573370 -7.685529 -0.355911 -0.489626 -2.330925 1.917120 -0.311068 -0.019920 1.049288 -2.950718 0.583681 -0.100176 0.240169 -1.088689 0.186997 -0.610073 0.903046 0.196152 -0.295186 0.105122 -0.243360 0.086758 -0.135360 -2.133154 0.555002 -0.096791 -1.467129 0.540025 0.122804 0.069712 -1.114801 -1.452569 -0.467535 -0.221288 -1.409387 -0.034777 0.468249 -0.584121 -0.268128 -0.018205 0.776899 -0.134604
-0.053076 -0.122323 1.718249 -0.518394 0.676652 -1.279781 0.340035 0.645710 -0.482329 -4.353648 0.164038 -0.634314 0.547151 0.361361 -0.072682 0.912014 0.919594 -0.195886 0.164969 -0.410236 -1.201822 0.328860 -0.290355 -1.910885 2.028054 -0.611238 -0.021071 -0.767558 0.291050 -0.345982 -0.633701 -0.705309 -0.155222 0.600564 -0.151739 0.291895 -0.253734 0.446026 -1.282164 -0.775365 -0.150350 -0.216976 -0.259561 -0.040291 0.218733 -0.325065 0.269189 -0.319747 0.479700 -0.025066
1.161876 0.101343 0.959389 0.279082 0.768712 -0.167038 -5.185312 0.474369 -0.469326 -3.498273 0.147574 0.200813 0.705939 0.581109 -0.093101 0.279956 0.147958 0.458312 0.938185 -0.548858 0.389695 -0.776079 -0.315507 -0.270032 0.288280 -0.542662 -0.308645 -0.619521 0.038091 -0.172784 -0.020792 -0.331200 -0.467574 0.239747 -0.190081 0.268216 -0.217185 0.254268 1.200716 -0.405743 -0.374248 -0.763274 -0.742163 0.487969 -0.209316 -0.165920 0.151262 -0.338673 1.959637 0.134920
2.048072 -0.005579 -0.345131 -0.441686 0.219047 -0.147126 1.162984 0.424248 -0.433085 -1.026954 0.393854 0.198516 0.041416 1.836787 0.235789 0.666125 1.766687 0.070625 0.585823 0.669073 0.233955 -0.790945 -1.109599 -0.363095 0.348832 -1.416253 0.632350 -0.868377 0.512852 -0.616560 -0.388158 0.160072 0.747231 -0.246256 -0.406456 -0.296321 0.175097 -0.740174 -1.080363 -0.520236 0.757210 -2.221537 -3.154964 1.009707 0.231222 -0.640274 1.035028 -0.973989 -0.106601 0.950882
1.073945 0.974859 -0.397987 -0.511382 -1.137158 -1.256442 0.224243 -0.084778 0.124837 0.361669 0.504761 -0.114876 -1.706072 -0.508044 -0.347599 0.214672 0.891040 -0.747883 -0.199893 -0.124086 0.269015 -0.306377 -0.649822 0.296894 1.600169 -0.128052 0.078669 -0.001090 0.273898 -1.056997 0.001930 -0.572320 1.188604 0.534995 -0.286150 -0.146190 -0.468210 0.643923 1.169316 0.817185 -0.147718 -3.302631 -0.961080 -0.959276 -0.152647 0.497382 0.421795 0.243213 -0.189187 0.376512
-0.047584 0.556532 -0.626950 1.779591 -0.432001 -0.096750 -0.466607 0.286451 0.479002 0.053403 0.100865 -0.283748 -1.087547 0.084669 -0.214838 -0.082362 1.264952 -0.212192 -0.153039 -0.228710 0.444592 -0.943590 -0.855874 -0.088860 1.443644 -0.039621 -0.321552 -0.243609 0.280209 -0.848759 -0.958334 -0.413970 -0.316711 0.239698 -0.064684 -0.742573 -0.508135 0.077137 0.021519 -0.459106 -0.046512 -0.991326 -1.198010 -0.667158 0.651362 0.077798 0.599340 0.050011 0.101807 0.250143
2.126776 0.749706 0.681545 0.880285 -0.267591 -1.354602 -0.123395 -0.807349 0.721849 0.758185 0.013983 0.153609 0.250708 0.860240 -0.627396 0.473474 0.658877 -0.162380 -0.462324 0.013128 0.179794 -0.859686 -0.658723 0.471741 1.409698 -0.776311 0.753228 0.149842 0.614923 0.259963 0.020664 -0.650215 -0.254620 0.182477 0.010826 0.025133 -0.686365 0.016775 1.690048 0.095851 0.057599 -0.024494 -1.794121 3.280262 -0.262786 0.284305 -0.377296 -0.082750 0.607424 -0.072377
0.649476 0.427747 0.904971 0.889528 -0.457195 -0.270245 -0.195999 0.217231 0.261326 0.402770 -0.446233 0.073992 0.560328 0.651919 -0.269758 -0.241063 0.188006 -0.362975 -0.026264 -0.349874 -0.129988 -0.372504 -0.570887 0.235038 0.251182 -0.430089 -0.170168 0.066801 0.097802 0.716521 -0.142259 -0.304512 0.199609 0.120454 0.127797 0.107491 -0.388265 -0.174532 1.981221 -1.048701 0.206975 0.187725 -1.938554 2.917965 0.301983 0.201270 0.104921 0.285181 1.201229 0.420426
3.625865 1.629069 0.264453 -0.410399 -0.777340 -1.160429 0.446876 -1.390808 0.970904 -0.127204 0.087701 -1.162481 0.920663 -0.795726 -0.193165 -0.291507 0.720943 -0.795799 -0.521485 0.222712 0.067357 0.235808 -0.929329 0.803334 1.936642 -0.774976 -0.790340 -0.186021 -0.605783 0.384990 -0.219016 -0.001898 2.015723 0.376662 0.017454 -0.245861 -0.831210 -0.580696 -0.176824 -0.585723 0.342347 -0.199164 -0.233060 5.011905 0.381410 -0.634098 -0.171620 0.126107 -0.213570 0.005124
-6.934891 -2.233374 0.170942 0.316110 0.301841 0.321668 -0.127486 2.169456 0.273267 0.490610 -0.370477 0.170943 -0.222752 0.129385 0.167471 -0.798044 -0.123495 1.237116 -0.100375 0.127793 0.420043 -0.171942 -0.664665 0.117237 1.017565 -1.583882 1.094186 -0.140238 0.401316 -0.221544 -0.028647 -0.109130 5.669083 0.262589 0.131076 -0.765668 -0.241651 -0.568222 -0.374467 1.892355 0.695845 -0.083068 0.194815 5.958810 -0.256060 0.964972 -0.650234 0.169930 -0.478144 -0.005952
2.472474 0.659315 1.087602 -1.253386 -0.411444 -1.493020 -0.383971 -1.951864 0.138811 -1.780091 0.506676 0.426028 0.668085 0.455438 0.468104 1.870872 0.624493 -1.925370 -0.401969 0.206081 0.775677 0.857679 -0.286856 0.243375 0.603929 -0.117484 -0.462303 -0.186544 0.098751 0.466274 -0.769628 -0.858807 -0.982606 -0.167898 0.085218 0.141662 -0.051083 0.532759 0.089534 -0.687151 -0.545327 -0.383304 -1.855684 1.000979 0.342585 -0.699138 0.821077 0.246460 -0.004822 0.197389
0.911000 0.596301 -1.175051 -1.010818 0.044413 0.370727 0.237256 0.699576 -0.187205 2.382035 0.249282 -0.152277 -0.484404 -0.803542 0.194266 -0.302399 0.261561 0.826329 0.595335 -0.012573 0.305613 -1.025830 -0.719370 0.419971 -0.002024 -0.542658 -0.372340 -0.413146 -0.546496 -0.165333 -0.048939 0.158829 -0.238407 -0.010624 0.268937 0.267049 -0.415540 0.695201 -0.509514 -0.723212 0.307334 -3.345173 -0.689515 -0.353458 0.256334 -0.216599 0.544230 -0.022416 -0.376229 0.062167
1.108994 -0.179584 1.049399 -1.547511 -1.005111 0.287034 -0.425431 -0.929117 -0.363675 -3.827308 0.494603 -0.347383 0.305293 0.910366 0.330624 1.374826 0.410722 -0.461541 0.476060 -0.134969 0.166929 -1.066839 -0.109520 -0.380072 -0.895994 0.953360 -1.436200 -0.320093 0.854940 0.154416 -0.632812 -0.072724 -0.870581 0.656770 0.179124 0.359672 0.056563 0.384124 0.013882 -0.042179 -0.421640 -0.521665 -0.087926 1.790891 1.209071 0.688978 1.489590 0.331617 0.457170 -0.439405
0.860690 -0.251472 -0.320534 0.255598 0.106148 1.020322 -0.544621 0.070936 0.136555 -1.912630 0.078345 0.846807 -0.056295 -0.165038 -0.097006 0.428538 1.309047 -0.256300 0.376712 -0.264131 0.289539 1.029925 -0.723623 -1.584421 0.590198 -0.229685 -0.294648 -0.430789 0.539295 -1.060515 -0.479070 -0.095817 -0.503619 0.404223 0.093108 -0.244614 -0.247296 0.986547 0.379506 0.147849 0.061035 -1.821458 0.100228 -0.636954 0.332901 0.379177 1.198855 0.069730 -0.130393 0.348781
-0.007169 0.957753 0.337532 -0.341589 -0.339450 -1.188038 -0.354820 0.068938 -0.011059 2.244526 0.481072 -0.357643 -2.661937 -0.848124 -0.356010 0.010201 0.526784 -0.300669 -0.308013 -0.102966 0.431424 -0.344864 -0.953419 0.756811 0.881012 -0.554074 0.840819 0.613832 -0.807917 -1.439468 0.509838 -0.157710 0.521947 0.154135 0.058688 -0.956343 0.235165 0.996761 2.115170 -0.147139 -0.444647 -1.181785 -0.248722 0.237490 -0.347670 -0.000371 -0.176843 -0.290329 -0.467689 -0.146657
-0.611046 0.117819 0.334466 -0.400444 -0.062602 -0.596213 0.338338 0.340974 0.434168 -0.859304 0.400930 0.214511 0.556735 0.047138 -0.524149 -0.292800 -0.008949 0.742715 -0.483221 -0.119987 -0.098760 0.072943 -0.271906 0.278680 0.981176 1.396294 -0.401644 0.045669 0.204982 0.356379 -0.180422 -0.413885 -0.378591 -0.418815 -0.089988 0.429552 -0.810040 0.116418 0.292727 -0.278881 -0.274290 -0.134895 -0.617520 5.463385 0.249616 0.683585 0.098282 0.207087 1.075675 0.577695
0.394490 -0.623285 0.640979 -0.761172 0.687122 1.008746 -0.218675 -0.148059 -0.488051 -2.505555 0.305220 0.110844 0.292803 0.251387 0.266185 -0.862676 -0.056401 0.790389 0.746439 -0.234104 0.186432 -0.783005 0.467559 0.384868 -0.145362 -0.525257 -1.150239 -0.773490 1.026824 -0.052084 -0.838427 0.961047 -0.978787 0.197126 0.098952 1.287268 0.376803 1.480275 0.671179 0.804908 0.293733 0.138411 0.605132 0.782058 0.031102 0.111692 0.356006 0.462275 3.067468 -1.211660
0.437759 -0.943639 0.224937 0.385387 0.159252 0.232893 0.332281 0.263306 -0.296807 1.409211 -0.433884 0.251795 -0.636527 0.441703 -0.180159 0.070821 1.179894 -0.993951 0.286951 -0.375175 0.138848 0.925464 0.100651 -1.573575 1.905893 -1.116198 1.085711 -0.831184 0.080217 -1.767682 -0.045094 -0.154792 -1.134686 0.416417 0.274781 -0.126691 0.565868 0.735558 -0.800362 -0.844372 0.051127 -0.301845 0.354347 0.067949 0.222362 -0.422433 0.390341 -1.041216 0.166235 0.302720
1.172250 0.992649 0.735961 -0.022257 -0.058356 0.812433 0.425021 -0.421684 -0.606934 -2.427652 1.079736 1.521516 0.180718 -1.284637 0.575008 5.081643 0.134940 2.275685 -0.228882 -0.201492 0.810466 1.262556 0.361106 -0.177021 -0.148453 0.811174 -1.477690 0.585355 -0.124012 -0.603241 1.235753 1.617278 -0.754184 -0.810659 -0.083777 0.076209 0.377878 1.266386 -0.398620 0.861314 0.393754 0.363499 -0.147487 0.761497 -1.119729 0.529022 -0.029245 2.178949 -0.537163 0.741552
-0.092861 0.857215 0.409918 0.837096 -0.048200 0.380380 0.285681 0.363554 -0.546264 -0.520471 -0.048534 -0.169877 0.203280 0.368517 -0.104882 -0.894025 -0.190640 0.902174 -0.365709 -0.329946 0.063523 -1.098343 0.294180 -0.343588 -0.363440 0.133674 -1.090433 -0.064500 -0.252649 -0.237982 -0.402939 0.660963 -0.898733 0.009653 -0.659453 0.182465 -0.050232 1.136829 3.857447 0.095555 0.239899 0.257791 0.991734 0.497513 -0.064038 -0.126501 0.755771 0.094158 0.607971 -1.158035
-0.452723 -0.096085 1.062461 -0.068290 -0.077225 -0.126166 -0.040206 -0.458301 0.084767 0.245037 0.375928 0.614222 0.649087 -0.103024 -0.158509 0.738116 0.764279 -0.556557 0.878941 -0.509177 0.378241 1.673601 -0.690043 -0.224816 0.445488 -0.973801 0.524079 -0.237870 0.563429 -0.115953 -0.332372 -0.143402 -0.056219 0.759811 0.054300 0.248525 -0.242299 -1.046023 1.085373 0.348262 -0.265986 -0.209145 -0.253612 -0.744200 0.135742 0.182752 -0.916676 0.138940 1.335897 0.531317
0.415202 0.014542 1.482173 -0.644348 0.042766 0.006726 -0.717248 -0.272943 0.507881 0.455833 -0.082309 0.603450 -0.003087 -0.321424 -0.396948 2.597319 0.378016 -0.010893 0.913694 -0.778831 0.873272 1.003771 -0.556908 0.238667 0.286617 2.017520 0.366984 -0.149885 0.325115 0.112310 0.055427 0.117128 -0.310218 0.381939 0.129075 0.216339 -0.466306 -0.890696 0.218835 -0.164660 -0.536830 0.028495 -0.068747 0.565548 -0.165618 1.029283 -0.643023 0.118784 0.446160 2.408804
0.537600 0.215778 0.030817 -0.176501 -0.483263 0.312933 0.363720 0.120948 -0.058096 -0.368662 0.049037 0.653548 -0.957817 0.486203 -0.281851 0.339958 0.039358 0.273743 -0.722834 -0.188894 0.123291 -0.620062 -0.173357 -0.043712 0.014954 -0.182300 -1.270739 0.432224 0.609911 -0.175068 -0.098732 -0.138883 -0.207748 -0.427713 -0.091449 -0.110082 -0.003014 -1.435125 4.344255 0.380323 0.255733 0.094721 -0.314534 0.437172 -0.244062 -0.227491 0.454346 -0.279252 0.763265 -0.379506
4.852108 0.093712 -0.084531 -1.056589 -1.167677 2.475403 -0.463543 0.163949 0.198706 2.608649 0.425554 1.301920 0.275303 0.342175 -0.395983 1.400403 -0.182385 3.131307 -2.698323 -0.579372 0.367876 1.137749 -0.604808 0.503495 2.065507 -0.413603 -6.487018 -0.246066 1.937757 0.811866 0.064404 -0.174473 -0.048285 -0.129658 1.021822 0.437404 -0.595906 -0.539191 4.527300 2.166804 0.044149 -0.308005 0.777375 -0.094713 -0.788528 -0.049859 0.918410 -1.663969 1.727450 3.092134
0.036367 -0.284411 0.905007 0.543289 0.166789 -0.166065 0.513464 -0.317833 -0.394615 0.360728 1.064307 0.442583 0.142384 -0.980185 1.020527 2.284546 -0.340429 0.405996 0.939131 0.159059 0.788422 1.004403 -0.447748 -0.841440 -0.092258 -1.213826 0.382498 -0.769484 -0.508038 0.152849 0.120176 0.154623 -0.613100 -1.139297 0.588405 -0.671084 -0.476217 -1.109409 -0.682187 -0.409787 -0.151616 -1.510499 -3.503267 -0.261663 0.141482 0.839536 -0.047025 0.865863 0.228580 -1.021222
0.823887 0.443780 0.724855 -0.757974 0.797330 -0.104579 -0.612105 0.021733 0.419743 -0.981809 0.657068 1.063094 0.310189 -0.643965 -0.318050 2.687920 0.744693 -0.768838 1.358706 -0.275933 0.433244 1.020087 -0.358499 0.149778 0.021164 2.046205 1.477715 -0.171785 -0.258283 0.137428 -0.677646 -0.395226 -1.134764 -0.095663 0.076292 0.096836 -0.939868 -1.237233 -0.608805 -1.054326 -0.617105 -0.990011 -1.183998 3.092707 0.564714 0.600588 0.588929 0.643198 0.094698 0.481119
1.813938 -0.361473 -0.025485 0.257776 -0.531626 0.091849 -0.254316 0.354587 -0.093056 2.284936 0.294445 -0.423926 0.134363 0.871817 0.452895 1.037338 1.281457 -0.536264 0.009563 0.471259 0.205283 -0.851865 -0.273404 -0.238151 0.141454 -0.966836 -1.105749 -0.708496 0.506802 -0.240164 -1.071985 -0.153102 -0.109429 0.320940 0.286776 0.200117 0.346686 -0.688758 -0.760426 -0.356542 0.272431 -1.503224 -2.323200 1.858498 0.229271 -0.402182 1.185098 -1.385578 -0.636215 0.661034
-0.921967 0.346302 0.873742 0.160846 1.259158 1.298305 0.173034 -0.116838 -0.037048 -8.278549 -0.133673 -0.043784 -1.849308 -0.729636 0.110139 0.045786 -0.023835 1.419923 0.445211 -0.414896 0.772136 -0.855422 -0.797650 0.563170 0.068610 -1.044423 3.704779 0.870362 -1.353963 -1.476523 0.012215 0.271362 5.341730 0.221481 -0.516751 -1.405385 0.077951 -0.380289 -0.792077 0.915185 0.362429 -0.957281 -1.768122 3.372084 1.248060 0.729899 0.730233 2.678129 0.423992 0.266008
1.042569 0.305807 1.054521 0.337062 0.749244 0.611784 0.367943 0.041001 -0.004669 -0.873830 0.263261 -0.133420 -0.578840 1.708165 0.261174 1.955858 0.862592 -0.082828 0.550177 0.026156 0.368866 -2.170833 0.182703 -0.028095 0.703636 -0.612217 1.187106 0.389333 0.009121 -0.609406 -1.043304 0.120567 -1.257605 0.344839 -0.901372 0.443338 0.526316 0.393027 -1.018192 0.551785 -0.125695 0.000128 -2.901409 0.923468 0.885684 -0.634449 0.853523 0.069999 -0.228187 0.609588
0.830875 0.357543 -0.575659 -2.100448 -0.562384 -2.482068 0.067040 -0.199168 0.167260 3.246567 0.181406 -0.339923 0.151139 -0.556030 0.112087 -0.444536 0.212201 -0.803448 0.038439 0.027265 0.431708 0.000215 -0.599967 -0.533013 0.151724 -0.893180 -0.422199 -1.128262 0.410047 -0.424594 -0.019785 -0.897940 0.220694 0.198897 1.348877 -0.540317 -0.516429 -0.036826 -0.380256 -0.723385 -0.040740 -1.482274 0.102981 -0.228254 -0.052939 0.771959 -0.096867 -1.003060 -0.104353 -0.366757
-0.259353 -0.249352 0.027721 0.331186 -0.219687 0.141359 0.607823 0.670892 0.610428 -0.529289 0.119586 -0.028326 0.192951 -0.579319 -0.830292 0.172147 -0.154098 0.165484 -0.001552 -0.179891 0.027644 1.160136 -1.108648 -0.366866 -0.940436 0.800694 -0.611950 -1.545481 -0.411913 0.311837 0.016061 -0.286915 1.917999 -0.072941 -0.045111 -0.355906 -1.338007 -0.100035 -0.551477 -0.163107 -0.250869 -0.202496 0.238301 8.133039 0.127444 -0.160119 -0.193374 0.278261 0.258096 -0.009380
-0.129487 0.086410 -0.237597 -0.226521 -1.177870 0.417609 -0.408669 -0.248286 -0.032451 0.133945 0.131769 -0.343291 -0.373511 -0.033462 -1.431047 -0.286022 1.037946 0.049571 -0.033455 -0.397221 -0.020959 -1.123879 1.569622 -0.195095 -1.325454 0.109676 -1.112741 0.528063 0.101607 0.615946 -0.036335 -0.511276 1.989698 0.542998 -0.617207 0.914478 -0.634663 1.400156 -0.787607 -0.165950 -0.346331 -2.794673 -0.986135 -1.223076 0.573552 -0.244753 1.169915 0.691195 0.255311 -0.824392
-1.094957 -0.020163 -1.224125 0.201503 -1.050415 0.879639 -0.072504 -1.058508 -0.818954 0.563657 0.793142 -0.140141 0.073050 -1.424364 0.615656 0.053344 0.700380 0.891112 0.628432 -0.105344 0.393534 0.505478 0.058942 0.531691 2.032244 0.255301 0.033690 0.764732 -1.256957 -0.705457 0.561874 0.457469 0.531011 -0.166948 0.832028 0.167938 -0.509720 1.278120 -0.068745 -0.899467 0.185610 -2.799651 -1.928231 -0.581660 0.198549 0.293281 0.662454 2.450524 -0.335937 -1.163514
-0.899164 -0.263147 1.109698 1.319682 -0.717244 1.008929 0.178989 0.120742 -0.451515 0.817999 -0.230309 1.118093 0.014695 -1.151695 -0.172550 1.096238 1.065793 -0.337101 0.409258 -0.207525 -0.272203 0.151151 -0.223910 -2.715857 -0.038766 -0.705885 -0.437237 -0.559876 -0.438774 -0.811843 -0.491130 0.651399 -0.891642 0.249821 0.198383 0.087279 -0.026558 1.506938 -0.166461 -0.609142 0.459499 -1.043719 0.368913 0.299885 0.438523 0.811865 1.522660 0.583866 0.328445 -0.230897
0.695580 -0.001773 -0.805561 0.354150 -0.025638 -0.142552 0.229824 -0.392112 0.302087 -0.150473 0.292162 0.220038 -1.515385 -0.023248 0.036541 0.356013 0.650205 0.491120 0.203254 -0.318954 0.359314 -0.900890 0.375511 -0.011981 0.609275 -0.375897 -0.626336 1.261732 0.650698 0.793886 -0.266035 -0.191901 0.446163 0.167232 -0.375639 1.203033 -0.537452 1.691122 -0.676487 0.220230 -0.083272 -0.842465 -0.340659 -0.516529 0.532973 -0.016069 -0.545989 -0.346960 0.595628 -0.540866
-0.957554 -0.649833 0.732833 0.802642 -0.189597 0.448439 0.531743 -0.013341 -0.070699 0.672304 0.140779 0.313787 0.078462 -0.863555 -0.052592 0.873705 0.135115 -0.071552 0.379216 0.173834 -0.591447 0.954133 0.164921 -2.999691 1.232007 -0.755176 0.082716 -0.981627 0.325772 -0.817846 -0.353742 0.054555 -0.421649 0.324901 -0.025490 0.088823 -0.405947 1.207875 -0.877580 0.010571 0.112817 -1.462193 0.754713 0.559372 0.153463 0.219408 -0.038384 0.069269 -0.023488 -0.115046
-3.879520 2.217303 1.245404 2.157954 1.876865 0.336524 0.259265 -0.219146 -0.755166 7.836663 0.363243 -0.490458 0.605781 0.686190 0.651292 0.862568 0.006495 0.859168 0.580027 0.072795 -0.077588 -0.588708 0.249261 -0.526628 -1.202335 -0.794505 -3.188325 -1.007177 1.273541 -0.467363 -0.392861 3.611818 -0.467890 0.302497 -3.080173 0.560448 0.455624 0.941008 -0.422579 -0.258825 0.299990 -0.319706 0.012462 3.145166 0.833801 4.626127 2.020651 1.016057 -1.185781 -0.229293
-0.095645 0.901885 0.832687 -0.722539 0.500486 -1.208091 -0.110635 -0.116634 0.464748 3.854824 0.307124 -0.109218 -0.012903 -0.493728 0.199601 1.932595 0.505769 -0.620802 0.453919 -0.096139 0.106321 -1.029618 -0.065263 -0.022329 0.978989 0.394756 -0.656105 -0.551460 0.585727 -0.026029 0.285757 0.511595 -0.741976 0.413278 0.679138 0.293328 -0.145452 1.133766 -0.908516 0.312895 0.251072 0.154463 0.110363 3.954526 0.489822 1.471163 -0.226309 0.602716 -0.227735 2.775571
-1.552635 1.459764 1.649388 -0.061543 2.964788 -1.423656 0.488854 -0.185436 -0.604452 7.585015 -0.038399 0.881390 -0.394741 -2.999099 0.128246 0.116253 0.211750 -0.304244 -0.850944 -0.281986 -0.437458 -0.601373 -0.035088 -1.415580 2.408454 -1.093771 -1.993773 -0.744704 0.120211 -0.620268 0.859683 -0.033552 -0.714341 0.707891 4.054296 0.254642 -0.084181 1.848759 -0.593355 0.743563 -0.137514 -0.614431 -0.205883 0.435094 0.512723 0.266412 0.004151 0.898502 0.323426 2.348199
0.475667 0.410041 -1.146706 1.849558 -0.466226 0.015236 -0.286032 -0.422377 2.159846 -5.500755 0.739281 -0.438952 0.687451 0.508774 0.478324 0.099997 0.942661 1.718935 1.129085 -0.370863 0.845847 0.931218 -0.503326 0.484104 0.311250 0.590194 0.752586 -0.383954 0.530082 0.886055 -1.924174 0.482497 -0.531028 -0.394709 -3.767333 -0.094481 -0.152776 1.285954 -0.438730 -1.335487 -0.119071 -2.583969 2.804523 -0.193278 0.010698 1.775416 -0.151826 0.942800 -0.271894 -0.034383
0.213766 0.059435 -1.500823 0.414322 -0.348453 -0.130214 0.053832 -0.024007 0.346485 1.846964 0.141201 0.917348 0.518374 -0.280432 0.672153 0.007889 0.526480 -0.540618 -0.090239 -0.097096 0.148902 0.246178 -0.458921 0.112959 -0.729293 -0.414260 0.115168 0.041473 -0.297671 0.096716 0.987301 -0.415036 0.162790 0.273277 0.884514 0.220356 -0.480802 1.369880 -0.899249 -1.234218 0.024406 -2.736258 -1.302029 -0.264465 0.158842 -0.021735 1.217229 0.052309 -0.280677 -1.260300
2.547028 0.331377 0.798598 0.765756 0.231107 1.407427 0.138731 0.852337 -0.428155 -3.599812 0.327131 -0.082675 -2.987656 0.692577 -0.000089 0.056432 0.332409 1.357474 1.002180 -0.598066 0.453549 -1.352751 1.078382 0.373052 0.033461 0.038091 -0.785551 0.491503 -0.524085 -0.981502 -1.423532 1.121959 4.207210 0.162900 -3.723578 0.257500 0.316424 1.253438 -0.774457 -0.135667 -0.171885 -2.623555 0.783269 -0.804242 -0.499161 -0.503957 0.887359 1.898416 0.411652 -1.602902
2.941919 0.577421 -0.064636 0.610186 1.828654 1.025084 0.341167 0.467069 -0.637678 -3.012389 0.135958 -0.128345 -0.809720 1.141654 0.437641 0.217475 -0.430587 1.958364 0.639954 -0.459307 0.379664 0.213584 0.318770 0.717027 3.236550 0.236193 -1.145967 0.067684 -0.926156 -1.101729 -1.305873 1.702415 1.777448 -0.211872 -3.585140 -0.415934 0.715800 1.357762 0.174196 -0.293392 0.409958 0.378062 0.388552 0.054141 -1.137174 -0.537135 -0.098325 1.452095 0.148749 -2.355013
-0.811216 -0.367548 -1.374370 0.084247 -2.437315 -0.399447 0.401076 -0.743956 -0.623787 1.146585 0.407075 0.366196 -0.507780 -0.401077 1.101426 0.611306 0.452746 -1.128648 -0.010278 0.182152 -0.289882 2.058401 0.059067 -0.181273 -0.078037 -0.214525 0.904089 0.449604 1.563453 -0.430072 1.078274 -0.380979 0.854748 0.365410 0.493599 -0.557986 0.299734 1.543744 1.836465 -0.136281 0.269775 -1.878399 -0.291409 0.818529 0.575368 1.744238 0.004974 -1.277193 -0.813299 0.957686
-1.092822 0.212539 0.350950 1.366327 -0.541297 -0.700272 -0.281996 -1.422077 -0.332649 0.369859 0.063055 0.114134 -1.334650 -0.630749 -0.309333 0.292289 -1.186407 -0.201411 -0.059465 -0.155325 -0.171410 -0.006089 -0.284201 0.235286 -0.068462 -0.240634 2.255935 2.013741 0.191293 -0.013670 -0.600252 -0.160125 0.169777 -0.231531 1.253880 -0.426350 -0.711105 1.327922 5.157999 -0.421299 0.044811 -1.220593 0.190565 1.363917 0.292379 -0.074706 0.515389 -0.370040 0.258607 -1.878211
0.275202 -0.131929 0.387418 0.083742 0.344390 0.172173 0.101871 0.151729 0.260861 0.077011 -0.100897 0.455943 -0.071722 0.220666 -0.284791 -0.233336 0.361339 0.210591 -0.332315 -0.266611 0.250555 -0.994972 0.684085 0.326332 0.293548 0.111966 -1.908329 0.214351 0.073436 3.527840 0.558321 -0.096147 -0.048326 0.169076 -0.656535 -1.805658 0.201381 0.694725 0.308299 -0.194649 0.100879 -1.854045 1.152922 -0.295371 -0.432930 -0.450177 -0.212880 -0.362897 0.005866 0.498938
-0.554666 -0.026390 0.325550 0.313577 -0.344131 0.106508 0.385347 -0.379107 0.265286 -0.049590 0.142953 0.111629 -0.020986 0.114986 -0.013265 0.238614 0.130352 -0.347716 0.079584 -0.157629 -0.258943 -0.793860 -0.103460 -0.210678 -1.519085 0.855759 2.015945 0.346765 -0.084010 0.298763 -0.078983 0.080922 0.662724 0.049682 -0.141528 -0.012988 -0.310470 -0.218005 -0.283492 -1.009342 0.023425 -0.643103 1.499468 5.815425 0.612534 -0.009590 1.010589 -0.044235 -0.127576 0.383535
0.334453 -0.810128 -0.279792 0.146948 -0.089621 0.366875 -0.469352 -0.451923 -0.362157 0.932106 0.221038 0.584926 -0.187372 0.411189 0.253581 0.361434 0.560049 -0.070296 0.071631 0.243195 0.282464 -1.262039 0.082154 -0.493622 3.088143 -0.540710 -0.718516 -0.173232 0.934046 -0.608657 -0.507429 0.040871 -0.483347 0.012536 -0.867609 -0.215512 0.015953 0.545616 1.050348 0.596226 -0.024023 -1.094812 1.140357 0.020249 -0.101044 0.194623 -0.197024 -1.792626 -0.132446 0.200814
-0.022032 -0.102123 0.224461 1.032876 -0.166937 0.051137 -0.209255 -0.721462 0.256279 0.143739 0.561393 0.569882 -3.878112 -0.023163 0.506823 0.052736 0.169457 0.346392 0.490410 -0.046484 0.197662 -0.886573 -0.067225 0.458541 0.432741 -0.006648 0.555162 -0.361719 0.455653 2.165776 -0.229485 0.120148 -0.437857 0.103156 -0.191598 0.611266 -0.713894 0.790403 -0.385704 -0.261629 -0.299905 -0.415960 1.317149 -0.126522 0.370161 0.245785 0.165872 0.136418 -0.304245 -0.427063
1.227166 1.934224 -0.595840 -1.027342 -1.781829 -0.062179 0.612234 -0.920933 -0.772588 0.571952 -0.322187 -0.628783 -0.535611 0.936283 0.282821 0.281545 1.162382 -0.588756 -0.721673 -0.223411 -0.070832 0.125008 -0.127514 -1.419589 -0.440793 -0.956986 1.708112 0.192810 -1.320808 -0.638788 0.942887 1.386360 0.204293 -0.305485 -2.562720 -0.392539 0.071667 0.385140 1.109340 -1.202428 0.577700 -2.131788 2.653863 0.535797 0.603553 -0.030488 1.789227 -0.017022 -0.251040 1.959625
0.217103 0.509082 -0.924143 0.357342 0.470461 0.153362 -0.272000 -0.370664 -0.342694 -0.325641 0.616256 0.159726 -2.449774 0.236483 0.081034 -0.072796 0.881697 0.297425 -0.274908 0.156395 0.241277 -0.621018 -0.375332 -0.441975 0.744055 0.049308 1.900324 -0.213743 0.234894 -0.831588 0.177701 0.237474 -0.296628 -0.355547 -0.381144 -0.221156 -0.362971 0.879137 0.504804 -0.064153 0.333083 -0.971710 2.218574 -0.505653 0.343412 0.274832 0.663986 0.823378 -0.570389 0.206742
1.218050 0.222680 -0.418742 -0.211901 1.235500 0.416344 0.214250 -0.692390 0.110244 0.265847 -0.239176 -0.824886 -0.462077 0.523283 -0.096643 0.413739 -0.320620 0.137335 0.212418 -0.195659 -0.019699 -1.058487 -0.013998 -0.425675 0.697751 -1.346114 1.831470 0.970203 -0.149213 -0.146184 -0.138273 0.813267 0.211555 -0.320522 -0.465643 0.008664 -0.779683 0.255434 3.707624 0.949231 0.798194 -1.078043 0.644670 1.531307 0.043183 0.257361 0.273054 0.169099 0.967714 -0.175526
1.619188 0.863439 0.474391 -1.385907 2.552001 0.298461 -0.208794 -0.588003 -0.267815 0.455450 -0.332657 0.281212 0.490208 0.724260 0.152989 0.021144 0.337880 0.051228 0.091466 -0.561441 -0.112762 0.864506 0.083954 -2.026248 0.179714 -1.025273 1.623335 -0.268201 0.140596 -0.763119 0.163948 1.084991 -0.583378 0.540511 -1.871484 0.289818 -0.123928 0.215148 0.882167 0.453714 0.158735 -1.181426 3.078965 -0.461437 0.424017 1.268032 0.550772 0.624698 0.715855 0.689616
0.737954 0.660013 -0.964868 1.535784 0.603245 -0.385080 0.000359 -0.555651 -0.366706 0.091351 -0.074961 -0.045128 0.165335 0.131149 -1.100213 -0.539489 0.742059 0.221421 -0.420645 -0.650105 0.190270 -1.569735 0.810864 -0.300930 -0.550879 -0.127257 0.396263 0.319030 0.127585 -0.459914 0.891780 0.104835 1.927907 0.053746 -1.029977 1.119603 -0.652525 1.231320 -0.702109 0.093322 0.071089 -2.689425 -0.619754 -1.042916 0.373094 1.331295 0.202766 0.982368 0.726724 0.146100
4.293110 1.563534 -0.502647 -1.349150 5.849449 -0.712003 0.163685 -1.216678 -1.054502 0.940331 0.256863 0.573956 0.148567 1.858188 0.957237 0.168163 -0.468431 -0.255015 -0.080113 0.066034 0.199196 0.790712 0.058527 0.330330 3.269569 -0.533990 2.698241 -0.119659 0.034746 -0.385463 0.667433 1.047076 -0.200159 -0.025313 -0.483020 0.086033 0.514229 0.719808 -0.972572 1.037184 0.085408 -0.225762 1.056001 1.711161 0.085349 -0.121853 -0.114013 1.164385 -0.360526 0.227955
-3.612214 -1.901795 0.697227 -0.379501 -5.275547 0.045737 -0.093626 -0.464170 -0.467764 1.015163 0.994238 -0.286375 -3.883702 -1.436862 0.426137 0.145847 -0.226854 0.345178 1.735450 0.380420 0.424127 1.558248 0.294271 0.487732 0.449022 0.280339 -0.080757 0.463467 0.836784 0.137417 -2.732713 -0.745770 1.699612 -0.026372 0.189841 -0.460507 0.131914 -0.263896 1.950415 -0.898594 -0.400749 -0.434437 0.137182 -0.906623 -0.956844 -0.486421 0.501997 -2.129510 -1.038113 0.119743
-0.259243 -0.885391 -0.189512 0.833766 -0.282771 0.220477 -0.047782 0.075025 -0.452923 -1.203653 0.250693 -0.136382 -0.135630 -0.540221 0.169507 3.568997 -0.850340 -1.082232 0.024417 0.295749 -3.641795 0.062718 -0.249022 -0.567836 -0.390145 -1.528194 -0.074526 0.016175 0.250637 -0.229370 1.404072 0.726132 -0.310505 1.223450 0.010285 -0.274624 -0.406223 1.540686 -0.058491 0.506999 -0.251201 0.549085 0.282603 0.532927 -0.018774 0.627428 -0.762567 -0.713936 1.174929 -0.644628
2.063348 1.178514 0.202977 0.363805 1.267217 -0.164037 -0.345123 0.106110 -0.943131 -0.580202 0.461632 0.292671 0.280368 0.399746 1.002535 1.639650 0.423650 -0.994842 -0.838856 0.285272 0.155572 -1.343758 0.357208 -0.792896 0.210483 -0.320440 -0.217105 0.470053 -0.018301 -0.212583 0.346922 -0.070650 -0.737754 0.030185 0.808470 0.210138 0.706730 1.405904 -0.874968 0.403596 0.222927 -1.121124 0.230548 1.228531 1.104251 -1.252575 -0.051406 -1.260657 -0.719754 0.811908
0.305560 -0.027562 0.933610 -1.203962 0.108886 -0.500979 0.037435 -0.052621 -0.319027 0.097268 -0.004495 -0.078060 0.801681 -0.529783 -0.122164 1.543605 0.286502 -0.171419 0.227366 -0.597526 -0.038118 -0.449095 -0.405163 -0.982393 0.327950 -1.453912 0.393395 -0.689617 -0.058589 0.534027 -0.216655 -0.086923 -0.399415 0.379049 0.707567 0.576445 -0.820625 1.256529 1.359704 -0.277132 0.018137 -0.704060 1.070614 0.298883 0.495236 -0.388748 -0.357260 -0.464415 3.315214 1.964452
1.010131 0.580353 0.509093 -0.010155 -0.453625 -1.045457 0.054531 0.002463 -0.150724 0.179805 0.422995 -0.243858 0.896782 -0.450840 0.915871 1.011270 0.626034 -0.440598 0.773058 -0.226210 -0.066452 -1.218179 0.134494 0.026586 -1.002717 0.239977 2.919868 -0.203627 -0.636377 0.305362 -0.250251 -0.167499 0.544385 0.325672 1.171098 0.117824 0.144951 0.577245 -0.486889 -1.957662 -0.057957 -0.771665 -0.267321 1.778808 0.597321 -1.483615 0.073520 -0.941243 -0.718609 0.446845
-0.659089 -0.602789 -0.853073 1.220195 -0.747623 0.163854 0.852103 0.364037 1.258805 -0.964934 0.199897 0.312748 -0.391227 -1.491830 -0.046682 -0.211537 -0.202114 -0.746399 -0.001742 0.175533 0.378989 -0.110509 0.280427 -1.168839 0.460119 0.066698 0.605488 -0.694226 0.273442 -1.357030 -0.112387 -0.409871 -1.001186 0.421429 0.002321 0.143170 -0.120957 1.968557 -0.684772 0.307666 0.215856 -3.358859 0.787841 0.153584 0.290056 0.601769 0.227604 -0.375424 -0.377634 -0.401208
-0.083677 0.236831 -1.662229 -0.145636 1.549230 0.350933 0.577147 -0.730644 -0.748375 1.139071 0.612839 0.602951 -0.787774 -0.670935 -0.101464 0.228840 -0.270543 0.620846 0.163913 -0.087821 0.002830 -0.011048 -0.051033 -0.156543 -0.103928 0.797850 -4.522531 1.010889 1.250601 -0.277459 -0.874642 -0.735346 -0.047395 0.256191 1.576905 0.976452 0.243409 2.007711 -0.083753 1.260233 -0.051134 -3.060549 -0.141488 -0.334770 0.612106 1.861723 0.533782 1.250539 0.064541 1.379369
0.241373 -0.354009 -1.105188 0.672317 0.715125 0.586337 -0.451907 -0.810816 -0.546340 1.121321 -0.121430 0.657467 0.748060 -0.409977 0.227459 -0.420575 0.191649 -0.159159 0.032750 -0.162575 0.445299 0.294581 0.618081 0.071923 0.762194 0.038498 -3.478237 -0.055247 0.899038 1.112716 0.440544 -0.248286 1.149499 0.145045 0.896146 1.889211 -0.024492 1.427214 -0.274543 0.732317 0.137450 -2.379919 -1.061873 -0.140304 -0.061127 1.630614 0.495988 0.793483 0.056624 -0.183359
-0.886408 -1.203523 0.921111 0.738047 0.686464 0.114739 0.498793 -0.785588 -0.542322 1.930836 0.455984 1.264469 -0.064359 -0.907416 0.841368 0.866671 -1.961430 -0.579937 0.770901 0.642221 0.668146 0.540812 -0.121368 -2.420384 0.122476 -0.488515 -4.170647 -1.038931 1.634346 -0.071963 -0.323789 -0.319166 -0.478453 -0.407340 0.160299 -0.337804 -0.289104 1.033425 -0.530262 1.278089 -0.234294 -1.865104 0.428793 0.194688 -0.147382 2.504010 0.068148 0.704741 -0.154791 0.468034
0.331321 -0.384668 0.566826 1.086836 0.555185 0.543069 0.470829 -0.075196 -1.127966 1.712211 -0.035140 0.586333 0.605659 -0.877963 0.700904 0.236167 0.403404 -0.909955 0.527202 -0.048790 0.383544 -0.995278 -0.098695 -1.636934 -0.078363 -0.684440 -2.122929 -0.632323 -0.022565 -0.088243 -0.232316 -0.049693 -0.356737 0.243417 1.820047 0.393192 0.326056 0.816775 0.107588 -0.232686 0.015627 -0.815287 0.323698 -0.011254 0.226836 0.563988 0.844365 0.559236 0.094742 0.223605
-0.238281 -0.479933 0.934132 0.849409 0.806490 0.261108 0.409652 0.115125 -0.475519 0.843382 0.425963 -1.057963 -1.968982 -0.988939 1.316121 0.420371 -0.776220 0.092164 0.838765 0.143338 0.098805 0.094353 6.113416 -0.281364 0.259866 0.800805 -2.355780 0.430591 0.065079 0.599943 0.246335 -0.615921 1.244992 0.089084 3.127600 1.129267 0.408330 -0.076267 -0.038122 -0.440795 -0.560405 0.422879 0.355216 -0.520907 0.255104 0.713002 0.708550 1.932239 -0.851640 0.022870
2.104560 0.243691 -0.553279 0.348139 0.597354 -0.988768 -0.105146 -0.168222 -0.648703 -0.637323 -0.229795 0.618889 1.221537 0.264797 0.368590 -0.769723 0.198977 -0.112141 0.251009 -0.451266 0.054047 -0.541522 -0.062349 -0.384695 0.392554 -0.437822 4.720071 -0.578320 0.114121 -0.424026 -1.285094 -0.002682 3.797753 0.448550 -4.953064 -0.194838 -0.055805 0.667066 -0.633647 -0.078465 -0.289616 -2.031573 1.121506 -0.266786 -0.434097 0.315935 -0.580619 -0.732928 0.047472 0.302850
-1.042678 0.038528 1.053009 1.918923 -2.181581 0.552876 0.389874 -0.516977 -0.056206 0.366127 -0.022038 -0.787482 -4.914230 -1.033527 0.850534 0.497862 -0.730782 0.097463 0.339583 -0.362154 0.400184 -1.021934 0.485962 0.046720 0.210886 0.003925 -2.615228 1.017699 -0.583064 -0.500761 1.409414 0.341534 3.681271 0.388946 3.824994 -0.878378 0.438146 0.290904 0.983033 -0.100954 -0.415033 -0.253288 -0.759620 0.601372 0.269307 -0.827112 0.140524 1.349130 0.207741 -0.254590
1.368200 0.241264 -0.145612 0.973664 0.101999 0.395241 0.030399 -0.153265 -1.338807 0.157074 0.340208 0.283514 1.014165 0.384877 1.022018 0.453745 0.081540 -0.004035 0.207138 -0.210732 0.326273 -0.572441 0.072209 0.135639 0.084249 -0.418898 1.769926 0.139157 -0.088897 -0.005133 -0.294963 0.334859 -0.225854 0.307317 -1.982086 -0.123299 0.053531 0.713223 -0.057464 -0.758055 0.004995 -0.585605 -0.195280 0.254412 0.105635 0.225220 -0.155265 -0.204836 -0.494592 0.085952
-0.274132 0.625399 -0.728729 -0.164731 0.403616 -0.791082 0.386424 0.591023 0.100494 -1.227341 -1.507778 -0.263499 0.086519 0.435483 0.320463 3.383328 -0.248258 0.655936 -0.324392 0.664202 -2.941938 1.481683 -0.086195 0.934205 -0.749187 -0.691147 -0.887186 0.353932 -0.250401 -0.066933 -0.516064 -0.001155 -0.329383 1.389322 1.750980 -0.740921 -0.508840 -0.649215 -0.095313 -0.958146 0.158517 0.673256 -0.506040 0.111695 0.188199 -1.043230 0.620935 0.280116 0.645893 0.388779
0.029731 -0.426471 0.134800 -0.951806 0.253882 -0.442638 0.783060 -0.464426 0.238363 -0.963217 -0.528081 -0.254267 0.648827 0.110615 -0.028930 5.018833 0.712891 0.754523 -0.373580 -0.939847 -0.468199 0.003709 -0.492972 0.132364 1.349312 -0.270478 -2.408542 -0.235955 0.092568 -0.244909 -0.219882 -0.153048 0.260302 -0.644281 1.356872 -0.286121 -0.530981 -0.844062 -0.074545 0.077517 0.472859 1.039832 0.600349 -0.404430 -0.260187 0.064754 -0.827406 0.207244 0.771096 1.346636
-2.172929 0.080757 -0.558310 -2.147315 -1.861482 -1.033707 -4.681398 -0.014016 -0.050433 0.290854 0.360819 0.420374 0.052649 -0.093408 -0.217421 -2.215023 -0.198959 -0.639121 0.038676 0.579500 0.643092 -0.875680 -0.396517 -0.725070 -0.188581 0.974482 4.329422 0.037974 0.749870 -0.102802 1.754305 0.010064 -0.237211 -1.594023 0.014825 -0.920791 -0.901479 -0.384611 -0.102078 -1.364975 -0.210600 -0.267761 -0.020627 0.842927 0.447120 -0.720218 -0.556751 0.342609 5.248942 0.907725
0.407182 -2.203795 1.282171 0.407920 0.954846 1.582354 0.008144 0.330990 0.215717 0.694740 0.673697 0.113303 -0.106678 0.911248 -0.148188 2.362841 -0.032337 -0.349841 1.237329 0.176206 -2.010711 -1.819425 -0.769006 -0.184623 0.293075 -0.612705 -5.224300 -1.475593 0.677995 0.495616 -0.335071 -0.501047 0.518384 0.755155 -1.217112 0.057217 -0.473344 -1.338230 0.001574 0.746030 -0.500378 0.157327 0.000658 -0.107035 -0.877614 0.017699 -1.036863 1.182756 0.610265 -0.469812
0.684906 -0.037745 0.911817 -0.660173 -0.602394 0.116191 0.018896 -0.716484 0.591370 0.689854 -0.014128 0.353885 -0.251744 0.533292 -0.031758 3.713336 0.317103 -0.413254 0.917237 -0.462397 0.875289 -0.912567 -0.177412 0.410286 1.878700 1.476166 -1.510198 0.254197 0.797345 -0.390544 -0.128617 -0.096214 0.034167 0.566920 -0.289343 -0.471253 -0.316599 -1.024855 -0.187009 1.017482 0.107560 0.739279 -0.106409 -0.229436 0.062174 -0.093791 -1.403602 0.264393 0.198816 0.312576
-1.043253 1.067671 -1.105653 -3.415799 -2.966975 -1.588980 0.156902 -0.627734 0.043796 -1.017737 -0.505739 0.657538 -0.319499 -0.560047 0.097082 0.792794 0.291912 -0.042760 -0.253617 -0.561478 0.312463 -0.737872 -0.214887 -1.678528 0.390083 3.351400 6.137749 0.207793 0.991368 -0.758589 2.051939 0.597488 -1.014255 -0.623757 1.787890 -0.995384 -0.829584 -0.458814 -1.324250 -0.697813 0.312729 0.339054 0.316912 0.424696 1.241244 -0.465264 -1.291781 0.104624 4.421443 2.926753
0.602562 0.122540 1.527024 -0.292629 -0.625208 0.353663 0.021970 0.235833 -0.272875 -0.660744 -0.136843 -1.032326 0.294189 -0.816474 0.017568 -0.079658 0.615716 -0.231130 -0.086749 -0.599038 0.558525 0.285232 -0.217237 -0.530151 0.579645 -0.655436 -0.225226 -0.498841 -0.602568 -0.200610 0.172492 0.624995 -0.415887 0.543298 0.179250 -0.003943 0.072208 -0.919130 0.568087 -0.006678 -0.244856 -0.065282 -0.721012 -0.591800 0.438289 0.617795 0.335194 -0.033314 0.362991 0.073721
1.127017 0.112914 -0.314123 -1.283434 -0.555315 0.518614 -0.087489 -0.339128 -0.464060 -0.100605 0.222261 0.157341 0.900969 0.241311 0.781020 0.371886 0.774489 -0.153133 0.009254 -0.211318 0.206334 0.613633 -0.037000 0.194235 -0.189012 -0.101060 0.199074 0.235958 0.161114 0.082238 0.245079 0.466634 0.598084 0.175223 0.446425 0.039016 0.306680 -1.525220 0.486470 -0.717027 -0.126005 -0.611337 -0.180647 1.717231 0.189374 0.388558 0.458899 -0.224128 -0.616603 2.294273
0.007903 -0.363364 0.975333 0.643956 0.305213 -0.450067 0.217465 -0.015790 0.077487 0.161131 -0.173638 0.099124 0.026876 0.136634 0.280778 1.235612 -0.129119 0.475991 0.190701 -0.702815 0.250759 -0.628427 -0.205125 0.150600 -0.173727 -0.317046 0.154747 -0.211206 0.102610 0.361177 -0.739289 0.252755 -0.142376 0.721429 0.283637 0.212481 -0.134268 -0.794805 0.335033 -0.271671 0.173643 0.147753 -1.291218 -0.334949 0.265055 0.373683 0.231765 -0.733054 4.058318 -1.661428
-0.750373 -0.242079 1.087034 -0.164715 -0.584267 -0.609477 0.073653 -0.191085 -0.254273 2.886766 0.113340 -0.467545 0.499508 -0.120702 0.583929 0.126735 0.066521 -1.372557 1.184512 -0.023555 0.939732 -0.043494 -0.503175 0.216334 -0.331624 -1.253071 0.609126 -0.468870 -0.870397 -0.255413 1.115704 0.331424 -0.209346 -0.069917 -4.087434 -1.187117 -0.670876 -0.771662 -0.576017 -2.225409 -0.384198 -0.041916 -1.261080 -0.214669 -0.150601 0.627288 -0.773150 0.665855 -0.523744 0.193323
-0.331299 0.094584 1.485506 -0.357562 0.678191 -0.614814 0.592499 0.157189 0.161534 1.365957 -0.503910 0.650844 0.453010 -0.009408 -0.273977 0.022478 0.646042 -0.632181 0.626650 -0.820420 0.587598 -0.896083 -0.213531 -0.840205 0.037981 -1.298236 0.362915 -0.781066 0.278556 -0.097298 0.208595 -0.490250 -0.087060 0.206731 -1.244962 0.540534 -0.031355 -0.152200 2.178686 -0.541908 -0.335950 -0.373829 0.681881 -0.636956 0.240416 0.103222 -0.733243 0.721401 2.338622 0.028688
1.943876 0.390365 -1.476219 -1.938438 -1.116682 1.180382 -0.086637 0.091602 -0.842883 -1.856506 0.882245 0.544501 0.909104 0.063957 1.027922 1.316832 0.671251 1.140861 -0.786837 0.171155 0.332288 0.627270 -0.565111 0.104139 -0.341960 0.024860 -0.689312 0.178593 0.250659 0.147383 -0.857905 0.272768 0.814704 -0.139850 3.168142 -0.241304 -0.212846 -0.473315 0.346438 0.063220 0.440515 -1.523927 -0.514110 0.264625 -0.068728 -0.201378 1.916205 -1.015536 -0.938070 1.599007
0.559342 -0.552598 -0.470663 -0.898742 -0.316504 0.389428 -0.349436 -0.311315 0.214498 -0.391843 0.026906 0.871318 0.740114 -0.166160 0.409019 -0.053023 0.774098 0.045091 -0.360790 0.244427 0.211268 0.787790 -0.588276 0.384501 -0.315989 -0.681340 -0.775843 0.013588 0.247195 -0.059441 -0.252935 0.115939 4.057454 -0.106069 0.804998 0.278211 0.329705 0.200203 0.822906 -0.180777 0.370753 -0.127879 0.043601 2.143123 -0.552915 -0.006048 0.495164 -0.389335 -0.443700 0.385854
0.966582 -0.072255 1.606027 0.377599 3.706531 0.504182 0.538082 1.201034 -0.310829 -0.025576 0.987229 0.282011 -0.249195 0.285820 -0.143482 3.900193 -0.382521 1.800676 -0.475255 -0.698629 -0.060791 1.314893 -0.334754 -0.217778 0.345494 -0.238502 12.493387 -0.556843 1.633580 0.510890 -1.740874 -1.366591 -0.596986 0.083213 0.164174 0.689584 -0.212960 1.407090 0.762609 0.827843 -0.252371 0.011757 -1.005263 -0.824429 1.087609 2.862996 1.213911 1.101776 0.915985 0.590646
0.318125 0.191625 0.230362 -0.663233 -0.667482 -0.128405 0.401839 0.218381 -0.005319 0.012514 0.317228 -1.148365 0.784523 0.272553 0.396654 1.283066 0.169634 -0.227713 0.191533 -0.336744 0.094946 1.274598 -0.237302 -0.294135 0.421317 -0.755673 -0.987898 0.231162 -0.684237 0.351515 0.194676 0.952162 -0.521500 -0.248524 -0.408011 0.399189 -0.129713 0.858258 0.554943 -1.872387 -0.160655 1.126938 -0.720617 0.266930 0.361132 -0.512494 0.028482 -0.068569 3.786911 -0.298377
0.065599 -0.273329 0.527771 -0.339135 -0.404962 -1.077280 -0.147042 -0.190438 -0.372682 0.900094 -0.224373 -0.172667 0.036120 -0.513000 0.258316 -0.843038 0.942172 -1.452973 1.222582 0.037216 0.768296 0.896911 -0.210578 -0.321118 -0.287878 -0.241775 -2.904199 0.645885 -0.370987 -0.825295 -0.422048 0.500816 -1.266311 0.283085 0.741084 0.145162 0.492060 1.082366 0.243514 -1.396009 -0.260800 0.255769 -1.129479 0.776355 -0.076582 -1.002455 -0.318401 -1.033568 -0.321582 1.044748
-0.492216 -1.122662 -1.162385 0.140154 1.558453 1.382285 -0.073276 -0.623850 0.269337 -0.765407 0.316511 0.984390 1.373042 0.947933 0.821398 -0.231790 -0.589295 1.764970 -0.542675 0.166014 -0.286935 1.430907 0.368142 -0.055664 -0.559983 0.067012 2.501387 -1.022798 1.292173 0.672883 0.125555 -0.441982 1.701560 -0.178830 0.119927 0.310673 0.129847 1.126677 3.756509 1.133141 0.234603 0.823990 0.562215 1.685226 -0.833971 0.283384 -0.385581 0.483298 -0.297201 -2.627301
-0.088131 -0.068235 0.946352 0.228087 0.165043 0.140316 1.128114 -0.225970 -0.132690 -0.226523 -0.605462 -0.908084 -0.327395 -0.291661 -0.136703 1.291486 -0.466400 -0.394228 -0.169277 -1.105683 0.090620 -0.681390 -0.095054 -0.970310 -0.605709 1.749024 -0.054893 0.573190 -0.601861 0.035530 -0.875972 0.895996 -0.405714 0.151680 -1.031294 0.387743 -0.527425 1.460818 -0.047497 -0.777892 -0.248633 0.506104 1.166997 0.357181 0.157037 -0.679971 0.299241 -0.645357 3.341219 0.016711
0.263971 -0.658596 -0.354471 0.177350 -0.013275 -0.585599 0.413373 -0.198287 -0.117719 0.053501 -0.328233 0.103979 0.239807 -0.027869 0.880883 -0.913453 0.300960 -0.190482 0.152738 -0.040884 0.062225 0.289013 -0.301875 -0.044789 0.031770 -0.709682 0.336388 0.510767 0.265145 0.143262 0.185231 -0.077856 4.052874 -0.093149 0.449134 -0.005996 0.601764 0.595111 -0.197600 -0.327343 0.317015 -0.089301 0.935680 3.693711 -0.272496 -0.341998 -0.363271 -0.385070 0.030440 0.579480
-0.767387 0.431608 -1.435504 0.525703 0.650531 0.916405 0.212516 0.458154 -1.130159 -0.971733 1.152985 0.589416 -0.286491 -1.297648 -0.492616 -0.682256 -1.027642 1.620492 -0.559021 -0.365840 -1.262318 1.456547 0.299701 -1.963378 0.436222 7.259789 -0.215893 -1.457272 0.110805 -0.759108 -0.672964 -0.428278 -0.987418 -0.996153 0.152829 -0.650038 -0.742064 0.687637 -1.234693 0.033233 -0.927028 0.308369 0.857473 5.100729 0.404796 0.639675 0.332319 0.624469 1.098568 -0.301316
0.836981 -0.174161 -0.982274 0.913233 0.222990 0.771727 -0.286599 -0.058523 -0.567367 0.962729 0.272533 0.770448 -1.245318 0.097786 0.422154 0.107551 -0.008949 -0.074502 0.261904 0.248006 -0.059487 -0.272614 -0.243216 -0.184080 -1.318788 0.027027 1.014365 0.038637 -0.185836 -0.612071 -0.003095 -0.012028 0.279211 -0.093843 0.402978 -0.493503 0.128820 1.337201 1.647932 -0.435603 0.401822 -0.168558 0.964849 0.510724 -0.010585 0.061405 0.781038 -0.054587 -0.609755 0.007402
1.933728 -0.556981 0.098226 1.421111 0.550327 4.660908 0.565934 0.871679 0.337507 1.180411 -0.081245 0.708057 -0.266221 0.530702 0.238449 0.848370 0.363887 0.354075 0.559552 -0.363873 -0.123047 0.760775 -0.506718 -2.182833 0.147280 -0.132448 1.397812 -0.070072 0.268739 -0.247858 1.184547 -0.189623 -0.369415 0.732926 1.098634 -0.488126 -0.581705 1.537708 -0.046869 0.283323 -0.286836 -0.828579 1.281058 -0.550344 0.566207 0.282180 0.853249 2.374631 -0.262801 -0.449231
0.455309 -0.060537 -0.425847 0.236677 -0.349637 5.983895 -0.341434 0.334287 0.264205 1.226487 0.239951 -0.702241 -0.912199 1.024461 -0.096683 0.168769 0.072709 1.680928 -0.348171 -0.089546 0.288028 0.563324 -0.687811 0.359001 -0.325124 0.079401 0.458545 -0.355280 0.419956 4.126520 0.968565 -0.423546 -0.112105 -0.086346 0.446715 -0.927157 -0.731089 0.966497 -0.318322 0.006369 0.216541 -0.459898 1.250009 -0.256893 0.244422 0.593859 1.201249 4.094084 0.022328 1.864456
1.875586 -0.075317 -1.895069 0.061807 -1.202432 6.918435 0.170571 -0.032590 -0.167020 1.435140 0.176396 -1.091925 -0.111075 1.148086 0.383948 0.770211 0.165730 1.462432 0.022364 0.025751 0.864047 1.556231 -1.118032 -0.178519 -0.121997 -0.837239 0.206949 -0.731235 -0.430901 -0.492858 1.952384 0.534169 0.550726 -0.025569 -0.845641 -0.856683 -1.019905 1.376078 -0.500588 -0.074848 0.178152 -1.043735 0.491953 -0.021308 0.601555 0.481448 0.638306 3.792733 -0.360849 3.573627
-0.145281 -1.133401 -0.701852 0.539933 -1.269130 -1.693526 0.318417 -1.050985 0.377303 -0.381953 0.213495 0.001195 -0.413253 -2.114595 -0.148209 -0.327839 -0.126618 0.422490 -0.546321 -0.188481 0.583947 -0.839303 -0.279887 0.180261 0.547830 -0.039250 1.042385 -0.299149 0.532441 1.318047 0.408447 -0.541053 -1.403826 0.043422 -1.205933 0.583063 0.684303 1.137589 -0.334827 0.259289 -0.196473 -1.142683 0.725257 0.372592 -0.157400 3.069672 -0.403970 0.799764 0.100306 -0.150854
1.046850 -0.849623 -0.304705 0.190220 -0.500154 -0.956406 -0.054045 -0.884416 -0.820235 0.453371 0.594929 0.166543 0.321539 -1.025821 0.766768 0.485518 -0.336538 0.183537 -0.127701 0.030856 0.586394 -1.200796 -0.279427 -0.127602 -2.589730 -0.074203 0.976881 -0.595168 0.200983 -0.730767 -0.646449 0.233040 -0.513688 0.034687 -0.859097 -1.135768 0.033415 1.825615 -0.737973 0.492856 -0.004984 0.294791 0.315694 1.696140 -0.061240 1.284701 -0.365078 -0.469884 -1.016013 0.411347
0.622715 -0.362060 0.477063 0.088012 0.593463 -1.690046 0.069180 -0.063994 -1.015187 0.295820 0.282163 -0.790047 0.230866 -0.151294 0.777636 -0.034869 -1.915576 0.166181 -0.389803 -0.294348 0.386081 -0.659144 -0.278339 -0.784294 -0.001757 -0.456013 0.994386 -0.213026 0.229732 -0.346422 -0.359543 -1.040549 -0.838446 0.347130 -0.179796 -1.155152 -0.874470 1.951070 -0.525249 -0.133678 -0.406947 -0.484588 0.839381 -0.270770 0.488053 1.098905 0.338484 0.669774 -0.302969 -1.316060
-4.982423 1.165614 1.766092 0.081459 0.744051 1.707523 0.165415 1.471561 1.137228 -0.692853 0.276939 -1.191595 -0.752679 1.355549 0.069185 0.700362 -0.200527 0.245459 0.831213 -0.362554 0.558600 0.567232 -0.613029 0.924624 1.610128 -0.137583 -1.747111 1.261434 -0.152285 0.135899 0.412864 -0.503920 7.870369 0.218708 3.837470 0.017972 -0.402863 -0.593495 1.075658 -0.372983 -0.576319 -0.865619 -0.032015 0.940011 0.311009 -3.306123 1.829533 -1.070439 -0.461990 3.090537
2.006423 -0.562650 0.078098 0.432604 -0.406739 -0.096696 -0.339482 -0.306761 -0.246329 0.288925 -0.249494 0.960236 -1.016521 -0.752776 -0.301879 0.018261 0.560607 -0.563177 -0.327839 0.168908 0.367466 -0.765037 -0.102297 -0.415257 1.210045 -0.541961 0.528908 -0.235369 -0.169838 -0.795470 -0.103335 0.244341 -1.072053 -0.324383 -0.900896 -0.232741 -0.189228 1.491386 2.177245 -0.617637 0.386089 -1.345209 0.939804 0.318138 -0.214867 0.412562 -0.173640 0.458938 0.207927 -1.089553
3.075141 -1.486824 -0.334668 0.650439 -0.257895 -1.965294 -0.286307 -1.576310 -0.339505 -0.591750 0.138720 0.809175 -1.372940 -0.099790 0.631108 -0.436168 0.608364 -0.464662 -1.341426 0.111811 0.176053 0.115906 0.481796 0.214686 1.406211 -0.024570 -0.467012 -0.180324 0.218409 0.844328 0.571676 -0.476836 0.204847 -0.045995 -2.312235 0.690215 -0.159244 1.483527 -0.267551 -0.012645 0.020960 -0.624807 0.599281 -0.165579 0.097988 2.924060 -0.873389 1.775073 0.176718 0.017696
1.816317 -0.671263 -0.955272 0.783013 0.737689 -0.919874 -0.273464 0.818094 0.238327 -0.206901 0.537245 -0.287274 -0.752257 0.009506 0.566335 -0.332891 0.435442 -0.986619 0.154235 0.182997 0.732407 -1.164585 -0.439321 -0.435512 0.029904 -0.552307 -0.389859 -0.479455 0.040522 -0.488791 0.244645 -1.467544 -0.627549 0.492432 1.869736 -0.241790 0.034610 2.441629 -1.179585 1.239899 -0.158718 -0.961277 1.158294 0.597057 1.576047 1.830598 1.055470 1.360237 -0.292285 -0.213497
-4.331313 0.856878 -0.873207 0.212313 -1.889064 2.023934 0.561377 0.293815 3.153989 0.740954 0.349153 0.635347 1.354721 -2.031257 0.262285 -0.131023 0.618888 1.185514 0.311890 -0.538779 0.341740 -1.552742 -0.233488 0.868250 0.100339 0.120398 1.562295 -0.718298 0.250874 1.704165 -0.394143 0.413145 0.214664 -0.169906 -1.392392 1.708626 0.772344 1.442865 -0.483860 -0.719813 0.076333 -1.543844 0.506851 -0.935932 -1.429913 -2.418300 -0.009128 -1.009431 -0.135964 2.373622
1.512202 -0.232317 -0.235780 0.003468 0.104618 -1.260120 0.395652 -1.399855 -0.090360 0.044789 0.144741 0.052551 -2.523749 0.876189 0.016598 0.316302 0.257491 0.395708 0.132494 0.077275 -0.062683 1.139282 -0.654281 -0.039018 0.843248 -0.405149 -0.441671 0.552658 0.285531 -0.588159 0.148515 -0.272753 0.376143 -0.185429 0.221154 -0.189359 0.330518 1.434317 3.455960 0.353628 0.499376 -1.113403 0.145077 -0.335578 0.102149 1.093219 -0.764365 0.859423 -0.190333 1.816185
0.369123 -0.004866 0.752481 -0.336023 -0.295593 0.519638 -0.315750 0.057773 -0.557539 1.279053 0.427928 0.832508 0.335596 -0.074368 0.582274 0.831398 0.326708 -0.136271 0.177298 0.161001 0.312398 -0.101543 0.045705 0.238939 -0.542797 0.497633 0.804094 -0.082082 0.166177 0.269014 -0.629915 -0.261868 -0.209905 0.145151 -1.285909 0.601292 0.173361 1.255432 -0.655505 -0.217636 -0.018657 -0.424132 -0.728256 1.937797 -0.469844 -0.528922 0.107027 -0.987170 -1.088843 2.762419
-0.209196 -0.010315 0.951983 -0.019701 -0.102539 2.409298 1.304218 1.619405 -0.919716 2.019648 0.624930 -0.686319 0.593943 0.446004 0.553080 0.840198 -1.543144 0.559627 0.088325 0.223610 0.635962 -2.653473 -0.201819 0.324849 1.081406 -0.671906 0.313731 -0.746929 0.135840 0.376131 -0.507755 -1.985564 0.396208 -0.451310 -2.266020 -0.546082 -1.160761 0.941381 -0.452235 -0.828289 -0.306213 -1.032400 -0.060347 -0.458755 -0.393453 -1.645477 -0.041395 0.245853 -0.609575 -0.311727
0.705455 -0.765821 1.999029 -0.210931 -0.216514 -0.729511 0.168558 -1.027989 -0.362882 -1.546515 0.069347 -0.293805 -0.112462 -1.371596 0.073004 1.292732 0.706172 -0.464407 -0.277784 -0.338723 -1.430940 -0.484764 -0.422489 -1.292269 0.141043 -0.492164 -0.550273 0.426968 -0.863346 -0.180466 -0.179497 2.144740 -0.609659 1.088656 0.718767 0.799235 0.293751 1.492763 -0.425143 -0.802282 0.504335 -0.572295 0.296911 -0.478508 0.351439 0.513861 1.117262 -1.099209 0.364488 -1.434273
-3.293452 0.143388 -0.359415 1.059871 -0.131516 1.155188 -0.323564 1.382502 3.761643 2.399357 0.545340 0.410323 -0.050325 -1.471053 0.368762 -0.148616 0.741546 0.686011 -0.403446 -0.249517 0.370479 -0.312649 -0.109301 0.200283 -0.618735 -0.233777 2.497244 -0.561940 0.508275 0.733612 -0.196323 -2.134311 -0.074404 -0.104095 -2.137634 0.799434 0.732518 1.555118 -0.935828 -0.260969 -0.091124 -1.826604 1.263140 0.008341 -1.110198 -0.855128 1.509980 -0.322921 -0.169152 -0.351284
1.454586 -0.619984 0.097499 -0.097432 0.050314 0.347910 -0.507983 0.232277 -0.209635 0.353609 0.318243 0.579040 0.594900 0.401360 0.502499 -0.101995 0.746387 -0.238713 0.476226 0.245048 0.083771 -0.194461 -0.135185 0.695086 -0.460763 0.382801 0.168463 0.196681 0.136770 0.068903 -0.204191 -0.051436 -0.503891 0.464381 0.836340 -0.049574 0.319440 0.942898 0.135134 -0.436410 0.372486 -0.054194 -0.268117 2.845134 0.325702 0.809699 0.734118 -0.332716 -1.268105 0.848065
1.751755 -0.001908 0.266525 -0.008769 0.091774 -0.831492 0.500008 -1.022032 -0.463008 -1.023432 0.346481 0.763231 0.475484 0.535788 0.614971 0.850085 0.742686 -0.751360 0.171205 -0.035589 0.465453 1.196172 0.532982 0.216534 -1.160370 1.323978 -1.695087 1.121451 -0.871626 -0.044870 -0.791445 1.122452 -1.292451 0.249109 0.127732 1.061849 0.769191 0.916764 -0.048583 -0.363189 -0.213985 0.067704 -0.187067 2.534895 0.150934 -0.094649 0.286291 -1.022206 -0.911916 -0.743669
-0.168356 0.496807 -0.890413 -0.038460 -0.679940 0.972518 0.794300 0.406043 0.031478 1.343415 0.361288 -1.475991 -1.329132 -0.614952 -0.298685 0.583024 -0.253147 -0.500646 0.465628 0.052339 0.038792 0.782650 -0.012463 -0.666634 0.447309 0.144699 1.005466 -1.960832 0.135467 -0.124714 0.076243 0.320255 1.623048 -0.412230 -0.992422 0.613637 -0.533306 0.735278 -0.210908 -1.581399 -0.156947 5.475210 0.299622 -0.986192 0.266162 -0.365434 -0.918005 0.902488 0.047491 1.300981
0.291310 0.236978 -0.985098 0.445692 -0.533257 -0.418594 0.486561 -0.683061 -0.457132 0.174788 0.645449 0.014549 -1.861295 0.030722 0.336854 0.186464 0.173085 -0.003361 -0.058981 -0.174071 -0.012251 1.043355 -0.412252 0.119944 0.711863 0.410519 0.082497 -0.576454 -0.223185 -0.330479 0.107802 0.572274 0.844792 0.026836 -0.268079 -0.202943 -0.410984 1.139104 0.196565 -0.702232 -0.411536 0.383801 0.349007 -0.291254 -0.045916 0.104486 0.148579 -0.158850 -0.378637 0.364404
0.929964 0.134538 -1.049136 -0.209733 -0.489329 -0.698568 0.596665 -0.066296 -1.550624 -0.136006 0.153980 0.590211 1.205547 0.748340 0.741487 0.122700 -0.491945 -0.313041 -0.335939 -0.051010 0.270347 0.676214 -0.571388 0.082968 -0.357416 -0.346339 -0.579786 0.672978 -0.195883 0.006572 0.033120 0.256503 0.508495 0.080975 0.482372 0.378602 -0.120196 0.847944 -0.994993 -1.242021 0.413000 -0.469795 -1.431628 -0.328999 -0.057858 0.268106 0.688489 0.069121 -0.330766 1.934558
-0.144507 0.914822 0.683246 0.055371 0.181598 0.602127 0.777745 0.131152 0.107687 3.011409 0.283119 0.049945 0.020069 -0.877015 -0.192326 -0.088459 0.283852 -0.374880 0.373926 -0.066602 0.305694 -0.640597 -0.357056 0.432063 0.134508 -0.297507 1.252885 -0.059880 0.191400 0.044236 -0.392479 -0.784294 -0.091181 -0.282530 -1.736152 -0.190112 -0.649809 1.100567 2.765475 -0.665953 0.126498 -0.347399 -0.196215 1.458276 0.281755 -0.862669 0.159903 0.047943 -0.022561 1.084075
0.682157 0.343357 -1.243840 0.095589 -0.367680 -0.840652 1.129734 -0.389492 -1.075505 -1.211138 0.531869 0.405523 -0.426917 0.468775 0.441670 0.307221 0.523211 0.185327 -0.396164 0.001450 0.365045 1.068527 -0.303478 0.057692 1.803853 0.215524 -0.718294 0.546964 -0.033666 -0.816877 -0.245644 0.461560 -0.405431 -0.209917 0.964187 0.001813 0.153431 1.433778 2.052569 0.203979 0.108677 -0.950448 -0.090775 -0.641528 -0.542870 0.652570 0.184558 -0.260823 -0.510080 -0.803227
1.165541 0.072274 1.346610 0.259703 0.152806 0.000548 -0.016623 0.822810 -1.118057 -1.866952 0.371506 0.901431 0.512411 1.321087 0.284648 0.329753 0.250993 0.728459 -0.443073 -0.185182 -0.989914 -0.128690 -0.281481 -1.582362 1.128430 -0.320455 0.578476 -0.445209 1.497569 0.326080 -0.288374 1.036745 -0.042113 0.772394 3.672793 0.743801 0.062666 1.912820 -0.238610 0.328918 0.142521 -0.819637 1.289694 -0.505492 0.086414 -0.308522 0.459647 -0.041499 0.078742 -1.078462
0.343070 -0.155870 -0.163016 0.560593 -0.372354 0.235205 0.103433 0.510323 1.227317 0.028939 0.013114 0.510479 0.326251 -0.987151 0.455710 -0.161098 -0.093394 -0.426884 -0.055010 -0.037921 0.351134 0.390370 0.076839 -1.477745 0.695223 0.355627 -0.043581 -0.158492 -0.426270 -0.901027 -0.046643 -0.258301 -0.415665 0.032795 0.338234 -0.421785 -0.187023 1.049384 -0.696813 -0.565317 -0.177240 -1.931486 -0.342233 -0.510321 0.244166 0.574676 1.317495 -0.107725 -0.136892 -2.031661
0.676922 -0.284303 -0.989906 0.131900 -0.094529 0.332494 0.623391 -0.056946 -0.195057 1.169018 0.378504 0.321117 -2.687447 1.208800 0.070176 -0.351271 1.025267 -0.310606 0.319883 0.019471 -0.104308 -1.159444 -0.137086 0.208468 0.302656 -0.154435 0.962144 0.461817 0.482987 -0.095742 0.610506 -0.451375 0.663053 0.024165 0.118497 0.660907 -0.217199 1.425227 -0.000113 -0.413337 0.159804 -1.462621 0.112953 -0.598555 0.407860 -1.008461 0.521959 0.207181 0.035915 -1.574296
-1.028322 -0.563554 -0.449285 -0.064756 1.235366 -0.667729 0.013879 -0.875973 0.408398 1.451268 0.058358 -0.321991 0.471944 0.089260 -0.650038 0.005468 0.470955 -0.669067 0.274081 -0.101018 -0.151612 0.374400 -0.309492 -0.489348 0.296530 -0.200612 0.268098 -0.607658 -0.144822 0.432835 -0.114520 -1.455887 0.475861 0.261946 -1.873515 1.023374 -0.002830 1.138787 0.233251 -0.416840 0.143861 1.308397 0.362218 -0.751130 0.673007 -0.053169 0.145104 0.160877 -0.554121 2.581136
0.573827 -0.042139 -0.452307 -0.211939 -1.068851 -0.218034 0.391756 -0.037968 -0.333106 -0.655683 -0.260985 0.333904 0.103758 -0.253973 0.570030 -0.129329 0.295921 0.252042 -0.908646 -0.369839 -0.002735 0.031074 -0.586152 -0.105384 -0.493737 -0.300266 0.020044 -0.259322 0.386184 -0.128649 -0.402812 0.652352 4.613802 0.363791 0.504430 -0.300664 0.173945 1.015624 -0.478316 -0.041284 0.092079 -0.626409 -0.094650 1.623430 -0.720326 0.192912 0.075581 0.143921 0.070139 1.283467
-3.369232 -0.293001 -0.036917 0.970029 -1.295204 0.531133 0.397507 0.741014 -0.692548 1.155400 -1.307210 -2.511067 0.848998 -1.120804 -0.018667 3.509298 0.741914 1.279281 -2.620407 -0.966049 1.217349 0.681575 0.083692 0.129261 0.821459 -1.044362 0.679462 0.448101 -0.509249 -0.326077 0.079622 -0.922318 0.152205 -2.905846 0.215280 -0.058179 -0.119027 -1.151554 -0.546430 0.282510 0.030184 0.890632 -1.087623 -0.024954 -1.793206 0.986264 2.381130 0.625777 0.073703 -1.219162
0.437034 -0.100941 1.506720 1.445561 0.490893 -0.031340 0.095869 0.461119 -0.223236 0.415639 0.465084 0.271499 -0.663145 1.257247 -0.248336 1.236857 0.894773 0.412234 -0.133728 -0.544310 0.757545 0.235103 -0.522245 1.337193 -0.842889 1.748307 0.505310 0.205191 -0.064194 -0.660982 -0.277837 -0.521309 -0.507045 0.427416 -0.356091 -0.095429 0.377096 -1.081653 -1.353982 0.387122 -0.090940 -0.347335 -1.636882 0.079510 0.176532 0.134090 1.286380 -0.911634 -0.179961 -2.434413
-0.186987 -0.109549 0.772901 -0.361401 0.088461 -0.047518 -4.688372 -0.364674 0.280585 0.080723 -2.121175 0.283352 0.064457 -0.082637 -0.031322 1.407312 0.087003 0.232155 0.209840 0.010344 0.254145 -0.037594 -0.403194 0.498659 0.619776 0.600222 -0.081054 -0.216853 0.487741 -0.189038 0.386826 -0.036720 0.253092 0.196383 0.116981 -0.134345 -0.395894 -0.618428 -0.089676 -0.182747 0.938218 0.064589 -0.135954 -0.646508 -0.108776 0.368920 -0.226616 -0.105621 0.264935 0.131585
1.786541 0.120962 0.333984 0.583903 1.138783 2.967805 0.223373 0.375516 -0.216154 -0.171106 0.609469 0.856595 0.987013 0.788958 0.271530 1.959556 0.197938 -0.042787 -3.123962 0.193313 0.296629 0.448930 0.002012 0.757807 0.794009 0.141020 -0.906554 0.000411 -3.131324 0.106489 -0.121741 -1.462775 0.356772 -0.629347 -3.609368 0.295049 0.401533 -1.327475 2.162517 -0.202414 0.313623 -0.517648 -1.439344 0.004251 0.158197 -0.566136 1.461400 -1.254705 -0.492437 -0.076181
-0.958614 -0.277703 0.534985 0.043806 -0.350257 -2.066501 0.196835 -0.197266 0.177072 -0.129655 -2.257082 -0.032643 0.286510 -0.018019 0.027615 2.067561 0.273771 0.903132 0.310647 3.081039 0.179476 1.285783 -0.396128 -0.808620 0.599142 0.945761 0.467437 0.442472 0.259948 0.187168 -0.081405 0.834154 -0.171274 0.437477 0.599943 0.036112 -0.379048 -1.198880 0.283582 -1.330489 1.699834 0.613642 -1.229942 -0.409135 -0.325320 1.009549 0.261826 -0.169363 -0.788257 -1.039151
0.402654 0.499096 1.718768 0.024329 -0.621512 -3.856373 0.396077 0.004949 0.417809 -0.004365 -0.970558 0.423083 -0.008375 -0.081021 0.274250 1.596332 0.967348 0.266557 1.615719 -1.026608 0.757243 0.528539 -0.514821 0.945847 -1.219393 0.353863 0.319348 -0.154300 -0.032000 -0.001517 -0.117064 0.572365 0.131439 0.533944 1.253093 0.210063 0.347572 -0.609761 -0.592517 0.068922 0.634111 -0.243474 -0.280092 -0.753888 0.480443 1.110780 -0.451750 -0.214877 0.710144 -0.624854
0.670928 -0.056828 0.774345 0.243952 -0.061123 -1.579728 -4.716059 -0.051959 -0.895328 0.077257 0.637953 1.106739 0.571307 0.326760 0.853022 0.840548 0.254988 -0.108765 0.611522 -0.140567 0.602394 0.100130 -0.025280 0.256810 -0.283847 -0.271589 0.117437 -0.231242 -0.042717 0.133696 -0.010913 0.196309 -0.144662 -0.191812 -0.138464 0.311196 0.273779 -1.187508 -0.756827 -0.660837 -0.143706 -1.082407 -0.995258 0.306713 -0.175221 0.300724 0.413894 -0.698483 -0.403717 -0.516671
-0.315262 0.045251 0.697312 0.602640 -0.514512 3.908907 -1.013889 -0.239898 -0.158448 0.896193 -0.033403 -1.081028 0.223147 -3.056641 -0.128553 0.709533 -0.159798 0.151698 -0.576314 -0.568242 0.547524 -0.048894 -0.585341 -1.616399 0.999682 -0.401947 -0.638501 -0.859029 0.390522 -0.882361 0.032831 -0.314972 0.075415 0.342180 0.185120 -0.964697 -1.197791 -1.471861 -0.508346 -0.983185 -0.275216 -0.859913 -0.849447 -0.484888 0.052044 0.154121 0.475598 0.919351 0.344540 -0.804429
0.431370 0.309374 -0.652421 -0.608633 0.680910 -4.049489 0.474979 0.122763 0.076959 -1.371414 0.046068 1.820677 0.293065 1.302645 0.290680 0.333152 -1.422188 -0.132947 0.767548 -0.782840 -0.276176 -0.694426 -0.010423 -0.037100 0.335599 -0.118518 0.060843 -0.095115 -0.050090 0.830770 -0.786621 -0.578690 0.058710 0.639973 0.280489 1.227857 0.515216 -1.255298 -0.223890 0.423396 -0.078381 -3.671756 -0.441548 -0.773099 0.144136 0.272352 -0.089279 -0.843881 0.362098 1.440785
-0.793412 0.503599 0.764768 0.034776 -0.927842 2.467501 0.134105 -1.453309 0.412658 1.538749 0.572591 -1.858409 0.812196 -2.631293 -0.315817 1.061921 0.340061 0.499540 -0.207902 -0.722386 0.682876 1.400009 -0.120114 0.414639 -0.426846 2.118038 -0.056258 -1.046249 0.129114 -0.525888 0.039387 0.735649 -0.429890 -0.128056 -0.714167 -0.124480 -0.642417 -1.678919 0.368369 -2.207220 -0.691330 0.595365 -0.147808 0.588932 -0.529578 0.312179 0.005155 0.713856 0.592700 1.056710
1.035901 -0.389586 -0.009910 0.117774 0.726271 -1.309088 0.184576 1.729667 0.848677 -2.519092 0.399502 2.594179 -0.952874 1.089637 -0.011622 0.480743 0.291009 -0.293690 0.119420 -0.003857 0.452613 -1.050331 -0.438238 -0.850574 0.813233 -0.186820 -0.936371 -0.543868 -0.636283 -0.864988 -0.483769 -1.087681 -0.669467 0.219171 0.443381 -0.468626 -0.358850 -0.771001 -0.203968 0.837948 0.221871 -0.998261 1.136888 -0.060956 0.943297 0.279411 -0.212747 -0.588119 -0.103524 0.553894
-0.203575 0.421292 -1.778432 0.533750 -0.998104 0.131036 1.120611 -0.500251 -0.802557 0.418499 0.022595 -1.101465 0.139673 -0.813580 0.489483 -0.491079 0.138712 0.316140 0.229150 -0.647469 0.598010 1.390653 -0.549082 0.774353 2.131282 -0.198288 0.069725 -0.154746 0.142017 -0.719956 0.362857 0.392294 -0.224011 0.168536 -0.053052 -0.676936 -0.756702 -0.507867 -0.247036 -1.002948 0.110387 -0.542850 -3.001531 -0.428805 0.476471 0.762389 -0.067465 0.807815 0.112076 -0.384494
0.589575 -0.022420 0.472299 0.154494 0.167602 0.437853 0.103473 0.793404 -0.303122 -0.779386 -0.269425 1.896681 -1.883815 -0.090555 -0.544224 -0.011269 -0.128502 -0.734259 -0.086731 -0.263923 0.337734 0.804488 -0.593720 0.094550 0.325791 0.087414 -0.736651 -0.417304 -0.848699 -0.737596 -0.505457 -0.636262 -0.235808 -0.364344 -0.199396 -0.756248 -0.096890 0.025863 3.746956 0.179489 0.140369 -1.151295 -0.883835 -0.370748 -0.193523 0.582973 0.691596 -0.673611 0.314737 0.580541
0.403099 0.197736 1.033365 -0.937175 -0.827263 -1.341405 0.702440 1.702362 0.050703 -0.016211 0.800698 -0.365681 0.053993 -0.079425 0.293043 0.414546 0.828127 -0.182966 -0.293841 0.040800 1.372609 0.426835 -0.668950 -1.232912 -2.762778 -0.426856 0.419772 -0.807843 0.626787 -0.985500 -0.296262 -0.437038 -0.155197 -0.461103 1.237429 -1.160596 0.262995 1.112788 -0.608387 -0.561808 -0.688413 -0.166880 0.190355 -0.798559 0.102111 0.984630 1.102544 0.092541 -0.521334 -0.035413
-0.066862 0.089952 1.938234 -0.598172 -0.196395 0.102778 0.882104 -0.004417 -0.386641 0.155737 0.775735 -0.245773 -0.037560 -0.442116 -0.048350 1.896443 -0.117164 -0.018829 -0.008287 -0.280536 1.237106 0.149440 -0.416651 0.136538 0.618342 -0.162662 -0.225667 -0.401367 -0.114944 -0.262281 -0.160393 -0.122138 -0.308262 -0.771919 0.096148 0.060073 -0.441675 0.819212 -0.778363 0.119010 -0.157249 0.140072 0.283281 -0.197612 0.245517 -0.382770 0.101286 -0.118668 -0.891188 -1.071485
1.780293 0.729583 -0.113040 -0.474970 -0.849591 -1.248003 0.202966 1.299819 -1.075427 0.293640 0.696830 1.025200 1.141566 0.919711 1.210207 0.733057 0.478359 -0.100541 -0.476235 0.185071 0.083951 -0.208304 0.097454 0.411953 -0.080049 0.025041 0.393474 -0.003814 0.355056 0.175329 0.444959 0.361018 0.594520 -0.001998 0.259226 -0.071368 0.961332 1.499134 -0.407431 -0.608973 0.109690 -0.442408 -0.691654 1.132411 -0.421871 0.424162 0.763921 0.171587 -0.877397 -0.892589
0.027224 -0.330925 -0.509320 0.358918 -0.265336 -0.434182 0.132526 0.363870 0.184831 -0.545719 -0.221477 0.079689 0.633589 -0.130884 0.134846 -0.542262 -0.332076 0.060500 -0.391061 0.022845 -0.224954 0.116910 -0.745900 -0.304408 0.186096 -0.542626 0.140217 -0.740022 -0.038089 0.631519 0.232419 0.013133 2.727211 0.170124 0.413109 -0.321763 -0.680965 0.691177 0.472634 0.673174 0.325797 0.556425 0.513647 6.261821 -0.161793 0.264847 -0.546859 0.117778 0.088761 -1.971898
0.455437 0.158893 0.754943 0.214744 -0.617869 0.387610 1.086599 0.053410 -0.849024 0.196945 0.314694 0.456805 0.643898 0.469647 0.915859 -0.420423 0.158959 0.252748 0.051956 -0.307745 0.541812 -0.124605 0.740132 0.542410 -0.684319 1.319820 0.152537 0.146777 -0.029173 -0.145552 0.759391 0.856103 -1.145137 0.253359 -0.715362 0.717816 0.770601 1.578046 0.173608 -0.605600 -0.283901 0.461055 0.540543 0.630152 -0.319765 -0.128305 -0.290111 -0.144086 -1.426896 -0.508453
1.453347 0.228716 1.186778 0.917714 0.100239 0.037290 0.710227 0.217655 -0.001035 0.552339 0.966421 0.693304 0.504961 0.057244 0.024854 2.266373 0.496557 -0.257954 0.643444 0.073054 0.686113 -0.664972 -0.515075 -0.125530 -1.338430 0.885113 0.283912 -0.483981 -0.155654 0.319731 -0.682330 0.219807 0.333058 0.109541 0.451674 0.241447 -0.021254 1.167187 -0.579815 -0.219082 -0.717376 0.259389 -0.545947 2.140058 -0.283281 -0.514231 0.047147 -0.202560 -0.882077 -2.248624
0.193657 -0.755022 0.113531 0.121175 0.480247 0.221064 0.916341 0.161046 -0.955699 0.309145 -0.524945 -0.675880 0.174577 0.316492 0.339376 -0.274085 0.311532 -0.247953 -0.087807 -0.487303 0.826753 0.705006 0.456826 -0.420446 1.750641 -1.195559 0.465996 0.324705 -0.157228 -0.638745 -0.126580 0.120927 -1.509737 0.379138 0.172635 0.223383 0.215692 0.980050 0.684177 -0.025564 0.315114 0.703425 -0.244350 0.844869 0.083938 -0.072654 0.196002 -0.823067 0.677950 -1.231897
1.560544 0.428943 -0.844509 -0.329893 -1.126979 -1.445058 -0.010418 1.714490 -1.526030 -0.783132 0.428166 1.419397 1.261502 0.382334 0.815230 0.679124 -2.813558 0.585443 -1.511189 -0.506866 0.113910 -1.307052 0.340849 -0.017449 1.212380 0.284264 0.136541 0.148276 0.357836 0.451802 -0.080871 -0.244868 -0.140152 -0.189611 0.455097 0.174023 -0.341828 1.521484 -0.285476 0.571731 -0.061721 -2.120013 0.559289 -0.441301 -2.318379 0.273846 -0.724428 0.246686 0.168540 1.834965
-0.841643 0.009760 0.972050 0.164707 0.583282 0.499878 -0.212343 -1.390568 -0.620361 0.811546 -0.631235 0.302968 0.222469 -1.343706 -0.126944 -0.473177 0.561977 -1.382604 0.950152 -0.523074 0.407797 -0.500849 -0.282344 -0.810448 0.415517 -0.908104 -0.787067 0.338956 -0.764084 -0.393111 -0.221585 0.013374 -0.571963 -0.048310 -0.138228 0.419506 -0.096931 0.973930 1.847104 -1.297347 0.065276 -0.680308 0.204711 0.105959 1.215348 -0.887022 1.114303 -0.132495 1.756973 0.264758
-3.874002 -0.589924 0.280918 -0.633152 0.826138 2.330527 0.005325 -0.665816 -0.405815 0.384759 -0.079463 1.625626 -0.449042 -1.696851 0.171426 -0.458081 1.066417 -1.602921 2.733259 0.256574 0.762194 0.032948 -0.189192 -0.632213 1.355454 -0.210159 -1.762259 -0.326263 -3.186479 -1.357222 0.675824 -0.487492 -0.909516 0.029326 -0.370122 -0.097253 -0.070049 0.718875 0.266767 -0.742842 -0.214832 -0.861324 -0.355701 -0.107714 1.097043 -1.469224 2.457623 -0.946533 -1.003640 -0.927375
-1.990390 0.162809 0.365214 -1.045802 0.491602 1.026686 0.136752 0.138025 -0.165210 0.170089 -0.192258 0.951142 -0.388391 -0.151213 -0.101457 -0.154583 0.019171 -0.309906 1.457735 0.016819 0.432552 0.263754 -0.058562 0.284928 0.238307 -0.435069 -0.680798 0.734237 -1.310534 -0.597971 0.497698 -0.081791 0.259111 -0.604086 -0.181681 0.002357 -0.008738 0.247510 4.075986 -0.855917 0.223354 -0.090611 0.005662 -0.040927 0.041600 -0.422863 1.015507 -0.614975 -0.013434 -0.726770
1.418328 -0.176559 0.400604 1.174325 -0.160141 -4.180599 0.051193 -5.294737 0.121182 1.348665 0.090908 -0.760623 0.398745 -1.003162 0.332602 -0.329701 0.761528 -1.357345 -4.175495 0.092968 -0.037674 -0.748148 -0.931580 -0.006933 0.009324 -0.773755 1.720021 -0.034538 -2.321129 -0.183967 1.758125 -0.748330 3.077712 0.311537 0.654993 -1.075038 -0.028452 0.700080 2.225723 0.442385 -0.329124 0.082849 0.153789 1.185758 2.790521 0.503505 2.100286 2.563536 -0.436835 0.196071
-3.158011 0.287095 -0.467411 -0.439712 -0.275350 1.907183 0.719473 4.143088 0.448413 -0.370531 0.468070 1.340950 -3.069152 1.153942 0.094270 0.318482 0.377785 0.481026 3.125423 -0.154856 -0.211519 0.079833 -0.653247 0.379561 -0.802440 0.745199 -0.420750 0.031981 1.801398 0.309373 -0.914501 -0.033526 -0.256527 -0.143031 -1.005315 -0.030840 -0.283132 0.268642 0.509195 -1.380601 0.188500 0.669740 -0.467978 -1.481859 -1.534434 -0.353056 0.667739 -2.127238 -0.662297 0.615476
0.585122 -0.863150 -0.368434 -0.902540 -0.746733 1.023512 0.309181 0.321242 -0.066483 -0.002139 -0.328449 -0.038386 0.390914 -0.636762 0.651101 -0.387047 0.708619 -0.530522 0.686119 0.029304 0.067334 -1.324166 -0.437062 0.184447 -0.259070 -0.300601 0.077751 -0.046941 0.163151 -0.191340 0.023475 0.627004 2.446011 0.361110 0.125833 -0.321433 0.348898 -0.113405 -0.894382 -0.972316 0.078860 0.198512 -0.528550 2.975351 -0.508148 0.039441 -0.243746 -0.741450 -0.654081 0.496229
0.329407 -0.401653 -0.498951 -1.456075 -0.582183 0.338578 -0.621493 -1.089853 0.472342 0.087574 0.257028 0.111421 -1.247080 -1.315891 -0.907525 -0.322374 0.301183 0.388615 0.716704 -0.357165 0.185251 -0.861750 -0.365519 0.514229 0.544625 0.344201 0.087798 -0.747805 0.429685 0.177569 0.676972 0.502481 0.058027 0.182458 0.167448 0.542622 -0.930241 0.263916 -0.286083 -0.673337 -0.237906 -0.604094 -0.096817 -0.813915 0.531777 1.231206 -0.788389 0.211176 -0.232216 -0.304474
0.274299 0.102887 0.997562 -2.349630 -0.254854 0.028863 1.575716 0.748710 0.311053 0.638306 0.328910 0.586458 0.442310 -0.046436 0.093023 2.117935 0.378346 -0.118635 0.594329 -0.575357 0.582179 -0.294252 -0.110444 0.111048 0.573583 0.034335 -0.423348 -0.361943 0.391441 0.350739 -0.568651 -0.250424 -0.390296 -0.175931 0.079972 0.570795 -0.151763 -0.091814 0.198813 -1.176963 -0.379037 -0.175660 -0.310695 1.312999 -0.053846 0.277292 0.274289 -0.193334 2.666371 -0.108563
-0.110972 0.523054 -0.713055 -0.868132 0.477053 -0.951838 0.235577 0.342535 -0.091033 -0.037863 -0.044554 -0.167305 -0.261573 2.226280 -0.691361 0.432481 -0.389457 -0.071760 -1.666065 -0.524830 -0.116403 0.635600 -0.640036 0.484444 0.599862 -0.162772 -0.460457 0.129679 -0.071909 1.675347 -0.438585 -1.377273 -0.149505 0.470169 -0.414485 1.668745 -0.720215 0.672915 -0.263643 -0.589266 0.148842 0.536224 0.109213 -0.601473 0.734130 -0.240504 1.789955 -0.343125 0.008229 -0.453209
0.266514 -0.226975 0.439484 0.905160 0.104823 0.082385 0.075801 -0.267121 0.411146 -0.097163 -0.088598 0.688988 -0.393526 0.233268 0.362882 -0.242209 0.950020 -0.623993 -0.289116 -0.191029 0.336714 -0.531692 -0.147793 -0.933238 1.074070 -0.342391 0.115019 0.015825 -0.171850 -1.066417 -0.364529 -0.020595 -1.181468 0.238423 0.621903 -0.375046 -0.191942 0.330313 0.151105 -0.202082 0.311952 -1.063143 -0.505051 -0.385644 1.406779 0.343568 1.389680 0.184942 -0.551903 0.698442
-0.375991 0.089258 0.349180 -1.565538 -0.897255 0.430763 -0.196355 1.574460 0.372358 1.140897 -0.252589 0.440508 -0.042589 -3.804833 0.242996 -0.250014 0.908011 -0.135401 1.214601 -0.301419 0.282649 -1.142309 0.232675 -0.812966 1.538860 -0.271723 -0.031624 0.091576 -0.619664 -1.329878 -0.073087 0.097901 -0.750693 0.383130 -0.075734 -0.597456 0.005977 0.476391 -0.401096 -0.948635 0.255215 -0.473833 0.015817 -0.122004 -1.515674 0.205791 0.000480 0.000600 -0.313251 0.076136
-0.364798 -0.498491 -1.498430 1.022292 -0.069646 0.026325 0.277946 -1.006466 0.022720 -0.847315 0.130089 0.486004 -0.460758 0.162977 -0.489588 -0.113046 0.377369 0.190431 -0.337992 -0.426711 -0.051969 -0.876407 -1.082065 -0.113112 0.724110 0.497976 -0.216660 -0.318012 0.214029 -0.019598 -0.401193 0.005317 -0.562871 0.220160 0.399156 0.180527 -0.832127 1.171099 -0.263307 -0.180017 -0.189828 2.023045 -0.424372 -0.346743 0.884717 0.929819 -0.152712 0.347435 0.277704 0.653670
0.682158 0.736083 1.341562 0.333920 0.157912 -0.454824 0.087154 -2.183077 0.380431 -0.754572 0.620652 0.297176 0.093205 4.251441 0.119072 2.739528 0.730057 0.335131 -0.581701 -0.798869 -0.128356 -0.230740 -0.181254 0.039046 0.223709 1.892795 -0.014674 -0.191114 0.317809 0.063451 0.242376 0.146571 -0.699492 0.681427 0.434812 0.406702 -0.153533 0.136807 0.455043 0.285955 -0.909953 -0.083263 -0.513892 0.113244 2.601234 0.326869 0.790641 0.102969 -0.836487 0.133245
-0.122974 -0.091072 -1.252997 -3.250710 -0.443126 -0.518772 -0.063253 0.839990 -0.057526 1.586606 0.149407 0.488824 -0.086220 -4.043744 0.077881 0.062431 0.662224 -0.129866 1.465218 -0.290435 0.292711 -1.625376 0.024353 0.221556 -0.952370 -0.247084 0.726739 0.150887 0.212255 -0.827656 0.027024 -0.157934 1.354462 0.153638 -0.145082 0.535618 -0.089039 0.853629 -0.771297 -0.883063 0.157443 -0.227513 -0.835843 -0.536177 -1.395411 0.405288 -0.585481 0.197999 -0.287929 -0.830379
-0.619665 1.196475 0.219465 1.103214 0.102997 -0.059131 0.396787 -1.834939 1.893484 -2.802164 0.204701 0.836306 0.308241 3.885999 0.372887 0.308167 -2.738780 0.172722 -0.205351 -0.193440 0.040846 -0.664104 -0.520866 -0.190672 0.908171 0.320106 -0.033999 -0.625478 0.659208 -0.198427 0.226139 2.664379 0.425630 -0.118210 0.794879 -0.295612 -0.269189 0.670220 0.644370 -0.189268 -0.215328 -1.256008 -0.434474 -1.134227 3.670337 0.460491 0.708354 0.081198 0.305141 1.009527
0.941109 -0.038658 0.581298 0.608904 0.368800 1.141484 0.255989 -0.504338 -0.008660 -0.509227 0.203550 1.011898 0.373631 2.262892 0.267089 0.133765 0.784579 -0.686024 0.393177 0.164621 -0.054277 0.934343 -0.471708 0.311863 0.489517 0.370308 -0.296361 -0.815746 0.736670 -0.260183 -0.450274 1.070591 -0.006487 0.360647 0.200208 -0.058602 0.197851 0.880703 0.577352 -1.250367 0.060788 0.033521 -0.925375 1.516033 0.955550 -0.663634 0.832434 -0.147993 -1.052935 0.881382
0.768678 0.265203 -0.264718 -0.411049 -0.186042 0.403667 0.170420 0.209724 -0.536495 0.697699 0.049058 0.808992 -0.165508 -0.047382 0.396433 0.011444 0.886674 -0.809192 0.219507 0.071010 -0.015647 -0.665546 -0.438524 -0.119343 0.639265 -0.024651 -0.045115 -0.640222 0.339408 -0.721987 -0.237638 0.127858 -0.218653 0.104709 -0.047020 -0.635568 0.328521 0.643346 0.613489 -1.226913 0.198358 -0.568265 -0.112070 0.322243 0.088983 -0.384071 0.685505 -0.094170 -0.725795 -0.097435
0.530727 -0.196896 -0.306667 0.569755 -0.284223 -0.487026 -0.416797 0.869979 -0.331323 1.056170 0.059760 -0.351598 -1.028987 -1.142960 0.015580 -0.638774 0.880361 -0.531072 -0.281075 0.014116 0.249238 -0.426309 -0.042585 0.084490 2.177795 -0.188739 0.769884 -0.184354 -0.834295 -1.467583 0.180327 -0.672168 -0.824329 -0.196726 -0.165700 -0.498660 0.334696 0.691495 0.916171 -0.374347 0.276105 -0.037626 -0.442516 -0.492305 -0.649378 0.350671 1.127320 -0.201549 -0.356095 1.066719
0.220648 0.310734 0.535549 -0.607144 -0.208587 0.314252 0.632104 -1.038292 0.176093 -0.246687 0.327081 1.999814 -0.110282 0.101947 0.378325 0.339891 0.053285 0.187748 0.368353 -0.098321 0.028684 0.341909 0.003730 0.651638 -0.375259 0.293305 0.046565 0.889095 0.076454 0.330544 0.157741 1.414033 -0.411782 -0.144676 0.042217 0.251022 0.036514 0.383823 2.376531 -0.668916 -0.179610 -0.405806 -1.086829 2.505129 0.091500 -0.090791 -0.557420 0.391431 0.226624 0.635288
0.277394 0.252980 0.871294 0.810152 -0.002741 -0.040069 -0.377161 0.345820 -0.616528 0.236048 0.083094 0.210058 0.517054 -0.435307 0.177775 0.198576 0.363568 -0.427549 -0.103686 -0.068553 0.133907 -1.211604 0.094199 -0.635173 2.095725 -0.486707 0.131778 -0.267644 0.335831 -0.366096 -0.296473 -0.402551 -0.587471 0.248261 0.372290 -0.151574 -0.224143 0.777140 0.858680 -0.462937 -0.169238 -0.449926 0.242987 -0.489908 0.155392 0.343091 0.452207 -0.030502 0.031478 0.558711
-0.536905 0.637025 0.891639 0.718531 0.512127 0.368430 0.077025 1.021810 -0.285745 -2.062176 0.099933 1.002910 0.681018 -0.659124 0.485627 0.030455 0.528935 -0.369259 -1.415642 -0.069653 -0.159148 -1.583577 0.266664 -0.832351 2.902423 0.132782 1.058493 0.331180 -0.612633 -0.711517 -0.129562 2.756100 -0.321994 0.423964 -0.275083 -0.004941 0.064406 0.899730 0.007737 0.953793 0.135314 -0.202584 -0.303542 -0.488904 -0.170321 0.527108 0.144624 -0.130181 -0.633445 1.681444
0.082535 -0.831773 -1.103469 -0.602188 -0.081289 -1.001278 -0.191298 -0.829468 -0.927980 1.081267 -0.070606 -0.730022 1.077367 -0.279890 -0.108523 -0.498427 -0.167294 -0.291119 0.839601 -0.347884 -0.508022 -0.957372 -0.202659 -0.102639 -0.093284 0.325797 -0.713788 -0.914314 1.173928 -0.672962 -0.678777 -1.872829 1.213204 0.522391 0.041923 0.201299 -0.281541 0.995619 -1.072931 -2.525202 0.355027 1.535589 -0.336771 -0.532766 0.552630 0.047619 0.079329 -0.014124 -0.344546 -0.307318
0.311207 -1.370853 -0.488081 -0.814448 -0.337797 -0.709992 0.291670 -1.614709 -0.011368 1.320290 0.110435 -1.024153 0.406770 -0.087874 -1.566191 -0.314928 0.292672 0.040434 1.716969 -0.470858 0.076436 0.542808 0.267337 0.262004 0.715342 0.259170 -0.855289 -0.233952 0.792424 -0.132511 -0.400242 -2.354309 1.114854 0.290465 -0.009533 0.776713 -0.891034 0.555864 -0.491286 -2.016596 -0.264191 0.477109 0.016687 -0.783442 0.418648 0.049326 0.117824 0.304103 -0.153399 -1.081960
-0.700834 -1.111001 0.182064 -0.541043 -0.353986 -0.194297 -0.288587 -1.452596 0.382996 -0.060986 -0.631452 0.209389 0.113006 -0.276427 0.147739 -1.369893 -0.106133 -0.164869 0.836887 0.089925 -0.202765 0.941930 -0.457685 0.485191 -0.084457 -0.413236 -1.095852 -0.353164 -0.154902 -0.202834 -0.274447 -0.775108 2.853383 0.091896 0.400933 -0.689365 0.000643 0.010115 1.186180 -1.750927 0.497044 0.784080 0.665502 3.557020 -0.281320 -0.976556 0.187942 0.554572 -0.437877 -0.666253
-0.154364 0.624986 0.773587 -1.878646 0.388254 0.735835 0.090580 2.162322 -0.271541 -0.489891 0.361067 0.615189 0.343357 0.632366 0.723016 1.093437 -0.219967 0.565620 -1.876916 -0.119970 -0.201729 -1.106344 0.308405 0.504957 0.378123 1.055762 1.529114 0.150825 -0.283835 0.699608 1.046230 1.636940 -0.267243 0.298369 0.278242 1.145481 0.326601 1.123462 0.839078 0.715652 0.090839 -0.170202 -0.103264 -0.994624 -0.541456 1.844560 1.196983 -0.547961 2.612010 -0.120068
-0.593728 0.360057 -0.712140 -1.043062 -0.314613 -0.928133 0.656558 -0.868543 -0.962540 0.122456 -0.437936 -0.030882 -0.114437 -0.199632 -1.595786 -0.676850 -2.824280 0.033809 0.470026 -0.809095 -0.316962 -0.693042 -0.668356 0.198258 -0.003628 0.195288 -0.363525 -0.546436 0.087389 -1.465765 0.059277 -0.636284 -0.798177 0.566862 0.115954 0.366631 1.029221 1.119743 -0.436798 -1.267280 0.166393 -0.604559 -0.976826 -0.272636 0.361662 -0.191574 -0.075352 0.440817 0.277432 0.073348
-0.200439 0.469549 -1.010298 0.123350 0.126672 0.701332 -0.067485 1.990514 -0.855847 -0.747808 0.487626 -0.048935 -1.836031 1.056917 0.838479 0.614215 0.000581 0.528981 -1.439707 -0.348177 -0.158067 0.416005 -0.219705 0.414735 1.123319 0.513844 0.822558 0.272460 1.087447 1.215795 0.793179 0.221324 0.455207 0.031608 -0.492704 0.753289 -0.493202 1.039952 -0.070559 -0.083559 -0.002517 -0.281409 0.088513 -0.866965 0.092177 1.962309 0.486532 -0.251622 -0.310431 0.240694
-0.604165 -0.855609 -1.206394 0.850901 -0.587908 -0.776155 1.090609 -1.157694 -0.396004 0.245181 -0.131742 0.028301 0.078481 0.016447 0.154546 -0.368201 1.037484 -0.827162 0.720101 -0.290493 -0.116140 -1.406813 -0.033550 -0.615004 0.214652 0.178558 -0.407771 0.060371 -1.113764 -1.032704 -0.026045 -0.612645 -0.232039 -0.072560 0.433196 -0.114873 -0.444397 1.131039 0.548075 -1.043475 -0.001907 -1.136706 -0.814542 -1.038777 -0.588587 -0.705147 1.232636 0.684096 -0.275248 1.481556
0.038872 1.946526 -0.408033 -0.330064 0.326095 0.299192 -0.138973 3.953552 -0.636025 -1.698227 -0.004010 1.316003 -0.079834 0.677432 0.117862 2.572836 -0.619803 0.382352 -1.305248 1.233555 -2.621683 -0.971316 0.570993 2.016467 0.692979 -1.105639 0.177569 0.692361 -1.162148 -0.339030 -0.302731 0.929286 -0.022425 0.185795 -1.996175 -0.285037 0.147231 -0.484503 -0.100651 0.422760 -1.041847 -0.034676 0.312835 0.116860 -0.475520 -0.053178 0.662515 -1.011109 0.688163 -0.165176
-0.179182 -1.358348 -0.383228 0.960234 -0.561593 0.292988 0.999259 -1.838176 -0.488884 0.441158 0.691313 -0.011903 0.673579 0.167055 0.346017 -0.120287 0.588884 -0.455625 0.936392 -0.323619 -1.962532 1.789805 -0.484216 0.393797 0.883193 -0.139675 0.206564 -0.239617 1.898686 0.069989 0.371688 -0.551540 0.080518 -1.811009 1.133415 -0.230953 -0.198866 -1.698029 -0.271493 -0.803530 -0.628677 0.275851 0.499337 -0.021610 0.048683 0.149403 -0.844646 0.999768 -0.066341 0.652939
0.013487 -0.651729 0.033969 1.186053 -0.288385 -2.138550 0.615989 -0.463272 0.030593 1.658972 -1.459179 -0.717765 0.643495 0.399401 -0.320877 1.145864 0.263753 -0.851635 -0.425502 0.081743 -0.713920 1.394795 -0.263783 1.810235 0.189383 0.127725 0.983470 0.285804 1.379665 -0.041541 0.423270 -2.182965 -0.003461 -0.053255 0.636814 -0.261550 -0.883489 -1.040281 0.292876 -0.642521 -0.435156 -0.624142 1.297512 -0.053616 -0.569837 -0.824773 0.054318 0.565179 -0.908455 -1.954138
-0.131653 1.052035 -0.920386 0.103204 0.696116 3.585744 0.588166 -0.569516 -0.407352 -1.577868 1.239596 -0.412677 0.459265 -1.334928 0.984718 -0.852323 0.121506 0.340483 0.584834 4.012945 1.047912 -1.192181 -0.141217 0.595555 2.374870 1.927158 -0.879718 0.377762 -3.713111 -0.717873 -0.861245 3.683216 0.792570 -1.609884 -0.082316 -0.660281 0.532145 -0.917028 -0.928136 0.498516 1.633033 0.187073 -0.499744 -1.391714 0.542918 -0.130027 1.067359 -0.505221 2.390689 1.501008
-0.125208 -1.345347 0.784561 0.521811 -1.115165 -3.160189 0.168877 -0.343891 -0.237881 1.794809 -3.554139 -0.008867 0.091300 0.374892 -0.254973 2.288765 0.246657 -0.391579 -0.586293 -1.102466 0.007968 1.074156 -0.149666 -0.267226 -0.313681 0.242476 0.504647 -0.091009 3.157344 -0.027398 0.828753 -2.639047 0.067927 -0.251576 0.780245 -0.138582 -0.428637 -1.043881 -0.439220 -1.907846 1.193642 0.424984 1.639708 -0.005734 -0.052363 0.545468 -0.473870 0.685604 0.008549 -2.603117
-0.375453 -0.040778 0.025842 -0.037508 -0.577788 -1.416949 0.384652 0.531818 -0.410111 0.136823 -0.109644 0.383439 0.342914 0.146464 0.147680 0.770955 0.070466 0.399896 -1.050177 -0.543214 -3.419677 0.280480 0.416495 0.580515 1.705015 -0.472600 0.430357 -0.385855 0.702678 -0.207887 0.924047 -0.327143 -0.240358 0.028707 -0.823112 0.026950 0.050455 -1.000996 0.003886 -1.023456 0.486775 0.582627 0.112103 0.621128 -0.589921 0.068812 -0.293079 0.387040 -0.169439 -0.994303
0.180087 -0.299819 0.513622 0.185627 -0.120286 -1.594445 0.516789 1.141381 0.155532 0.226124 0.046404 0.992079 -0.374279 0.824675 -0.130238 2.823022 0.515090 -0.028704 -0.913046 1.251216 0.091187 0.804089 -0.308897 0.289761 -0.384537 1.720520 0.659379 1.014489 0.414001 -0.604530 0.584448 -0.104925 0.162069 0.367442 -0.480683 -0.334806 0.324243 -0.839557 -0.884677 -1.124281 1.045125 0.663670 -0.014111 -1.155725 -0.852156 -0.059148 -0.028651 -0.261940 2.444809 0.768550
-0.522635 -0.673863 1.658860 -0.109158 -0.009074 -0.524005 0.141126 0.728009 -0.329936 -0.211546 -0.959533 0.292996 -0.064319 0.109425 -0.435245 0.829878 0.537067 -0.493894 -0.717166 -0.862368 0.272067 0.528857 -0.589946 0.935839 0.239288 -0.511590 0.650816 0.212696 0.076383 0.046474 0.210506 -0.473501 0.300254 -1.164886 -0.062036 0.699538 -0.254788 -0.867503 -0.552887 0.813057 0.843038 -0.422187 0.538150 -0.647442 -0.793788 -0.292521 0.009725 -0.172776 -0.003707 0.524508
-0.205289 0.551223 0.728855 0.125349 0.452513 0.352563 -0.613969 1.258383 -0.084817 -0.976387 0.241692 0.742308 0.510996 -1.205128 0.219967 1.328324 0.516341 0.764051 0.247240 -0.383160 -3.519623 -1.408995 -0.148771 0.825349 0.244922 -0.810811 0.136257 0.064245 -0.216199 -0.051394 -0.530246 1.540812 0.127661 0.531528 -0.620187 0.297852 -0.196937 -0.443787 -0.165035 -0.816502 0.374331 -0.016979 -0.478767 -0.789713 -0.694428 0.168094 -0.854733 -0.484509 0.780464 -0.291065
-1.383818 0.544182 -1.605608 -1.989298 0.031773 -0.275304 0.887621 0.685305 -0.542894 -0.904946 1.010422 -0.098641 0.667886 0.483597 0.667244 1.073109 0.810371 0.110525 -0.668088 -0.179055 -4.750776 -0.901295 0.823651 -0.620916 0.996541 1.036597 -0.693393 -0.386255 0.666300 -0.175138 -0.048369 -0.727755 -0.794905 -3.977507 -0.297872 0.336177 0.571353 -0.691485 0.788209 -0.484189 -0.543719 0.084913 -0.192598 -0.186869 -0.103953 -0.508707 0.023398 0.751080 -0.350836 0.695021
-0.172765 0.605729 1.292644 -1.533305 0.284447 0.002288 -0.343704 0.115886 0.165509 -0.784138 0.092226 -0.264633 0.575463 0.060051 -0.115567 -0.859536 0.776876 0.373124 0.057593 -0.472793 0.988265 0.960594 -0.343208 0.046028 -0.124580 -0.524279 -0.830146 -0.711075 0.354615 -0.634652 -0.474018 0.176431 -0.434199 0.452008 0.127227 -0.098968 -0.122930 0.264302 1.125976 -0.548769 -0.224755 0.156817 0.050233 -0.670004 0.335375 -0.593222 -0.108024 0.087851 0.355779 -0.470973
0.467521 -2.041657 0.614829 -1.369465 -0.417598 -2.271828 0.926076 0.039094 -0.124551 0.058097 0.738348 0.063896 0.081937 -2.015050 0.757765 2.960318 0.269691 0.105432 -0.978412 0.791491 -0.535968 -1.529679 0.178180 0.721774 -0.483902 -1.149660 1.134331 -0.730005 -0.546578 -0.042354 0.488840 -0.445588 -0.576568 0.062816 0.752228 0.342266 0.384903 1.229222 -0.625181 -0.152909 0.375850 0.613491 0.034658 -0.240121 -0.607800 1.352287 -0.532351 0.506781 3.023041 -0.014636
-2.053998 0.672406 0.533989 -1.091483 -0.114724 1.718847 -0.121833 -0.227929 0.001432 -0.464231 -0.077952 0.039192 0.746600 1.285289 0.154867 -0.233216 0.244875 0.322380 0.823456 -0.213148 0.400816 -1.152741 0.366470 -0.412213 0.310508 -0.705611 -0.964585 -0.014825 0.371589 -0.125895 0.330906 0.485039 -0.363794 -0.166379 -0.095777 0.892243 -0.012889 0.934947 2.767860 -0.068609 0.281972 0.178044 0.323473 -0.010854 0.913221 -0.218450 1.123683 -0.105461 1.389081 -1.320992
0.572100 -0.170128 0.734665 -0.346899 0.086787 -0.287687 0.106898 0.635535 0.012670 0.016194 0.206958 0.031142 -0.507361 -0.507054 -0.210557 -0.003978 0.116052 -0.152310 -0.044546 0.000179 -0.196682 -0.484971 -0.358966 -0.637767 -0.471733 6.578840 0.293889 -0.145008 0.322306 -0.291511 -0.364931 0.057373 -0.420243 0.083683 -0.033525 -0.220095 -0.125364 1.337826 -1.004016 -1.028243 -0.407521 -0.182541 0.306831 0.927454 0.207078 0.511107 0.344614 -0.284906 0.490497 -1.166429
3.560582 -0.273312 -0.822259 -0.603715 -0.115222 -0.790260 0.454594 0.564977 -0.918778 0.545912 0.264126 1.111628 0.516120 -0.651270 0.320295 -0.036388 -0.232536 0.077872 -1.113256 -0.118932 0.255116 0.028029 -0.608926 0.439232 -0.537611 -0.151450 0.115074 -0.017513 -0.014896 -0.421657 0.034706 0.124695 0.703161 -0.094657 -0.445580 -0.351913 0.130213 1.407935 0.396243 -2.148726 0.111770 -0.474194 -0.004510 -0.531781 -0.640043 0.148577 -1.434624 0.006349 -0.039482 -3.613500
-4.781824 0.441019 0.413561 0.045013 -0.577658 0.457989 -0.351704 -0.231835 -0.534688 0.302181 1.005592 -1.418547 1.065848 1.777497 0.769134 1.052590 0.260554 -0.289965 1.270399 0.298976 -1.040255 1.600926 -0.202632 1.004591 0.423595 -0.260800 -0.051702 0.274343 -0.762333 -0.180702 1.627097 0.773977 0.502295 1.084383 0.004670 -0.097474 -0.240652 0.864227 0.223029 -0.202033 0.227766 0.191724 0.284761 -1.422744 0.947212 0.740189 4.225222 0.141897 1.267172 -0.016170
-0.163040 0.318208 1.003394 -2.034110 -0.280032 -0.751137 0.623272 -0.271865 0.602353 -0.125448 -0.769649 -0.494413 -0.156851 0.165882 -0.272317 3.053630 0.306677 -0.191843 -0.028067 -0.396935 0.301043 0.706883 -0.485905 1.733921 0.056131 0.220163 -0.442218 0.535462 0.378157 -0.683701 -0.181788 0.282556 0.041900 0.408073 -0.281851 -0.520548 -0.646862 0.652309 -0.199103 -0.060278 0.796602 -0.042722 0.801707 -0.437584 0.362755 -0.393981 -0.374364 0.022000 -0.715359 -2.637489
